{"layers":[{"0":{},"1":{}},{"0":{"bias":-0.05989549680622719,"weights":{"0":0.0044171551380835505,"1":0.13909501543440464}},"1":{"bias":0.13729609244739877,"weights":{"0":-0.17671381447363235,"1":-0.07550890506292077}},"2":{"bias":0.14923484635774759,"weights":{"0":0.18789214619567496,"1":0.14078716282258827}},"3":{"bias":0.1431922781783074,"weights":{"0":-0.012030246868594385,"1":0.16786600220280504}},"4":{"bias":0.06999426355305935,"weights":{"0":-0.01919646147381382,"1":0.03436971442965963}},"5":{"bias":-0.019841768389526334,"weights":{"0":0.16331694888634124,"1":-0.15050601184231}},"6":{"bias":0.10712474031586469,"weights":{"0":0.07823670005681088,"1":-0.004896083852114911}},"7":{"bias":-0.16847543891257796,"weights":{"0":0.07972679583968822,"1":-0.019426804580036827}},"8":{"bias":-0.1193093363281468,"weights":{"0":-0.07043034487664598,"1":0.14070952983327642}},"9":{"bias":0.15402430635756767,"weights":{"0":0.17684637717118107,"1":0.05248525842012502}},"10":{"bias":-0.1653471810191972,"weights":{"0":-0.011766721405536085,"1":-0.05875885829138992}},"11":{"bias":-0.11940596279522157,"weights":{"0":-0.08622368422698559,"1":-0.13457679438209652}},"12":{"bias":0.19316907462562705,"weights":{"0":-0.08175533231628968,"1":-0.06847068620480873}},"13":{"bias":-0.07854734950945944,"weights":{"0":0.07089290505349527,"1":-0.038351874362981916}},"14":{"bias":-0.13128481454503685,"weights":{"0":-0.03057498042784204,"1":-0.03434678205155607}},"15":{"bias":-0.05781197739825083,"weights":{"0":-0.0031759500326318246,"1":-0.01367304648843119}},"16":{"bias":0.11708671705220222,"weights":{"0":-0.1921211705883243,"1":-0.18556287823602768}},"17":{"bias":-0.14494650085754804,"weights":{"0":-0.1621939751948082,"1":0.11345359423963472}},"18":{"bias":-0.17822542333717334,"weights":{"0":0.1432225562037776,"1":0.15467727396676245}},"19":{"bias":0.19064142675655243,"weights":{"0":0.10369850420779586,"1":0.05231504122066741}},"20":{"bias":-0.0624948082076205,"weights":{"0":0.19050949292253944,"1":-0.16479773750830407}},"21":{"bias":0.06757955470977121,"weights":{"0":-0.15975651840041794,"1":-0.013507267548622066}},"22":{"bias":0.1220235671479955,"weights":{"0":0.08279340702041882,"1":-0.051227395287520086}},"23":{"bias":0.0072025079365921705,"weights":{"0":-0.0696004714386862,"1":-0.05694571675789461}},"24":{"bias":-0.06889491854057982,"weights":{"0":0.0075163602393295,"1":-0.18452060318235958}},"25":{"bias":0.04080801221463756,"weights":{"0":0.09355462579412743,"1":0.17603897760339896}},"26":{"bias":0.14300051173570444,"weights":{"0":0.18950802102990466,"1":-0.17983744988293587}},"27":{"bias":-0.08910937583381323,"weights":{"0":0.1336236215581339,"1":-0.11303862908279123}},"28":{"bias":-0.06805263568076075,"weights":{"0":-0.1692892642983133,"1":0.09825439095042804}},"29":{"bias":-0.027533042965168824,"weights":{"0":-0.009666981504332123,"1":0.08986912005485981}},"30":{"bias":-0.10406854666692726,"weights":{"0":0.09654080870033771,"1":-0.11248177939172846}},"31":{"bias":0.0634993160176617,"weights":{"0":0.041939037685132435,"1":0.0631263888256983}},"32":{"bias":-0.18050799063115058,"weights":{"0":-0.07840174529204012,"1":0.07601331965526165}},"33":{"bias":0.18267134432474405,"weights":{"0":0.15858232990050614,"1":-0.0274186118715055}},"34":{"bias":-0.20053493021701907,"weights":{"0":0.042361737591607884,"1":0.19598417503626148}},"35":{"bias":0.0817676082210278,"weights":{"0":0.03751558223093571,"1":0.1668859576558043}},"36":{"bias":0.16664462252883197,"weights":{"0":-0.1610684939038464,"1":0.1405577919568749}},"37":{"bias":0.16061158336160286,"weights":{"0":0.11108383986020137,"1":-0.06583066417793504}},"38":{"bias":0.06241260161711021,"weights":{"0":-0.12305409577237728,"1":0.19098605717334982}},"39":{"bias":0.045481459696231574,"weights":{"0":0.0017523451202299256,"1":0.010181947678991117}},"40":{"bias":0.18729730252536425,"weights":{"0":-0.15154152510592056,"1":0.16369128433008354}},"41":{"bias":-0.08859278719977032,"weights":{"0":-0.13018591967423598,"1":-0.1558263229224284}},"42":{"bias":0.1336170183504962,"weights":{"0":-0.13066519721857112,"1":-0.057230910394380885}},"43":{"bias":0.09387556140353072,"weights":{"0":0.12962350248724147,"1":-0.13500212032254277}},"44":{"bias":0.001649295194517796,"weights":{"0":0.0512053146576667,"1":0.1521504960663125}},"45":{"bias":0.004815459142073341,"weights":{"0":0.10672695625156231,"1":-0.11153053634552987}},"46":{"bias":0.19818824153672326,"weights":{"0":-0.1732182080442411,"1":0.15164850564626767}},"47":{"bias":0.1142655685334563,"weights":{"0":-0.03344215642242804,"1":0.12564989472915125}},"48":{"bias":-0.07505656056494636,"weights":{"0":-0.10061029713788355,"1":0.17385581401515154}},"49":{"bias":-0.16086875437598927,"weights":{"0":-0.190279016857241,"1":-0.12224376922254097}},"50":{"bias":-0.17866224871413586,"weights":{"0":-0.020362271869550586,"1":-0.05218972981991132}},"51":{"bias":-0.004148592151686875,"weights":{"0":0.031164602216091186,"1":-0.023539620674775042}},"52":{"bias":0.15789062677332702,"weights":{"0":-0.03442773534977883,"1":-0.028093633081757028}},"53":{"bias":0.19055860373066344,"weights":{"0":-0.024332256535532892,"1":0.09201220013674768}},"54":{"bias":0.1783198660678025,"weights":{"0":0.08101932541858758,"1":0.01888258048486648}},"55":{"bias":0.04834923615205611,"weights":{"0":-0.16602619951292852,"1":-0.16075024532653084}},"56":{"bias":0.10884064596617164,"weights":{"0":-0.14618386610566372,"1":0.08028642112295356}},"57":{"bias":0.18937665446049026,"weights":{"0":0.17431608945697807,"1":-0.1691814855549741}},"58":{"bias":0.12003098425138334,"weights":{"0":0.1839539466343229,"1":0.18346408118465382}},"59":{"bias":-0.09503160908607929,"weights":{"0":0.01911580817851871,"1":0.04122436012780206}},"60":{"bias":-0.014418522940887257,"weights":{"0":0.0010188305559307997,"1":-0.08484496044697619}},"61":{"bias":0.17594504111513987,"weights":{"0":0.17665997209177658,"1":0.10184780341823799}},"62":{"bias":-0.020474697131822792,"weights":{"0":-0.06387176655202362,"1":0.15449690888220532}},"63":{"bias":0.007348439810622911,"weights":{"0":0.10857690453062036,"1":0.054066403055343604}},"64":{"bias":0.13030475788754653,"weights":{"0":-0.07160608676513655,"1":0.11416067716619104}},"65":{"bias":0.11253847404238292,"weights":{"0":0.06718339604139983,"1":-0.1350224043188288}},"66":{"bias":-0.16220504445744371,"weights":{"0":0.029103712864436998,"1":0.0539512497724675}},"67":{"bias":-0.170214993765498,"weights":{"0":-0.1297872963804549,"1":-0.10445044563106774}},"68":{"bias":-0.1583781530829352,"weights":{"0":0.07462472510453033,"1":-0.07575062475686781}},"69":{"bias":0.15294429306789178,"weights":{"0":-0.17195560144682365,"1":-0.095511924111421}},"70":{"bias":0.05142276945958055,"weights":{"0":0.02659822143608198,"1":-0.07479853990467547}},"71":{"bias":-0.15492560671667246,"weights":{"0":-0.12640521906783767,"1":0.12679718872884368}},"72":{"bias":0.07960781273977569,"weights":{"0":-0.11664216105108204,"1":-0.13977362160576567}},"73":{"bias":0.054096257361849656,"weights":{"0":0.11319755826057298,"1":0.1955478970971856}},"74":{"bias":0.015704045129670236,"weights":{"0":-0.02535625729334151,"1":-0.1874349555142197}},"75":{"bias":-0.19584950108951454,"weights":{"0":0.18986436648749944,"1":-0.1349343171158114}},"76":{"bias":-0.10027427430961065,"weights":{"0":0.05256425986413549,"1":0.06530455656060365}},"77":{"bias":-0.1783189933869619,"weights":{"0":0.011040569237349196,"1":-0.1533348603718257}},"78":{"bias":0.14018122622231552,"weights":{"0":0.16568790408478534,"1":0.07226053503444294}},"79":{"bias":-0.10584040732654351,"weights":{"0":-0.15662620381823925,"1":-0.10160226470626171}},"80":{"bias":0.1367321764811782,"weights":{"0":0.11398099993356187,"1":0.04856184874045872}},"81":{"bias":-0.03487273862248932,"weights":{"0":-0.14397939766441858,"1":0.19427134620041112}},"82":{"bias":-0.03699856039263543,"weights":{"0":-0.11843854858294618,"1":-0.10505297070960029}},"83":{"bias":-0.021392123259719703,"weights":{"0":-0.02180297180980481,"1":0.029197754139212422}},"84":{"bias":0.02225400802634327,"weights":{"0":0.017079892685550047,"1":-0.022954245087688147}},"85":{"bias":0.07916014437130248,"weights":{"0":0.09037456045911796,"1":0.050159141919696455}},"86":{"bias":-0.19500638569801823,"weights":{"0":-0.18869709288901548,"1":0.13662088228216104}},"87":{"bias":-0.04694349514463505,"weights":{"0":0.036149109534383855,"1":-0.19754578841327575}},"88":{"bias":-0.1333488921411658,"weights":{"0":-0.10557841454468991,"1":-0.039577785802496115}},"89":{"bias":-0.06769164791808813,"weights":{"0":0.04480092805931557,"1":-0.18533900314927518}},"90":{"bias":-0.016805250065514234,"weights":{"0":-0.0957055470891186,"1":-0.12841788335880522}},"91":{"bias":0.019135964753644895,"weights":{"0":-0.08991579332555384,"1":-0.1482497118636817}},"92":{"bias":0.10975997370566917,"weights":{"0":0.19316487861440007,"1":0.0177369333788427}},"93":{"bias":-0.14300578217124824,"weights":{"0":0.14527768081632114,"1":-0.14723744413243448}},"94":{"bias":-0.1356445971900981,"weights":{"0":-0.18915935803497633,"1":-0.10350659533022064}},"95":{"bias":0.020993170977637563,"weights":{"0":0.11679703867024804,"1":-0.09804074345779078}},"96":{"bias":0.09512945138675293,"weights":{"0":-0.098102677359336,"1":0.017948642430919693}},"97":{"bias":-0.09137336212907135,"weights":{"0":-0.025740253542696656,"1":-0.15818682093908668}},"98":{"bias":0.1283275784785015,"weights":{"0":-0.014330961016386562,"1":-0.17365469205077136}},"99":{"bias":0.16540203193284295,"weights":{"0":0.08037863452960997,"1":-0.10838088577075647}},"100":{"bias":0.17233726179273473,"weights":{"0":-0.04335798216657408,"1":-0.15298665317302354}},"101":{"bias":-0.15900762460344342,"weights":{"0":0.0010671985579550625,"1":-0.0008434005965111744}},"102":{"bias":0.18737720666941787,"weights":{"0":-0.028729458353633136,"1":0.14464736350048396}},"103":{"bias":-0.1327641961966312,"weights":{"0":0.17590019776159638,"1":0.1524532866397523}},"104":{"bias":-0.07288170962181147,"weights":{"0":0.0451290876735288,"1":0.09917261839942947}},"105":{"bias":-0.07493743072202046,"weights":{"0":-0.02541593509218315,"1":0.035091304160043635}},"106":{"bias":-0.09157153654663085,"weights":{"0":0.09507862026671116,"1":-0.15085223698640818}},"107":{"bias":-0.07394474148544788,"weights":{"0":-0.04775738777148214,"1":-0.12012926296173089}},"108":{"bias":0.17670335545925175,"weights":{"0":-0.041318006672897145,"1":-0.1493142880647595}},"109":{"bias":0.18454558618920025,"weights":{"0":0.032850234695799424,"1":-0.1176222290209065}},"110":{"bias":-0.036638870285838024,"weights":{"0":-0.15623629224044883,"1":0.10250890100184563}},"111":{"bias":-0.15546341346710735,"weights":{"0":0.14941097558178634,"1":-0.06140629380214068}},"112":{"bias":0.19781829491130531,"weights":{"0":-0.06346102461037573,"1":0.07020376841648783}},"113":{"bias":-0.11407160881427691,"weights":{"0":-0.13209536918485415,"1":-0.05796786707935924}},"114":{"bias":-0.09528348722900856,"weights":{"0":-0.13359608880334906,"1":-0.013814262864525936}},"115":{"bias":-0.12759543554445557,"weights":{"0":-0.0010460456310886213,"1":-0.0020203903779329887}},"116":{"bias":-0.12987813746183502,"weights":{"0":-0.00120723171804063,"1":-0.1773185456424892}},"117":{"bias":0.150456228239136,"weights":{"0":-0.05195365774448657,"1":-0.10017094538605988}},"118":{"bias":-0.027201067570349086,"weights":{"0":0.05358709070290679,"1":-0.16347971407287176}},"119":{"bias":0.11452867491318812,"weights":{"0":0.07926272159789455,"1":0.013633149141358575}},"120":{"bias":-0.07546777575394253,"weights":{"0":0.08985164968740939,"1":-0.0496452613700885}},"121":{"bias":-0.1631140359548797,"weights":{"0":-0.0647266467940309,"1":0.014199038079013872}},"122":{"bias":-0.0848764612975764,"weights":{"0":-0.09546031743614165,"1":0.1429942002385441}},"123":{"bias":0.08661364722625865,"weights":{"0":0.1846671654190125,"1":0.06847117591181387}},"124":{"bias":0.11878999870123258,"weights":{"0":0.003267015908443305,"1":0.003833845654743297}},"125":{"bias":0.05382764690355229,"weights":{"0":0.15336547474489814,"1":-0.1531874834735907}},"126":{"bias":-0.012267037425230453,"weights":{"0":-0.10292973360942846,"1":-0.1499277015551014}},"127":{"bias":-0.18585396000408635,"weights":{"0":-0.048071074291129445,"1":0.0793965939166259}},"128":{"bias":-0.06370368406930264,"weights":{"0":0.10196478328667491,"1":-0.15310951981812582}},"129":{"bias":-0.17373586423716703,"weights":{"0":0.15913165440819776,"1":-0.18215889993173937}},"130":{"bias":-0.07210159352663385,"weights":{"0":0.06080377031222106,"1":-0.0814759993680088}},"131":{"bias":0.13042121277378874,"weights":{"0":-0.14625752068785608,"1":-0.15230787500144227}},"132":{"bias":0.16350951632909003,"weights":{"0":0.19438457481481825,"1":0.11386217912373152}},"133":{"bias":0.12119601963714435,"weights":{"0":-0.03571787383737385,"1":0.06084477576970625}},"134":{"bias":-0.039470435511540454,"weights":{"0":-0.05077943784475175,"1":0.014658584043403202}},"135":{"bias":-0.07258653754683436,"weights":{"0":-0.09325643684869461,"1":-0.11256431859366264}},"136":{"bias":0.11943142593387626,"weights":{"0":-0.13056086337363199,"1":0.022338957762493367}},"137":{"bias":0.001623613593361381,"weights":{"0":0.0877305168310743,"1":-0.17131852838082634}},"138":{"bias":-0.01990951828120765,"weights":{"0":-0.194808620886033,"1":0.0632097560516805}},"139":{"bias":0.0984905959916454,"weights":{"0":-0.18264678070253204,"1":-0.05971562616323891}},"140":{"bias":-0.12583569645151618,"weights":{"0":-0.09858866019932969,"1":0.1946216965257944}},"141":{"bias":0.10043632118972987,"weights":{"0":-0.1212907985712052,"1":-0.1563515723763956}},"142":{"bias":0.03972808904626861,"weights":{"0":0.19914693008461953,"1":-0.11517017099529411}},"143":{"bias":0.0305007478517851,"weights":{"0":-0.053199294687533705,"1":0.06447390613042625}},"144":{"bias":0.18479358435678514,"weights":{"0":0.061859615279703406,"1":0.0936207938048128}},"145":{"bias":-0.07089058811213374,"weights":{"0":-0.08248413844699565,"1":-0.020346805492173454}},"146":{"bias":0.046759692693173274,"weights":{"0":-0.1193788007680503,"1":-0.09721156789095292}},"147":{"bias":0.18542354620051443,"weights":{"0":0.14033602396482908,"1":0.03936510648025555}},"148":{"bias":0.11912715252995323,"weights":{"0":0.09865808576690044,"1":-0.04755575801924427}},"149":{"bias":0.1470507470320694,"weights":{"0":0.050405979309609994,"1":0.07682943737890938}},"150":{"bias":0.13922507015735525,"weights":{"0":-0.11345605360104667,"1":-0.09018149610788008}},"151":{"bias":0.15126501705948514,"weights":{"0":0.0018368411701081833,"1":0.04234379880489822}},"152":{"bias":0.08133192747113817,"weights":{"0":-0.07717253142973704,"1":0.1798375836247788}},"153":{"bias":-0.007894177400639253,"weights":{"0":-0.09903895691737175,"1":0.10131978897079567}},"154":{"bias":0.039664438089893485,"weights":{"0":0.03954469835127386,"1":-0.05846579364544809}},"155":{"bias":0.11023835237031636,"weights":{"0":0.042245333743681446,"1":-0.057861694362236024}},"156":{"bias":-0.07097425688159889,"weights":{"0":0.06988801042579984,"1":0.01635068863198659}},"157":{"bias":-0.12361658790075361,"weights":{"0":-0.004470997636170898,"1":0.09190221428446535}},"158":{"bias":0.09042125451301986,"weights":{"0":-0.18940387877376655,"1":0.1569937858740528}},"159":{"bias":0.037684860717938834,"weights":{"0":-0.011466613894987349,"1":0.17206970054748474}},"160":{"bias":0.024404010731512587,"weights":{"0":-0.08161248821629208,"1":-0.13710406244896306}},"161":{"bias":0.14075989720454177,"weights":{"0":0.1264638892028267,"1":-0.100256721736442}},"162":{"bias":0.07917633918509716,"weights":{"0":-0.014685250615391082,"1":-0.14712671981805195}},"163":{"bias":0.08496525597519823,"weights":{"0":-0.15650484136213622,"1":0.11948393900960329}},"164":{"bias":-0.057269453450255685,"weights":{"0":0.0954306148380385,"1":0.031890050818264376}},"165":{"bias":0.06451143375210673,"weights":{"0":0.10436744977383955,"1":0.12623623056152294}},"166":{"bias":-0.1109966350166787,"weights":{"0":-0.18177633393896786,"1":0.13340629628302422}},"167":{"bias":-0.13194111273057219,"weights":{"0":0.09730534470664987,"1":-0.11154516522434386}},"168":{"bias":0.03383725372112755,"weights":{"0":-0.13518653757697124,"1":-0.10136456042388234}},"169":{"bias":-0.0686252697964471,"weights":{"0":0.03233921440037904,"1":-0.03741803066436365}},"170":{"bias":0.06449764791450528,"weights":{"0":0.14412455399730034,"1":0.06810948148937429}},"171":{"bias":0.06077305491139407,"weights":{"0":-0.17281134603736908,"1":-0.136111636277794}},"172":{"bias":-0.07935315072447757,"weights":{"0":0.06568822016953335,"1":-0.06303927817470939}},"173":{"bias":0.08751383459790205,"weights":{"0":0.08769474718327108,"1":0.051203048335442584}},"174":{"bias":0.06554484708969897,"weights":{"0":-0.18958908837794325,"1":0.15095353532222544}},"175":{"bias":-0.08299893071699538,"weights":{"0":-0.009950369023243866,"1":-0.09132903516382296}},"176":{"bias":-0.14125423320690386,"weights":{"0":0.061342231850435414,"1":0.10780243776172015}},"177":{"bias":0.16196792859249126,"weights":{"0":0.15187471979051148,"1":-0.14034382133818699}},"178":{"bias":0.08184057950567576,"weights":{"0":-0.11460940004563397,"1":0.01315043665669174}},"179":{"bias":-0.14444913142712326,"weights":{"0":0.06307242418633596,"1":0.05660230964235187}},"180":{"bias":0.0713856820528373,"weights":{"0":0.18422264907268476,"1":-0.05312327144239906}},"181":{"bias":-0.19790109854586704,"weights":{"0":0.040048935895742765,"1":0.06711019602642362}},"182":{"bias":0.11754424011230173,"weights":{"0":-0.043754367328162486,"1":-0.149343278328304}},"183":{"bias":-0.05177172277439678,"weights":{"0":-0.12707798152496422,"1":-0.20076757350845204}},"184":{"bias":0.08503278506333159,"weights":{"0":0.12264661805411431,"1":0.1903159206818771}},"185":{"bias":0.10671415051552692,"weights":{"0":0.1759299894178028,"1":-0.047300163143136474}},"186":{"bias":0.09464396411560294,"weights":{"0":-0.03837408739942702,"1":-0.021990409928368253}},"187":{"bias":0.1499054445576337,"weights":{"0":-0.18437957747352096,"1":-0.11918193508128928}},"188":{"bias":-0.16664913845473855,"weights":{"0":-0.12113666878401821,"1":-0.08218927759572506}},"189":{"bias":0.10001810548983378,"weights":{"0":0.12180780078913561,"1":0.15238509249471058}},"190":{"bias":0.03269914103880578,"weights":{"0":0.09121087290162455,"1":-0.1323851962723331}},"191":{"bias":-0.03196293904776461,"weights":{"0":-0.14606129878723995,"1":-0.12871123300585774}},"192":{"bias":0.07263674984752883,"weights":{"0":-0.013096645499203585,"1":-0.17021300065385261}},"193":{"bias":0.18698168711768803,"weights":{"0":-0.06517182801781587,"1":-0.0166347904731493}},"194":{"bias":-0.1251170301775858,"weights":{"0":-0.0698967111623964,"1":-0.19115745877755502}},"195":{"bias":-0.06068456452587909,"weights":{"0":-0.15931663932052925,"1":-0.022099231146011127}},"196":{"bias":-0.017515165273805908,"weights":{"0":0.08398210467400774,"1":-0.09086364752954504}},"197":{"bias":0.10336906599173092,"weights":{"0":0.058982557998361496,"1":-0.14131393694415256}},"198":{"bias":-0.15504953914815273,"weights":{"0":0.18766186677992602,"1":0.18964386013123535}},"199":{"bias":0.1387218422476847,"weights":{"0":-0.028056208631375312,"1":0.13836721345699599}},"200":{"bias":-0.10287659853209817,"weights":{"0":-0.11324754787305036,"1":0.07997374494984309}},"201":{"bias":0.07999744747900647,"weights":{"0":-0.1837938508227402,"1":-0.1323796935270703}},"202":{"bias":0.06414135221633055,"weights":{"0":-0.03146027161039519,"1":0.022016955879962174}},"203":{"bias":-0.1135459149012005,"weights":{"0":-0.002570695344859153,"1":-0.10435410938333471}},"204":{"bias":0.0961019923806717,"weights":{"0":-0.17037314577478943,"1":-0.14724546474763073}},"205":{"bias":0.007877718124683814,"weights":{"0":-0.18154349351815427,"1":0.10655808136688108}},"206":{"bias":0.15026971107005735,"weights":{"0":0.1178867545502102,"1":-0.01896857721149729}},"207":{"bias":-0.06008688134051308,"weights":{"0":-0.10952789477575085,"1":0.011708837345479279}},"208":{"bias":-0.004536320027976137,"weights":{"0":-0.10134096502585584,"1":0.008758748630980182}},"209":{"bias":-0.1810351316746602,"weights":{"0":-0.06160498392501346,"1":-0.16695951752009544}},"210":{"bias":0.07211538608560367,"weights":{"0":-0.14690227889405236,"1":-0.0901537238797927}},"211":{"bias":0.118798089093202,"weights":{"0":0.1010739016465369,"1":0.1299137122727187}},"212":{"bias":0.03533397902945388,"weights":{"0":-0.006603791715989182,"1":0.057914423673442454}},"213":{"bias":0.00047551902456184094,"weights":{"0":0.051489408569607875,"1":0.11544435319231601}},"214":{"bias":0.11739740618747521,"weights":{"0":-0.18265625792615145,"1":0.12830025676875695}},"215":{"bias":-0.055876768751540136,"weights":{"0":0.043699922624984844,"1":-0.15991805256721955}},"216":{"bias":0.04843809351046334,"weights":{"0":0.014659786766779537,"1":0.020608273053684397}},"217":{"bias":-0.17986248879042266,"weights":{"0":-0.04441644472048295,"1":-0.016294456099433974}},"218":{"bias":-0.1264677651947919,"weights":{"0":-0.002294938436653654,"1":0.05123416926051488}},"219":{"bias":0.09264165913262908,"weights":{"0":-0.18496285234010668,"1":0.07215070425248156}},"220":{"bias":0.14595100132860894,"weights":{"0":-0.045978390209801656,"1":-0.04381089573824627}},"221":{"bias":0.1436651808860709,"weights":{"0":0.1046356561468545,"1":0.18673031162251677}},"222":{"bias":-0.01614054904285501,"weights":{"0":0.07275626459041257,"1":-0.08116630109998212}},"223":{"bias":-0.1257106451428053,"weights":{"0":-0.1735451008666644,"1":-0.04012251062165413}},"224":{"bias":0.02739659957836818,"weights":{"0":-0.06613559683140419,"1":0.17046047970959488}},"225":{"bias":0.05977622621127122,"weights":{"0":0.15808741166483403,"1":-0.06800640921646815}},"226":{"bias":0.13096707866049292,"weights":{"0":0.0018641982546000746,"1":-0.1725891883542236}},"227":{"bias":0.10590130100465563,"weights":{"0":-0.1002962973371317,"1":0.03408651210971709}},"228":{"bias":-0.148994688506395,"weights":{"0":0.11539632723910515,"1":0.18496163439957516}},"229":{"bias":0.09477986771870453,"weights":{"0":0.14193981435436287,"1":0.005759820843815449}},"230":{"bias":-0.07756839638082529,"weights":{"0":0.05765361832463156,"1":0.16943241740780457}},"231":{"bias":-0.04318053347273746,"weights":{"0":0.16486308051129833,"1":-0.007918886293805254}},"232":{"bias":0.13673666501529164,"weights":{"0":0.010423276274345639,"1":0.006772857210063111}},"233":{"bias":0.0015874894321244344,"weights":{"0":-0.027865906670571594,"1":-0.15572899777215332}},"234":{"bias":0.05352751288435056,"weights":{"0":0.03681923645486512,"1":0.0487073810486377}},"235":{"bias":-0.15541218407556417,"weights":{"0":0.084529796135421,"1":0.10070124144393379}},"236":{"bias":-0.19097884496612805,"weights":{"0":0.057431238666411866,"1":-0.0993614980780915}},"237":{"bias":0.051902108141696726,"weights":{"0":0.16971736790231173,"1":0.19058563375139181}},"238":{"bias":-0.03325438763758914,"weights":{"0":0.06948277358510158,"1":0.015403100637866025}},"239":{"bias":-0.19356142948806862,"weights":{"0":0.14018931492397363,"1":0.1605553610866481}},"240":{"bias":-0.04047242515957096,"weights":{"0":-0.16911532263293003,"1":-0.11332275426377147}},"241":{"bias":-0.044198466657539466,"weights":{"0":-0.07901352162910769,"1":-0.18316826254122748}},"242":{"bias":0.07994509711156057,"weights":{"0":0.17829603201090322,"1":-0.11213661095056054}},"243":{"bias":0.13415339378478905,"weights":{"0":0.09857867140313126,"1":-0.009310752783292625}},"244":{"bias":0.14565304700495266,"weights":{"0":-0.017719905470100356,"1":-0.039403778342302104}},"245":{"bias":0.10436467257587045,"weights":{"0":-0.16609138719070346,"1":0.11474064842823732}},"246":{"bias":-0.003061073646724054,"weights":{"0":-0.0253094215062383,"1":-0.041478103454310536}},"247":{"bias":0.13746235457864361,"weights":{"0":0.022222857746511615,"1":0.030360066947902796}},"248":{"bias":0.14930722570575716,"weights":{"0":0.18197173760016722,"1":0.006535713184571195}},"249":{"bias":-0.11148740543443891,"weights":{"0":0.12522653254956684,"1":-0.022644731716973964}},"250":{"bias":-0.12594939879020953,"weights":{"0":0.14329849066130018,"1":0.12460279715404485}},"251":{"bias":-0.12264513571281009,"weights":{"0":0.036837310081339864,"1":0.05092939806058758}},"252":{"bias":0.02677634581174459,"weights":{"0":0.13488384293945305,"1":-0.013335825679370663}},"253":{"bias":0.16908475956526622,"weights":{"0":0.120366677095812,"1":-0.10314586865526815}},"254":{"bias":0.04992257047855972,"weights":{"0":-0.16846791046453494,"1":0.19180498216569683}},"255":{"bias":-0.02107157628208795,"weights":{"0":-0.11780573358171793,"1":-0.0863094960992435}}},{"0":{"bias":-0.0007405688700570247,"weights":{"0":-0.09119753881925251,"1":0.07341253313215244,"2":0.17912821891524927,"3":0.15144500183329085,"4":-0.11067482613056856,"5":-0.19169595910137474,"6":-0.031564799791958975,"7":0.10096218153873919,"8":-0.156651348919501,"9":0.19536139400125777,"10":-0.058445368520757345,"11":0.05252663197551218,"12":0.02162244481873433,"13":-0.09480686951741367,"14":0.09135915201447489,"15":-0.07623803311365487,"16":0.1378862656618135,"17":0.06396064205756209,"18":-0.06643849890513603,"19":-0.015330230690795121,"20":-0.07063841713410227,"21":-0.19458067453060765,"22":0.002191328677804598,"23":0.08689507755879967,"24":0.17891142614096572,"25":-0.1382427698803888,"26":0.11594480462704965,"27":0.022237396592485758,"28":0.04434017298641147,"29":-0.0519958890998577,"30":0.18260798561256653,"31":0.07357916619489162,"32":-0.1795587621383159,"33":-0.19870042832772955,"34":-0.091073631303553,"35":0.05112922279502601,"36":0.1942541503283314,"37":0.0007671363452041526,"38":-0.06959116745870535,"39":-0.08387247445982894,"40":-0.07708891889425053,"41":0.00995851612837837,"42":-0.011457281669664714,"43":0.0818940063389551,"44":0.19344352324404543,"45":-0.10264677250638218,"46":-0.03448877239170212,"47":0.016506360443202753,"48":0.045045424864177876,"49":0.01845872453793803,"50":-0.0758241373615209,"51":-0.07271861936861322,"52":0.1090324926463425,"53":0.1359689610304388,"54":-0.1869249424623423,"55":0.14714065191933112,"56":-0.03107411431906828,"57":0.08687791479025933,"58":0.05867365298652519,"59":-0.1828712176373535,"60":-0.18086621036887843,"61":0.169623152976702,"62":-0.17994111104198393,"63":0.008758875559119745,"64":0.10324685644888727,"65":-0.037361095330525694,"66":0.19267893488855142,"67":-0.0253750519464845,"68":-0.024714305068791225,"69":-0.049848029746813,"70":-0.007574106198649028,"71":0.189989172763756,"72":-0.055080220542713644,"73":-0.08165759079441409,"74":0.15152134507112916,"75":-0.1057310419032824,"76":0.0023696293644248087,"77":0.014468359500462383,"78":0.030330675655056268,"79":0.1265259551249787,"80":0.09978803478192441,"81":0.11203126487975638,"82":0.07996104070431279,"83":0.06536440161508326,"84":-0.14955003010258547,"85":0.058204794401234286,"86":0.06240505752561579,"87":0.09049753328040566,"88":0.045807228302125996,"89":-0.18231803694786264,"90":-0.15596139207161197,"91":-0.1586880631781719,"92":0.03458363099820734,"93":0.059639426207938356,"94":0.11026843383304148,"95":-0.11736657628417127,"96":-0.01370037736750445,"97":0.1604687082727081,"98":-0.17626281927719267,"99":-0.1622710644713286,"100":-0.04966776707597697,"101":-0.19210818624535272,"102":-0.012962236132899483,"103":-0.12948944459921655,"104":-0.011757336064061907,"105":0.09148720519824995,"106":0.0898844647205361,"107":-0.10503892467386236,"108":-0.13695039831634664,"109":-0.18956402028151192,"110":0.013033566559130967,"111":-0.11316809450060382,"112":0.13783665669711667,"113":-0.036406362703233434,"114":0.14003260994308556,"115":0.11274744579689447,"116":0.04117757058565601,"117":-0.03982590557341348,"118":0.1794844467988329,"119":-0.06118315603505987,"120":-0.1484470480493643,"121":0.15116827166208846,"122":-0.037353383569433546,"123":0.008370685096145065,"124":0.09933853770720569,"125":-0.11398714721191118,"126":0.05937321141443184,"127":0.1520814256993022,"128":-0.1600975132093981,"129":0.1796049950469373,"130":-0.10146267182993507,"131":-0.1877557985490151,"132":0.054471231661347326,"133":0.17191191516527862,"134":0.06314160664255299,"135":-0.1091720390208763,"136":-0.16275066923057746,"137":0.02456798463627816,"138":0.18160918480037208,"139":0.17649383233606714,"140":-0.02144907559709438,"141":-0.05914117951982173,"142":-0.09481549706899037,"143":0.18312624620563872,"144":-0.1893073902185435,"145":0.04292841116685794,"146":0.06908752781961483,"147":-0.061155204685291245,"148":-0.03980434633688711,"149":0.09786668580964554,"150":0.03887930305526715,"151":-0.11549525285449984,"152":-0.16012420206545686,"153":0.009177921419862418,"154":-0.08452805499713704,"155":0.04038262512775001,"156":0.1948275418763878,"157":-0.08670646621257963,"158":0.0947124798404297,"159":0.19651858594258023,"160":0.050947329491580345,"161":-0.01059365103767009,"162":-0.08813330171805285,"163":0.017373639168356644,"164":0.10506520150970171,"165":-0.11213586255641962,"166":-0.04897833688338648,"167":0.14087679238296036,"168":-0.17430293544401543,"169":-0.1923788684126497,"170":0.10370311122372389,"171":-0.18335823511948876,"172":0.014726455419463727,"173":0.07020136406742714,"174":-0.02471496894750412,"175":0.11269415200074925,"176":-0.13956849474843883,"177":-0.009981218497764194,"178":0.09960380090358506,"179":0.16956579899228608,"180":0.027818206385579275,"181":-0.05865080866106024,"182":-0.13787986362089064,"183":-0.10615121394150577,"184":-0.17811221319561465,"185":-0.01968571084579005,"186":0.1376121862383862,"187":0.002550668437056213,"188":0.04926027635965459,"189":0.2009927808806639,"190":0.04799764394753207,"191":0.10617725953992917,"192":-0.15309096623666948,"193":0.19613766429941853,"194":0.16104693774084,"195":-0.16001914927778507,"196":0.12302325194547999,"197":0.1441535362111249,"198":-0.046102611321410844,"199":0.19481681630137074,"200":-0.18353425308878737,"201":0.09825201235328897,"202":0.11005678838245035,"203":-0.10466516422543515,"204":0.054512192292902134,"205":0.1732467550820909,"206":0.11073066386861738,"207":0.15344027711503555,"208":0.04771502167830434,"209":0.13880128632526903,"210":-0.05214660160726577,"211":0.12131608565698124,"212":-0.052719228936852394,"213":-0.10840439108994943,"214":-0.06960422139781104,"215":-0.10403673972874851,"216":-0.0772788304931384,"217":0.08173823329892865,"218":0.1435923314185415,"219":0.16067508923193666,"220":0.07591632596158411,"221":0.15280699122579836,"222":0.17379959167226922,"223":-0.13367376914061038,"224":0.041674565587337904,"225":0.2009884488231035,"226":-0.07443088599619473,"227":-0.06530201398087387,"228":-0.09261766834639178,"229":0.08888337517413779,"230":0.1687392581954919,"231":-0.12681867986568424,"232":-0.1290403064675976,"233":-0.11633198023566763,"234":-0.006147486687543827,"235":0.1845321963660949,"236":0.1281700057092865,"237":-0.13404042854071244,"238":-0.06244323352309399,"239":0.1837752800583374,"240":-0.09168076745313478,"241":-0.12097788819232273,"242":-0.13978870571857602,"243":0.1988198988689868,"244":-0.16184533444810495,"245":-0.15270900455732528,"246":0.09687213396645755,"247":0.06904264286956888,"248":-0.10526284502617998,"249":0.13969171461795238,"250":-0.08116640074995543,"251":-0.09151527148993636,"252":0.02998967159514944,"253":-0.1099482388981219,"254":-0.11904612639132685,"255":0.10312362556444143}},"1":{"bias":-0.03612280658505474,"weights":{"0":0.08464323879594345,"1":-0.13124820367192425,"2":0.02649795248428427,"3":0.1090852652953505,"4":-0.17440268329848538,"5":-0.14411666561727413,"6":-0.1881307380400692,"7":-0.09506527160933699,"8":-0.19567583349025577,"9":0.14638502235793027,"10":0.07270891129060789,"11":0.17577136396092327,"12":0.18896053847154168,"13":-0.19268077785469265,"14":0.0004507028807147357,"15":0.0115314988199225,"16":0.06182056346761293,"17":-0.16768576726450113,"18":0.16561119564182628,"19":0.07339793883093815,"20":0.15947444086515208,"21":-0.004414506680940427,"22":0.18173620055001036,"23":-0.04443279572352031,"24":-0.0693834020265777,"25":-0.07538017936928683,"26":-0.1759666549391095,"27":0.07930689755719124,"28":0.11739971489454364,"29":-0.15782957896607347,"30":0.08929596092625247,"31":0.002160508459634063,"32":0.18166240169334777,"33":-0.002969677300093424,"34":0.16543352392252225,"35":0.1412211819946638,"36":0.13520489284935133,"37":0.10314683976824644,"38":0.10367078739428767,"39":0.16368382052679448,"40":0.10007546848104994,"41":0.06375178112855852,"42":0.059863128185123064,"43":0.10517894168008661,"44":-0.06123503911282476,"45":-0.03551511866128249,"46":-0.041408674996705884,"47":0.11497691623413074,"48":-0.08341525476669501,"49":0.1789055829090031,"50":-0.15414138483996348,"51":-0.18382470358160438,"52":0.06936801161986304,"53":0.03337133998317466,"54":-0.12623274795605988,"55":0.014222138315541517,"56":0.054780128130520495,"57":0.083195293120772,"58":0.05751593021043857,"59":-0.010481360897894313,"60":0.014280430905841891,"61":0.10385445968366153,"62":0.043439210571514904,"63":0.05451194360409326,"64":0.08571072853020442,"65":0.16100259071179193,"66":-0.14197414201405176,"67":0.08194157836072787,"68":0.17641513709578827,"69":0.14377929311003598,"70":0.0462990581704183,"71":0.03498646609575125,"72":-0.1654305943970584,"73":-0.03217978255185492,"74":0.19450676459002114,"75":0.12256793434356192,"76":-0.006410417233270098,"77":0.16126636399820363,"78":-0.009130911524846541,"79":-0.1389395626772946,"80":0.06448333661601989,"81":0.1637223352477319,"82":-0.15706750919057003,"83":0.07090224967464327,"84":-0.04901161542610075,"85":0.11211934275860419,"86":0.18483896667227365,"87":0.18336267624405037,"88":-0.15663432104475927,"89":0.046597084703833676,"90":0.1757733154759301,"91":-0.08683766629398486,"92":0.06928661787225289,"93":0.05990866251267033,"94":-0.06308555458829439,"95":-0.05227193832908704,"96":0.1622311401132662,"97":0.18431969866704723,"98":-0.14077880022862224,"99":0.06625729093475989,"100":0.10630154992825991,"101":0.04454436168099525,"102":-0.03633120978119739,"103":-0.05470974474677232,"104":-0.11031893033278754,"105":0.08617957160203085,"106":-0.016923611073024418,"107":0.13424311573669198,"108":-0.11375035586900431,"109":0.0955100850717156,"110":-0.13426822025194513,"111":-0.0885455194217733,"112":-0.15759035327923818,"113":-0.13898825943478454,"114":0.19509460936728018,"115":0.13361348546150367,"116":-0.04535756396700117,"117":0.09299546298642862,"118":-0.155982956611221,"119":-0.031645884730765045,"120":0.19634478255732307,"121":0.02929998486596007,"122":0.023097459123672053,"123":0.1965766469748589,"124":0.055874693491937896,"125":-0.1907871165682772,"126":-0.09335487629599047,"127":0.024826882423815803,"128":-0.0211839341151558,"129":0.1538337608866988,"130":0.16370327099055001,"131":-0.17883192110850624,"132":0.03919251617678173,"133":0.11681531006828869,"134":0.1245418654417565,"135":0.026216878917016417,"136":0.07045245946320905,"137":0.03414029949493785,"138":0.04848105619242452,"139":0.039515575532443885,"140":-0.10265416900341381,"141":-0.17861283872169623,"142":-0.1116987673788696,"143":0.021302710279724083,"144":0.12804396993394068,"145":-0.08774698227157599,"146":-0.14181223949123614,"147":-0.15703840470011896,"148":0.08612132503015017,"149":-0.029706677461092134,"150":-0.07102377494704547,"151":0.14064247863425164,"152":0.13032320951753598,"153":-0.036314889668815575,"154":0.17244299210931546,"155":0.1419700672435213,"156":-0.05518720455835897,"157":-0.03638289292541906,"158":0.005070051361628565,"159":0.1911272870343498,"160":-0.017276563390869523,"161":0.1748708608473875,"162":0.015281987846779225,"163":-0.023007341622566096,"164":-0.1337115229126954,"165":0.0759914533117826,"166":-0.030482771168777026,"167":-0.06896810770194715,"168":0.17715888229678814,"169":0.09314167958404013,"170":0.07150245227055353,"171":0.11316847137501142,"172":-0.028481759875962943,"173":-0.049528290513024244,"174":-0.07337732182391178,"175":0.10291195168436416,"176":-0.0402639696220351,"177":0.006746216628543237,"178":-0.050779561024239236,"179":-0.1534720848591982,"180":-0.09847527156429546,"181":-0.012740203435136406,"182":-0.1036109834968028,"183":-0.1457631613219437,"184":-0.001382180659716652,"185":-0.16568764969759264,"186":0.13810769694000802,"187":0.053948885653080585,"188":-0.1473746914245664,"189":0.04302990298726933,"190":0.14527826163738866,"191":0.07535384296136757,"192":-0.15422877403980895,"193":0.14533940889092065,"194":0.12288696494331992,"195":-0.09603709325512944,"196":0.10772966847592054,"197":-0.08737449027368577,"198":0.09799389291153193,"199":0.16857887641518823,"200":0.18774648569843,"201":0.08779242529926039,"202":-0.12321715740993328,"203":-0.15271946424926305,"204":0.16166903116055753,"205":-0.053671384400855456,"206":-0.1886263324692613,"207":0.18566188652996002,"208":-0.013008983802473985,"209":-0.14837153061552688,"210":-0.15488241659732593,"211":0.013337915326064787,"212":-0.007288264787760808,"213":0.18452093614567466,"214":-0.041660157528298734,"215":-0.15346759112858493,"216":0.1892396202157554,"217":0.19173616652798067,"218":-0.052870429108768456,"219":-0.07802277985824906,"220":-0.01495495133387606,"221":0.15396429533624653,"222":0.1109967904719911,"223":-0.1859476667607411,"224":0.14097543764721002,"225":0.1433034336783753,"226":0.06501969245634988,"227":0.0537864556063835,"228":0.04635450417174423,"229":-0.05117296545431765,"230":-0.06253150051325276,"231":-0.16255260078981848,"232":0.16043469733647361,"233":0.0037056422294661434,"234":-0.191666907228532,"235":0.14151279038803927,"236":-0.17409861459736464,"237":0.14717218620402622,"238":-0.10787773539284104,"239":-0.16316537422528443,"240":-0.07307517177790723,"241":0.10354519375875362,"242":0.03985448452483734,"243":-0.08431918105749506,"244":0.1695712978420182,"245":0.004364670241592119,"246":-0.1316777179489116,"247":-0.03786692889259573,"248":0.06275895627658042,"249":0.013873910480881695,"250":-0.06023197420990745,"251":0.17848621864592776,"252":0.08264062154007094,"253":-0.07889093775450104,"254":0.13064414554112722,"255":0.03901867401684455}},"2":{"bias":0.12393982210122315,"weights":{"0":0.04007726118919813,"1":-0.03820657811198972,"2":-0.15978415578331595,"3":0.13420869900506677,"4":0.1836201619815057,"5":0.11401482862543108,"6":0.08054054977858888,"7":-0.18779451306897527,"8":-0.09213141949997326,"9":-0.028494083026246425,"10":-0.15780389773550946,"11":0.010365868834506771,"12":-0.14576178878517615,"13":0.06813299501210933,"14":-0.12755108308256471,"15":-0.1326487068029012,"16":-0.1779029102764066,"17":-0.015179433118135079,"18":0.1538165839023515,"19":-0.024895634728020588,"20":-0.06935637206392305,"21":-0.09961472899190041,"22":-0.0864555476031482,"23":0.045192362919360615,"24":-0.0064800811836245465,"25":0.07912701982692653,"26":-0.03480641767512508,"27":0.030664877923062675,"28":0.0843163354880558,"29":0.09896957278866089,"30":-0.01705402394255451,"31":0.1495915531203998,"32":0.1900450971794514,"33":0.028137000858194185,"34":0.015838406287348346,"35":-0.17752992955911204,"36":0.09263124501782898,"37":-0.014341968605108474,"38":-0.033390758711276516,"39":-0.11750462107823505,"40":0.1251809790213511,"41":-0.16081065667882824,"42":-0.18912802778591725,"43":-0.04383064523699331,"44":-0.1659990095584825,"45":-0.1424878420286582,"46":-0.06900977310365318,"47":-0.08732784445801409,"48":0.09011698951227755,"49":0.05872815987092707,"50":0.14983679628903795,"51":0.19465495273585795,"52":-0.07192109233713788,"53":0.14658065084845445,"54":0.09129113784269961,"55":-0.14544980336320606,"56":0.016283098730662034,"57":-0.03234325048139186,"58":-0.0716663499809858,"59":-0.00788152966487285,"60":0.055389825292934264,"61":-0.17927117965845013,"62":0.15721417641099666,"63":0.027338466878943896,"64":-0.1878490375207766,"65":-0.11321956297376626,"66":-0.09580753271749498,"67":-0.16610743736719386,"68":0.1811919502033587,"69":0.1131029309957991,"70":-0.11921516243392764,"71":-0.14689251975119705,"72":-0.056135267311829294,"73":0.1328040585632171,"74":-0.001882234955850114,"75":0.1490111212318266,"76":0.17278191812617,"77":0.02745558283830763,"78":-0.0634485640176804,"79":0.007080043657547447,"80":-0.0382321135737333,"81":0.20014613444553112,"82":0.19147477970136897,"83":0.08556881136162112,"84":-0.1187690187128615,"85":0.07620293905758072,"86":-0.05636347915052898,"87":0.09518360749830033,"88":-0.016227196411228252,"89":-0.10727017046926161,"90":0.1340346154763743,"91":0.1276945551063122,"92":0.1865272964481,"93":-0.19360191589006917,"94":0.1287758653111077,"95":0.02591610364792225,"96":-0.16737160447302366,"97":0.16712605084084986,"98":0.050374072024554684,"99":-0.19635452856674374,"100":0.1684322995185286,"101":0.09770713753183742,"102":0.13336733233890943,"103":-0.04902336202105115,"104":-0.1645575563784162,"105":-0.14381174865133464,"106":-0.1575449592085012,"107":-0.05745887927138732,"108":0.04176658088771361,"109":0.03545131370023832,"110":0.16404072861850996,"111":0.06474262527234553,"112":-0.11623360817909394,"113":-0.011467716979021476,"114":0.1752140920725644,"115":-0.16027216214231327,"116":-0.08158561502781948,"117":-0.16221045458101888,"118":0.027989877123983743,"119":-0.18011324711963247,"120":0.08705336309869795,"121":-0.03136775482043827,"122":0.18053723924061013,"123":-0.06787808797386038,"124":0.07618640511383479,"125":0.1339045300990305,"126":0.04452755084984801,"127":0.025954165151419253,"128":-0.08075320822425938,"129":-0.17209046182442958,"130":0.12858334429444276,"131":-0.04450046279471728,"132":-0.19229728234899401,"133":-0.13248821607899378,"134":0.15046196156229572,"135":-0.1262478879964958,"136":0.04499876373727655,"137":-0.13367944828830924,"138":0.10660136501968713,"139":0.0008557241514541978,"140":0.018458785374473954,"141":0.20208790495747972,"142":0.16137592253688823,"143":-0.12446169085887508,"144":-0.0709368259965934,"145":0.030547928015446865,"146":0.13707580298075692,"147":-0.13770247955935083,"148":-0.17254478894184896,"149":0.14522085007574137,"150":0.009165538289301355,"151":0.16813050010676767,"152":-0.04924100727806382,"153":0.16931162925523036,"154":0.16710209032683246,"155":-0.0008876828530971627,"156":-0.1887338130167094,"157":0.023527226006634455,"158":-0.09383436591893944,"159":0.019240210117168283,"160":-0.11997814564408377,"161":0.13523426984802464,"162":0.00823299752664076,"163":0.1619414063476641,"164":-0.1048799270000765,"165":-0.10404710724144564,"166":-0.04824976573403447,"167":0.07992323535636033,"168":0.18128541252884248,"169":0.04190503921214688,"170":0.18724855903975202,"171":0.06267269932741767,"172":-0.12538988127229947,"173":0.12786004238263615,"174":-0.011704586382822353,"175":0.13683908637962003,"176":-0.19038006500258378,"177":-0.11374176788462405,"178":-0.19516741352085895,"179":0.1417830415805228,"180":-0.13961511194165235,"181":0.07236051035678077,"182":0.09887215774728773,"183":-0.0697756148596206,"184":0.006972556613498625,"185":-0.13365059901875517,"186":-0.07891896415422639,"187":0.0358071771861847,"188":-0.08892173819078188,"189":0.09619798704668817,"190":0.17205177186480786,"191":-0.1270247237684309,"192":0.05178560289678949,"193":0.06439691632318613,"194":-0.1497994542369926,"195":0.13409238517028557,"196":0.1264976241971628,"197":-0.06483980946051052,"198":0.0741939064043828,"199":0.09769885413945471,"200":-0.08770938256907877,"201":-0.06930473377987664,"202":0.07815915959244857,"203":0.1857364192121646,"204":-0.15454076708939518,"205":-0.1518740389850739,"206":-0.14384519743840193,"207":-0.013020048753061212,"208":-0.1271284004690075,"209":0.0950234817937544,"210":-0.06856423538356968,"211":-0.1336443652297284,"212":0.153091026608687,"213":-0.01571702855610769,"214":-0.054328196756346786,"215":0.10968848358237643,"216":-0.16611949536290227,"217":-0.024794063910991586,"218":-0.0015426468022088032,"219":-0.04773845538271127,"220":-0.1738429291898954,"221":0.18416426938334743,"222":0.12127887022307711,"223":0.04615220643803797,"224":0.14676146556718456,"225":0.018058248075147245,"226":0.19174579906979974,"227":-0.09149317679521897,"228":-0.08825090762658305,"229":-0.17333172088416596,"230":-0.01762177050821743,"231":0.01487374120055713,"232":-0.02227925379237383,"233":-0.10923439064426575,"234":-0.037817115830047654,"235":-0.008556253080659134,"236":-0.18837975202935717,"237":0.02918315950756714,"238":-0.12750456512327382,"239":0.12274581211133856,"240":0.09371832058778065,"241":-0.02848960759718386,"242":-0.04500215416549112,"243":-0.1370992411508057,"244":-0.1944634010847094,"245":0.12425143063887838,"246":0.020111600440231425,"247":0.04324592823874745,"248":0.0663140236305079,"249":-0.10662015440860446,"250":-0.1030965346044575,"251":0.13785694020442613,"252":0.10057712506398837,"253":-0.19055867827273287,"254":0.1770482112515857,"255":0.11359651553360495}},"3":{"bias":0.17485173047239505,"weights":{"0":-0.16064777044248812,"1":0.065460813078549,"2":0.13646872634108115,"3":-0.12051076119669826,"4":0.022863121283172378,"5":-0.08246515632948938,"6":-0.16676112757238024,"7":-0.11205064041249505,"8":-0.19182236203944317,"9":-0.19319834866923877,"10":-0.1696208062579126,"11":-0.038971906588645466,"12":0.041642848799442064,"13":-0.12116471394732566,"14":0.1465600466050676,"15":0.17769556424688146,"16":-0.1885733833959936,"17":0.019564202297169563,"18":0.04678242709628055,"19":-0.18729147362885207,"20":0.12933115127073472,"21":0.06137493605311088,"22":0.17560223392989513,"23":-0.04009869713719263,"24":-0.06569160334219538,"25":-0.058373959152575164,"26":-0.08435828272603776,"27":0.1304304526885654,"28":0.13603454451489264,"29":-0.130155878527586,"30":0.12525053788705054,"31":-0.05543957389954318,"32":-0.035283543749948826,"33":-0.05267272464362163,"34":-0.1779807192135991,"35":-0.16307286482455866,"36":0.005207285795925731,"37":-0.1684572531839348,"38":0.15242453839676506,"39":0.023776546869447756,"40":-0.013383730401095337,"41":0.18564285558360683,"42":-0.04622484419605677,"43":-0.002170267053003289,"44":-0.17249910811443897,"45":0.08382624352002628,"46":0.11232049988675866,"47":0.07450891381717653,"48":-0.18564380329124178,"49":-0.04104584549986354,"50":0.08228631393036674,"51":-0.11984852895844633,"52":0.1851429675269268,"53":-0.16006917353092773,"54":0.004811221263342854,"55":-0.18530363136328637,"56":-0.08170167976723838,"57":0.1501369471082428,"58":-0.09601403087339681,"59":-0.11898092582815671,"60":0.12824379839850203,"61":-0.19326583097481317,"62":0.0817115480027648,"63":-0.1274025705205447,"64":0.016564264972550893,"65":0.11149707477701148,"66":-0.11424294521406723,"67":-0.12299459383629183,"68":0.1308879720744528,"69":0.08294822238668025,"70":0.09598597041120506,"71":0.14099276914632047,"72":0.14915873545051048,"73":-0.18238290563159615,"74":-0.0065259131600874576,"75":-0.028887045915585947,"76":-0.1455733345364165,"77":0.09799173477479511,"78":0.017495333125382068,"79":0.19749749291379554,"80":-0.04063588069259347,"81":-0.052140865996419254,"82":-0.20023966976212232,"83":0.03019445830118058,"84":0.0919449083715151,"85":-0.09258117485500603,"86":0.04723639149141039,"87":-0.0792416269885567,"88":0.16187011366168555,"89":-0.07766136997810957,"90":0.14480439450036264,"91":0.15426124441796513,"92":0.19762171491460456,"93":-0.10839905657994466,"94":-0.13586650378138324,"95":-0.01867070190943239,"96":-0.0537160327903103,"97":-0.06535851631841309,"98":-0.05577266958344912,"99":0.17971085063851866,"100":0.03631625847598246,"101":-0.09668183881531148,"102":-0.0012870080530425325,"103":0.05507942301073244,"104":-0.13187168537825614,"105":-0.041678582964387034,"106":0.14645990098178577,"107":0.17541133267222572,"108":-0.019980834331353486,"109":0.0032918576110723364,"110":0.14985555533380612,"111":0.10693566192045616,"112":0.06457725479275585,"113":0.15176505595709103,"114":0.10033440608750759,"115":-0.0631838283776649,"116":-0.020605090084717028,"117":0.00588955519305167,"118":0.19320401215294863,"119":-0.07069775374900565,"120":0.046543416477463434,"121":-0.017494865687485827,"122":0.15820447322552433,"123":0.159322953209219,"124":-0.18474401892143186,"125":-0.014170018320786442,"126":0.13473277837784067,"127":0.19143782418573033,"128":0.12025064426115484,"129":0.05846099320940871,"130":0.0639635149708817,"131":-0.11887623019678716,"132":0.11448116168812901,"133":0.07328211569669722,"134":-0.07990547865991332,"135":-0.10802875014502558,"136":-0.13157091515926417,"137":-0.07182433112752916,"138":-0.15862998705456302,"139":-0.16395047371845065,"140":0.15201739091819516,"141":-0.17322241593886553,"142":0.19045450868857133,"143":-0.015258899278061122,"144":-0.05390257704448963,"145":0.04056037016632309,"146":0.13791859699616266,"147":0.14228779107062775,"148":-0.14682450698098798,"149":-0.07348575322363401,"150":0.16250215590051198,"151":0.19729157128022276,"152":-0.0802250420675701,"153":0.1976602309436222,"154":0.06652800627945933,"155":0.12006160802395782,"156":-0.014413339553286515,"157":0.0005803972334336915,"158":-0.12167827682546391,"159":-0.010042013609647522,"160":-0.05923714937177893,"161":-0.09210639987177485,"162":-0.1639828027792804,"163":-0.20106125703190392,"164":0.012468963734244543,"165":-0.012280795662428024,"166":-0.03556039941360266,"167":0.15353153157209126,"168":-0.044611511749323554,"169":0.17716228137671963,"170":0.0497042903370394,"171":-0.1336146803068573,"172":-0.1818922511631327,"173":-0.07359941888616664,"174":-0.11065708761236888,"175":-0.19506013991572285,"176":0.08961144502294027,"177":0.02640779404923144,"178":0.020604797609871352,"179":0.1768705419980473,"180":-0.10922243174333711,"181":-0.1781411041286164,"182":0.0012479684033495878,"183":0.10083826254511614,"184":-0.018669507841472605,"185":0.03600256028652906,"186":-0.1655602794721986,"187":0.1373565026816955,"188":-0.07024032847274402,"189":0.16276180619422428,"190":0.10257060357400286,"191":0.1893740589335268,"192":0.026559699416071298,"193":0.03536722996202,"194":0.1493589848219326,"195":0.05973379599724018,"196":-0.027702683557314204,"197":-0.012873946099815393,"198":0.08686337607052588,"199":0.15875815631908605,"200":-0.11216438322738866,"201":0.13241815302754137,"202":0.03474159115507061,"203":0.17984593230846974,"204":0.019668718016935708,"205":0.11105473330130691,"206":0.16692186093028002,"207":-0.1542878965874676,"208":0.07187216745824433,"209":0.06280216998105502,"210":0.11762480704443931,"211":-0.01176570075181592,"212":0.008579945895012752,"213":0.002422270720749043,"214":0.04383185197555267,"215":0.005772284333916159,"216":-0.1959163667416176,"217":-0.12047771821558259,"218":-0.07368436958226489,"219":-0.07216651639647081,"220":-0.16824504781500124,"221":0.017361421640173427,"222":-0.004126753003280419,"223":-0.10900415030544226,"224":0.1046947651086515,"225":0.07048639618841744,"226":0.05218670320260431,"227":-0.19799224520232017,"228":0.09555839627061029,"229":-0.03228366255984569,"230":0.12539576197440389,"231":0.11555701517968942,"232":-0.06421440858535196,"233":-0.16358186104421057,"234":0.1850526763428162,"235":-0.14584478351503943,"236":0.14188717412196175,"237":0.05648366721106286,"238":-0.17161670650186112,"239":0.13222680283332927,"240":-0.1391659820760313,"241":-0.1730854792422945,"242":0.18650298520463246,"243":-0.08908117146421579,"244":0.04696202677587076,"245":0.1501604495832286,"246":-0.1715649029375695,"247":0.09258183779152383,"248":0.18236401458747592,"249":0.11765323858918442,"250":-0.16914136489038567,"251":0.09801105467532409,"252":-0.022437380834071215,"253":0.07699148221684055,"254":-0.139194971551281,"255":-0.09381701544809483}},"4":{"bias":0.057130706281781025,"weights":{"0":0.09732084966226859,"1":-0.16817253056532866,"2":-0.1906406935517879,"3":0.071445461998348,"4":0.06719992155943727,"5":0.18641554755373904,"6":0.12164399983600802,"7":0.1972781946271726,"8":-0.0792677575888924,"9":0.18430270163296222,"10":0.007903808031219834,"11":0.009748686024636221,"12":0.10129658094929124,"13":-0.012620562312623606,"14":-0.11817446367117182,"15":-0.12433668235631432,"16":-0.02122562018512914,"17":-0.16621018759461237,"18":-0.11404186198805896,"19":0.14086756716452045,"20":0.16900177464494914,"21":0.008154217321835706,"22":0.032812653711411,"23":0.09642061799299133,"24":-0.13414342858879422,"25":0.18162818548137746,"26":0.16701498274301005,"27":0.19628565971918996,"28":-0.0611526125107951,"29":-0.15004827035486315,"30":-0.15517078027059394,"31":-0.10738729574327659,"32":-0.041295716154007206,"33":-0.041981861284061124,"34":0.041834974864887825,"35":-0.04254639768992026,"36":-0.003648859717842792,"37":0.17469411041521574,"38":0.011894395341183256,"39":-0.1022963463218135,"40":-0.13978929155889208,"41":0.11615226618303805,"42":-0.03228378216407623,"43":0.007640009604780577,"44":-0.19003200681569518,"45":-0.013828307709468747,"46":0.13136552028466328,"47":0.12388831692086759,"48":-0.16766520238844992,"49":-0.11206926614271476,"50":-0.0807881234678856,"51":0.1783064656278679,"52":-0.05988302865095505,"53":-0.19261902010709914,"54":0.1704249590242965,"55":-0.18135621852806727,"56":0.048239660721422765,"57":-0.014377930766838342,"58":0.02908726548251965,"59":0.04477073252551225,"60":-0.13685661170001445,"61":-0.13701739554445072,"62":-0.19046302199748152,"63":-0.10763166944381207,"64":0.05200336550578309,"65":0.07672752334223414,"66":0.0371516809322561,"67":0.0014219528217309478,"68":0.06858303581335014,"69":-0.053600123392001806,"70":0.0320547532110297,"71":-0.17472505164085922,"72":-0.03970047951714412,"73":0.1101704404954131,"74":-0.1353040003079044,"75":0.1359208660640193,"76":0.09604999758059656,"77":0.02651828517718904,"78":0.17007193878132879,"79":0.05137967367961644,"80":0.04839047662380793,"81":0.19348104599875238,"82":0.01631257379996372,"83":0.17830028634741216,"84":0.07407775911072206,"85":0.016021680694518453,"86":-0.07923914434419692,"87":-0.17976996302000375,"88":0.0567816026205771,"89":-0.05369546690257234,"90":0.1090105954997739,"91":-0.021858878456178343,"92":0.09130857866719903,"93":0.18837823104759083,"94":-0.059087999464383235,"95":-0.1659174240771189,"96":0.006781882031406827,"97":-0.10890013379016075,"98":-0.18367548080875434,"99":-0.13325466784278775,"100":0.10250599458501873,"101":-0.10362559970634543,"102":0.1970319551645043,"103":0.1264825016256634,"104":-0.14073981324043694,"105":0.014261526744484566,"106":0.17371431579558771,"107":0.063913961353318,"108":0.12523739705215817,"109":0.058164055746738115,"110":0.05006899219113944,"111":0.14849214094628116,"112":0.19547690764028836,"113":0.02412215265948854,"114":0.017677825644971376,"115":0.11553375145551872,"116":0.16747719284766335,"117":-0.014800861318717162,"118":0.17981393696469244,"119":-0.05235851438735599,"120":0.16925422917753064,"121":0.1589358482046648,"122":-0.14400777150245306,"123":-0.002672835147375327,"124":-0.08711676995505024,"125":-0.06549810290529962,"126":-0.13457947139379475,"127":-0.013873009815858203,"128":-0.029139334691612322,"129":0.05735066749312803,"130":0.011352326595792774,"131":-0.07783637829149033,"132":0.16403349572486298,"133":-0.1739259849862154,"134":0.05951187934670993,"135":-0.10847484309052477,"136":-0.05531180419086604,"137":0.01315094228948407,"138":-0.06611521969481861,"139":-0.04582302272393575,"140":-0.1640292022440292,"141":0.09582379351627898,"142":0.06223505457087112,"143":0.04866482083171533,"144":-0.051116214793348824,"145":0.058355660630757956,"146":0.1466309399375589,"147":-0.040535172657847195,"148":0.1379419628819512,"149":-0.08768371504323665,"150":0.015235091416822505,"151":0.0010555138807478398,"152":0.1346680136787277,"153":-0.00011289861096806613,"154":0.12623932127956103,"155":-0.07630837780264084,"156":0.18875969973390044,"157":-0.09118618334910822,"158":-0.17827369979293117,"159":0.017686909174683654,"160":0.05590617802821785,"161":0.039331915200149004,"162":-0.004792815477319628,"163":-0.05227455830420473,"164":0.15651435799955443,"165":0.08175709965927282,"166":-0.020284346564961964,"167":-0.1880047811536428,"168":0.15235641982746229,"169":0.06268324218340489,"170":-0.1815971006456917,"171":-0.03312946735358617,"172":-0.16658035680359207,"173":0.10771324355375589,"174":-0.06258801494004068,"175":-0.0081389843755814,"176":0.10520464633928843,"177":0.0585105927314098,"178":-0.16883735763905983,"179":0.017036310103506258,"180":0.12805713352424802,"181":-0.15480063984207332,"182":0.0499801151657485,"183":0.14920877624434153,"184":-0.1381041588734452,"185":0.02916161355886021,"186":0.1763393878259835,"187":0.14967739537900487,"188":-0.053212979880530656,"189":0.19517495302493496,"190":0.028105755223426735,"191":-0.04961251988541126,"192":0.12650450289385348,"193":-0.14005567979470893,"194":-0.02420369080225623,"195":0.09408323934448945,"196":-0.16490191955495448,"197":0.17750860264171567,"198":-0.09027707908652792,"199":0.11339942030106753,"200":0.06496345311034062,"201":0.02189932743827177,"202":0.0032596957934062296,"203":0.09500622193151892,"204":0.1791119302096094,"205":0.10687050878976224,"206":0.16716459814687434,"207":-0.13808316503170187,"208":0.016083260529205324,"209":0.09130264934781734,"210":-0.08013756078538796,"211":-0.13066566925093365,"212":-0.09933329378203379,"213":-0.19688806419795535,"214":-0.03978307235123978,"215":0.18498654536875164,"216":-0.035720361587457124,"217":0.07955051679409951,"218":0.01760286375862958,"219":0.19037187952778842,"220":0.011418691824226048,"221":0.15492120801713583,"222":0.18309206635258854,"223":0.18979633776821306,"224":-0.197324179038498,"225":0.039796226504549566,"226":-0.02514628993743925,"227":-0.055699789518236204,"228":-0.0018349859698960384,"229":-0.03298440207075744,"230":-0.18836880894157945,"231":-0.03776046088824961,"232":-0.16167999762606788,"233":0.06663089705789775,"234":0.13558597535653777,"235":0.02091235385627404,"236":-0.07156914085716609,"237":0.15891267254010147,"238":0.19478258246446886,"239":-0.09425817154133602,"240":-0.12590253901235376,"241":-0.16940555794686982,"242":0.1588753496957661,"243":-0.1510474206341744,"244":0.012350613626018822,"245":0.148745982458594,"246":0.1615746194220797,"247":-0.197101355446115,"248":0.1682188822532914,"249":0.08858446461290376,"250":-0.10109334221528343,"251":-0.13468883540823076,"252":-0.02222913340581728,"253":-0.018456090873364448,"254":-0.09058881989590763,"255":0.17647505726242357}},"5":{"bias":0.09097058030588165,"weights":{"0":0.1755253207972784,"1":0.05218891175658408,"2":0.10559056409410413,"3":0.08636575876252088,"4":0.0038974663427311655,"5":0.06646024883836177,"6":0.19605068947993187,"7":0.10583628418359177,"8":0.10991132971604989,"9":0.19103703757609622,"10":0.11885591576031294,"11":-0.005356270562730208,"12":-0.08064220686174205,"13":0.16690938558868246,"14":-0.16423225453812323,"15":-0.1776003586594576,"16":0.10236771185968957,"17":0.006605573586277973,"18":-0.190783551686051,"19":-0.09665183302532096,"20":0.09702949625612318,"21":0.1868259694676583,"22":0.11347888230185711,"23":0.1093532919946236,"24":-0.06879978333568273,"25":0.18255721757508805,"26":0.058926793039784285,"27":0.12364556592292636,"28":-0.10408732286958905,"29":0.06876976276598233,"30":-0.09520057565711987,"31":0.15116702469759669,"32":0.05248335494898286,"33":0.13130575820064655,"34":0.18862947114708334,"35":-0.047316846149739585,"36":0.19729683489136723,"37":0.1375596266579493,"38":0.0927537357141957,"39":0.17105521066810975,"40":-0.124491727373918,"41":0.15676028455625915,"42":0.016186747283547503,"43":-0.1467518961722573,"44":0.14117840371262888,"45":-0.09965007953515805,"46":-0.03429924282878112,"47":-0.014342296771615536,"48":0.09658649929515155,"49":-0.042302090486033776,"50":-0.10255761397910462,"51":-0.16955433806864534,"52":-0.13322830765055751,"53":0.14998598164815474,"54":0.11754078071508434,"55":-0.06942900700655558,"56":-0.07926247930013333,"57":0.0434999646695387,"58":-0.019373894402203856,"59":-0.13818100110019585,"60":-0.13041713882119133,"61":-0.11678724998220805,"62":0.03295072689657268,"63":0.10969763461932135,"64":-0.17196168353688365,"65":0.012735635691821068,"66":-0.1392556736621083,"67":-0.0010182946586702593,"68":0.18847016202115152,"69":-0.05951047041681656,"70":-0.18033378119267976,"71":0.18119253087084625,"72":0.02144145254142127,"73":0.1330442772101345,"74":-0.1972483286771926,"75":-0.08906463145471484,"76":-0.10812066313601114,"77":0.03183010998920953,"78":-0.18066303850565169,"79":0.14143017436906563,"80":-0.012187416895888644,"81":-0.16454191380255753,"82":0.012850695608456902,"83":0.10857090762425409,"84":-0.19905166193648638,"85":-0.14212391290179086,"86":-0.19076574913434377,"87":0.11649609505476126,"88":-0.06994360830314253,"89":0.030798196514481374,"90":0.19784008131419356,"91":-0.17950548771753727,"92":-0.09678650874576367,"93":0.04919528038269568,"94":-0.04157462149355546,"95":0.06696586602072507,"96":-0.06734323842192322,"97":-0.06897904922952815,"98":0.004994813699757084,"99":0.040223750564803075,"100":0.18399195059005466,"101":-0.16727464682677326,"102":0.03884370373221675,"103":0.16544967133350422,"104":0.10862786836733009,"105":-0.027254939963138464,"106":-0.05274555043832219,"107":0.07723957688057198,"108":-0.16517110706014212,"109":-0.0526952808185167,"110":-0.12751359128199197,"111":0.06347045467405434,"112":0.05096021581085997,"113":0.12485158871994648,"114":0.008304891237396092,"115":0.03399537937246456,"116":0.00214167739113884,"117":0.1670348062278593,"118":-0.1495303125906151,"119":-0.07875436160281366,"120":-0.09219587694300918,"121":0.052906643195583296,"122":0.04575967499610191,"123":0.025147464142928053,"124":0.1279554431481844,"125":-0.00022708403214142866,"126":0.10744599724740855,"127":-0.09133364117088338,"128":0.014165313044919229,"129":-0.09792503338851072,"130":0.04848624176797186,"131":0.11667979741161352,"132":0.1536742567984264,"133":0.11024297741082915,"134":-0.030374179654124797,"135":-0.027806813335953185,"136":0.023274842251212305,"137":0.11965791672739322,"138":0.0443421549796048,"139":-0.1241618736235175,"140":-0.005732674974744371,"141":0.07583961111703592,"142":-0.1970204624974352,"143":-0.03294833297755043,"144":0.1758912760791998,"145":-0.07332993891829818,"146":0.1408748288192335,"147":-0.016123232564592273,"148":-0.1853122296926712,"149":-0.09130593910576526,"150":0.12303196288060228,"151":0.012300473810016279,"152":-0.1390314924826834,"153":-0.15082579512387737,"154":0.004132612900995352,"155":0.18137601512261173,"156":-0.07675011083095187,"157":-0.13024229064223858,"158":0.13234390694266282,"159":-0.09679937014436882,"160":0.013108272306049728,"161":-0.14493926174558877,"162":0.18204201236154363,"163":-0.17142395517082615,"164":-0.016087065873437213,"165":0.08463382489803402,"166":-0.1536614551327363,"167":0.15190627224634612,"168":-0.12020819966680162,"169":-0.07805141038330206,"170":-0.02786129090268673,"171":0.12117563416935366,"172":0.04299437916366479,"173":-0.1700427469900812,"174":0.19497527147141092,"175":-0.010597684011325327,"176":-0.09101189321678811,"177":0.026644435205226084,"178":-0.18694054291256584,"179":0.198747600845093,"180":0.008940613973377913,"181":0.10664186443235807,"182":0.06445880606346525,"183":0.03776291588577751,"184":0.1925069921595152,"185":-0.06188790661474333,"186":0.10478351602058016,"187":0.06238930425815985,"188":0.001354633024042395,"189":-0.12353687677659428,"190":-0.08993377502049751,"191":-0.04149319644542726,"192":0.11999587554582399,"193":-0.016172207089850007,"194":0.19379920282060573,"195":0.04389954969502612,"196":0.16033024168483218,"197":0.198653497789288,"198":0.09652922761028729,"199":-0.19514231809689633,"200":0.07744669708454797,"201":0.12335007468937116,"202":0.15792427102819456,"203":0.08169038379092639,"204":-0.028922022450228808,"205":0.1593471163639729,"206":0.10222842697317758,"207":-0.17419805678510303,"208":0.02486780312971976,"209":0.147211179806404,"210":-0.1793946013988817,"211":0.12809108668595587,"212":-0.12459099764027584,"213":0.0717290219286189,"214":-0.1624270986451759,"215":-0.17862805067979262,"216":0.04190637200694658,"217":0.032866893793054096,"218":-0.10066689485456418,"219":0.0031778406443026853,"220":-0.057398965096160263,"221":-0.15762488699550858,"222":0.05186317765245578,"223":-0.007239820932002414,"224":0.04781361960570881,"225":-0.19257994588228575,"226":-0.1058135339087504,"227":0.08025510287053633,"228":0.1671998955524111,"229":0.12099095518610448,"230":0.1840216349543254,"231":0.09718775951392881,"232":0.13479477977309715,"233":0.18011166732139086,"234":-0.023311856049050887,"235":0.17406577113009816,"236":-0.0948450306070452,"237":-0.013596298620177404,"238":-0.049106264542881896,"239":0.10277100351838236,"240":0.08293837735944717,"241":0.17747019062026803,"242":-0.03585059002916387,"243":-0.1189222293378391,"244":-0.05360402514845149,"245":-0.047319944362357806,"246":0.021827751880375078,"247":-0.11233644140989589,"248":0.15032159900271178,"249":0.1747089494585873,"250":-0.13240801940578323,"251":0.15553319751588943,"252":-0.19311057796772496,"253":-0.1645062938984284,"254":0.0687031328160773,"255":0.0900468849469197}},"6":{"bias":0.14990345291797044,"weights":{"0":-0.15364751025613105,"1":-0.16614126949980276,"2":-0.18619674511128476,"3":0.14909587472901129,"4":-0.1987184382297039,"5":-0.10241128372066537,"6":0.15077258905293092,"7":0.17281550346847713,"8":-0.08591826193680233,"9":0.1906856280393915,"10":0.008438624344779455,"11":-0.05129855193813381,"12":0.023372926845172393,"13":-0.12800257113942187,"14":-0.04942533910815622,"15":-0.05686786501395449,"16":-0.13624586892809123,"17":-0.05236554333967802,"18":-0.06391283519299264,"19":0.11137045685051067,"20":-0.17257035837906587,"21":-0.05879642499844741,"22":-0.054623603046650926,"23":0.09247217310996882,"24":-0.03966352123628667,"25":-0.1097302219068499,"26":0.1840563627347627,"27":0.07039705982900216,"28":-0.03458294998677044,"29":0.08030255135711391,"30":0.17770589173708168,"31":-0.16832638572602784,"32":-0.1816324993490488,"33":0.05769463606249311,"34":0.09136725902235955,"35":-0.03796166689292755,"36":0.001005510213454945,"37":0.053646892548182425,"38":-0.13279372432952163,"39":-0.1350983388506345,"40":-0.08579223184016656,"41":-0.15314081300567578,"42":-0.1797223157911996,"43":0.038460647549561966,"44":0.12003348549458147,"45":0.17197556594284644,"46":0.10803871736698246,"47":0.1604610723727898,"48":-0.04771186998841191,"49":-0.050635258414930336,"50":0.0657861249235827,"51":0.1303269954427695,"52":-0.1381845352174873,"53":0.1625821514188287,"54":0.18072399578271905,"55":0.18572707823336415,"56":-0.10632186723719092,"57":-0.05670745993558047,"58":-0.05399196449972421,"59":-0.06005379195092247,"60":0.00529941251537969,"61":-0.12502071477291413,"62":0.12235683042136078,"63":0.06041900466997235,"64":0.154272051726862,"65":-0.1324508583443744,"66":0.06556779510387595,"67":-0.07808262760088545,"68":-0.09358393882992001,"69":-0.06600109743640248,"70":0.047512492931807905,"71":0.19613290648705348,"72":0.06889961447182019,"73":-0.04013183923954962,"74":0.024302797644380404,"75":-0.16413869993767083,"76":-0.04133648398054529,"77":-0.02037053487779183,"78":0.007705003081739908,"79":0.04914629486110032,"80":0.05647984554004052,"81":-0.025882546206135882,"82":0.11482932596230618,"83":0.18463919144585178,"84":0.14681372651410407,"85":-0.16511365465872563,"86":0.1254240009629425,"87":-0.1995868376163008,"88":-0.19581206053931188,"89":0.1257377149652023,"90":0.15232248498973483,"91":0.04766187758709361,"92":0.13516641725881845,"93":0.11553440811984152,"94":-0.043450324349680526,"95":-0.09528134952635432,"96":0.18789237590649477,"97":-0.039895030430805944,"98":-0.02053746422628304,"99":0.15440978084253332,"100":0.09642584538937522,"101":-0.046167917381782816,"102":0.024206630028609233,"103":-0.023421106643172516,"104":0.06489548262576467,"105":0.1501879389415736,"106":0.1493052591709773,"107":-0.14504871318694657,"108":-0.07941416477139095,"109":-0.016736528437628996,"110":-0.14772158260262946,"111":-0.08119845795796166,"112":0.1413094740507142,"113":-0.1412643370781097,"114":-0.19023751684001558,"115":-0.15099818732180825,"116":0.07888455977143023,"117":0.15202202364220366,"118":0.016353459525587182,"119":-0.04601961846030728,"120":-0.18836830289310574,"121":0.03972972160733638,"122":0.13402903454250298,"123":-0.011843228107709523,"124":0.0035888245171962724,"125":-0.14484322874659258,"126":0.04044441024778189,"127":-0.15340628154832037,"128":0.16559529636661025,"129":-0.10520820016646507,"130":0.046843677545034844,"131":0.10565515060046396,"132":0.051801458553904896,"133":0.03034674560917858,"134":0.019760287327521196,"135":-0.17682077857634176,"136":0.09204047526429325,"137":-0.05769164456967471,"138":0.05055419287828009,"139":0.19386539696509877,"140":-0.06343456980803075,"141":0.049672266553859604,"142":0.01697141136299998,"143":0.18294718005714905,"144":-0.08311005195256449,"145":-0.0833191267791229,"146":-0.08746112042198564,"147":-0.02009053712111527,"148":-0.0021475292898137095,"149":0.04878184749557455,"150":0.07141263136838279,"151":0.06471792500362866,"152":0.03200921567173964,"153":-0.029971497597040268,"154":-0.06152308350268866,"155":-0.07098961674389187,"156":-0.04596879607680976,"157":0.013371758897052723,"158":-0.06508222187158683,"159":-0.04574986860981881,"160":0.06351196817085447,"161":-0.11342041074033563,"162":0.17875478626044222,"163":0.04519244873682616,"164":0.1767930207449798,"165":0.1577400071585828,"166":0.18572754200055228,"167":0.05802553592219841,"168":-0.02918163332693847,"169":0.02668575171919891,"170":0.11112303076636748,"171":-0.07211879618461985,"172":-0.06921342319305064,"173":-0.10811893886845808,"174":-0.11934962675592857,"175":-0.08439913622321954,"176":0.08886159535343553,"177":-0.11713339294965794,"178":0.1776302604933969,"179":-0.12748018876140985,"180":0.17073505260694613,"181":0.16435339665479584,"182":-0.19508697822624468,"183":0.17369201956989197,"184":-0.08905534783892927,"185":-0.20059584883689593,"186":-0.07444869223125629,"187":-0.12073521171759219,"188":0.015601729042874298,"189":-0.032827197440006596,"190":-0.16237081912834528,"191":0.029116925329354167,"192":0.11852745587857513,"193":-0.16888389483481558,"194":0.03656144795146938,"195":0.18875717091083116,"196":-0.13404160283040237,"197":0.025042900140679197,"198":0.17840239193176266,"199":0.1567650383467443,"200":-0.027991433291589835,"201":0.10005645156870176,"202":-0.031326734700052386,"203":-0.19931167248275425,"204":-0.043674444106457634,"205":-0.12569598230955806,"206":-0.09999372913841818,"207":-0.003500876649175517,"208":0.11549236236122817,"209":0.13101905697964894,"210":-0.1277651889279277,"211":-0.1133748887352606,"212":-0.19381215953032055,"213":-0.12613433409639102,"214":0.1369490320087704,"215":0.1140879095582518,"216":-0.16819916898516604,"217":-0.10086558873823721,"218":0.021359763163031405,"219":-0.17665230822355263,"220":-0.10931885297245768,"221":0.10414051291500835,"222":0.14893385238213763,"223":0.14759993346913894,"224":0.008362215032266071,"225":0.1900044194180743,"226":0.013185164826857568,"227":0.09300479384780526,"228":-0.15290353298814577,"229":0.05947424952165254,"230":-0.03706139706829972,"231":0.11869627011330627,"232":-0.16221385813547168,"233":0.13500374148871316,"234":-0.1612836084989922,"235":-0.1411934717522632,"236":-0.07172281049361517,"237":-0.144212953333814,"238":0.18766722723543272,"239":0.10738673940986829,"240":-0.08582575611406952,"241":-0.11376100312085692,"242":0.1833731558349777,"243":0.15241364494784213,"244":-0.15295155084385012,"245":0.0666012029837774,"246":-0.12825361956576328,"247":-0.19518178125227117,"248":-0.03713405822432213,"249":0.07542442064597013,"250":-0.010896694796740726,"251":0.052236858529098935,"252":-0.16608393545827674,"253":0.09201680198886153,"254":0.06647315640451089,"255":0.03790132533169537}},"7":{"bias":-0.09552252740148649,"weights":{"0":0.11075446948060111,"1":0.08419929216070697,"2":-0.16924286688313683,"3":0.002639713467104589,"4":-0.07971614416943412,"5":0.18440184486992578,"6":-0.05909655339852042,"7":0.05175099961116681,"8":0.17247800407180797,"9":-0.08163295562272717,"10":-0.11698012035381594,"11":0.16023097663353164,"12":-0.04837597833398344,"13":0.17516107848385573,"14":-0.1857524359945386,"15":0.1689957587226049,"16":0.19086540273981611,"17":0.14422532794631934,"18":-0.04206164041396122,"19":0.12152077327864755,"20":0.13157803465982715,"21":-0.05357305007507614,"22":0.050178714269374806,"23":0.04955206542808729,"24":0.07147396181422258,"25":0.14173829118897113,"26":-0.042220430116666895,"27":0.02080060656538635,"28":-0.160326463450238,"29":-0.07116578759584609,"30":0.01974181205868296,"31":0.09418897304421443,"32":0.09581484733311073,"33":-0.09235403139762821,"34":-0.037864977580312174,"35":-0.05410744583689527,"36":-0.04316015504305544,"37":-0.008493857538024958,"38":0.1110681613976073,"39":0.1648460602579571,"40":-0.11892338755655513,"41":-0.018407227506841276,"42":0.17415326847313725,"43":0.027449471420105735,"44":0.017952539267634973,"45":0.19289985161366305,"46":0.03373702230432592,"47":-0.07176095542399885,"48":0.11492987788234918,"49":-0.11682046469869108,"50":-0.15369069143501848,"51":-0.16671306134239255,"52":0.1902553866166477,"53":-0.16698871297958093,"54":0.03993724143829121,"55":0.06303547549800002,"56":0.012781787903975762,"57":-0.13219598796499865,"58":0.16034393000351793,"59":-0.0002817963669930823,"60":-0.1593885405312138,"61":-0.09570396857903628,"62":0.0012239741082795156,"63":-0.014968059533199603,"64":-0.10421913451034369,"65":-0.031820515496137715,"66":-0.16647333471505432,"67":0.04678348239320773,"68":0.10390144726444812,"69":-0.07173191565948059,"70":0.04547109960466064,"71":0.09355021451845785,"72":0.13124145242689805,"73":-0.13412212153729616,"74":0.20197208163569424,"75":-0.08249690272829764,"76":0.15460876571657597,"77":-0.1575901099778948,"78":-0.12782080447625874,"79":0.03299548846714409,"80":0.172771311827706,"81":0.030702066705195073,"82":0.0259708428075403,"83":-0.014559054054589585,"84":0.16129957056035987,"85":-0.07128154092739275,"86":0.018048868520409843,"87":-0.13915470521119017,"88":-0.02788188014517702,"89":-0.05913802623225607,"90":0.1652426615477462,"91":-0.04061620106679954,"92":0.08795154452119527,"93":0.017791572980876864,"94":0.019105342995022232,"95":-0.08098089760624787,"96":0.1693747988321251,"97":-0.03668006515336085,"98":0.058042066381427566,"99":0.17389121861984033,"100":-0.12617681803750133,"101":0.10646684029589533,"102":-0.02427363578562375,"103":-0.09089392481053278,"104":0.08512804661820852,"105":0.033914467663255725,"106":0.08928198953723829,"107":0.16193627348562678,"108":-0.1563634030609265,"109":0.050752217255864,"110":0.12089291873899428,"111":-0.05449588132721166,"112":0.13187430097063665,"113":0.1335061679871429,"114":0.11972294498107368,"115":-0.1883892028401081,"116":-0.016382474105649292,"117":-0.19360996283103057,"118":-0.14600146407375403,"119":-0.1265483243523623,"120":0.08377349439051557,"121":-0.18011872215203725,"122":-0.11429746820127716,"123":0.0285707623739863,"124":0.03553752523486548,"125":0.026877871109495115,"126":-0.19185890272382095,"127":-0.020442422976302242,"128":0.04424122373675159,"129":0.18652877928117553,"130":0.15076010771204842,"131":-0.043493316236205976,"132":0.05361447664585284,"133":-0.03455439686121517,"134":-0.18802084300455701,"135":-0.14350996848654834,"136":-0.09013695891602956,"137":0.0009749441577379682,"138":-0.12875430153445497,"139":-0.015941093138053232,"140":0.09349885841166751,"141":-0.12791965339745523,"142":-0.1315466039018437,"143":-0.03848117457278926,"144":-0.1107571117293198,"145":-0.017482956314877802,"146":0.13301440309152185,"147":-0.06298780126626247,"148":0.10299001534212987,"149":0.0026794681521515977,"150":0.06623530415068599,"151":-0.1051754563349661,"152":0.1939424834997447,"153":0.17964044452674738,"154":-0.12707286198715934,"155":-0.18508321477499087,"156":0.026981578445288482,"157":-0.18990471873629244,"158":-0.14076887749721623,"159":-0.06996184507482928,"160":-0.16717391919571123,"161":-0.15096919026777375,"162":-0.18726521976606397,"163":0.19542582189882537,"164":0.03165234534606342,"165":0.03490218296000582,"166":-0.175139403451173,"167":-0.10786098199078825,"168":-0.13334405950577038,"169":-0.14528406471944685,"170":0.19491608435977775,"171":0.1328570297160223,"172":0.10188681146006866,"173":-0.1147858738993879,"174":0.08073245075333739,"175":0.0007819245688907947,"176":-0.09454308730305865,"177":-0.1932491104618933,"178":-0.1159537369636582,"179":0.15432566287075386,"180":0.005120777879649364,"181":-0.11016505353949854,"182":0.1891279906686325,"183":-0.16071688600105888,"184":-0.12566263696886842,"185":0.11442382551715305,"186":0.1620364734779224,"187":-0.1065091343937667,"188":0.11048509804389868,"189":-0.1155599259524881,"190":0.05258699217583371,"191":0.12083464818418535,"192":0.017769751248482138,"193":0.03321522555324405,"194":0.0049193585006547715,"195":-0.19326554204792668,"196":-0.07693763026934286,"197":-0.0844557415014709,"198":0.12258239402633593,"199":0.02831552566924822,"200":-0.08567493357746024,"201":-0.12226031537199994,"202":0.039167852608852076,"203":-0.13044042728094918,"204":0.060369788042662444,"205":-0.07861428938481264,"206":0.13903336047994722,"207":0.13858999166534103,"208":0.0068719592659948715,"209":0.1442585410647817,"210":-0.08997002106427357,"211":0.16550229934513042,"212":-0.03370454222662494,"213":0.12206847411445239,"214":-0.13769571029026312,"215":-0.12631788353534157,"216":-0.14910241339578917,"217":0.05616037031534239,"218":0.08584451624832044,"219":0.030466312273189165,"220":0.08923683037073524,"221":-0.18727048303143243,"222":0.19279274026867477,"223":-0.09636555242030935,"224":0.19595688817090176,"225":-0.09339659838664638,"226":0.1516651278001172,"227":0.1357704049400247,"228":-0.10656297331674879,"229":-0.1204956509514986,"230":-0.149291096733718,"231":-0.03660163359178805,"232":0.0025293392665608418,"233":0.17794043059101702,"234":-0.03717321745321492,"235":-0.03226275168136115,"236":-0.18268804729653307,"237":-0.14346058636653194,"238":0.15524789205658598,"239":-0.0715632845855886,"240":0.18663642168379038,"241":0.1467140109465441,"242":-0.16354907525898202,"243":0.01965827842246483,"244":-0.017664569150661013,"245":0.08860775727751392,"246":0.053753027274132566,"247":0.04092580006358305,"248":0.1038263950784927,"249":0.08477302861461994,"250":0.055813923940985485,"251":-0.049813057872548354,"252":-0.030656868167299012,"253":0.1494727516078118,"254":0.13781508857549615,"255":0.12731666363659283}},"8":{"bias":0.0011693093233286747,"weights":{"0":0.18446811296957935,"1":-0.16946314010916844,"2":0.03391948069185063,"3":-0.07978799875341808,"4":-0.039276381067882477,"5":-0.1648136741469733,"6":0.09090502279671202,"7":-0.07066230191813429,"8":-0.1202725642890342,"9":0.0685912487802299,"10":-0.03193184617803402,"11":-0.19015439426576902,"12":0.015583502412883813,"13":-0.13948259248898676,"14":0.1569836236519208,"15":0.1439871992197446,"16":-0.11052412039923132,"17":0.10428779507048233,"18":-0.13148087640475956,"19":0.026121049330667227,"20":-0.19625309080334963,"21":0.11894544950149287,"22":0.18578133304690103,"23":0.04119576491526937,"24":-0.1635588946638326,"25":0.19027253708671235,"26":0.00628806398623673,"27":-0.14212794784434274,"28":-0.11180087342124888,"29":0.10326013213330877,"30":-0.10408774776746853,"31":0.14559306063096228,"32":-0.132371717933254,"33":0.04094599154925874,"34":0.19795808181809904,"35":0.0460883051240296,"36":0.17339170840745724,"37":0.15343294288866385,"38":0.045043393706946676,"39":0.0024222967066078053,"40":-0.11838916301402465,"41":0.11871707684679457,"42":0.09539234569482749,"43":-0.022945334075613364,"44":0.040720966065397976,"45":-0.02224030548831933,"46":0.0032463374639466348,"47":-0.1852362377993973,"48":0.026741979781476972,"49":0.1616778555918847,"50":0.11756056467683589,"51":-0.17074210144906188,"52":0.09306353975329291,"53":-0.17795545452432376,"54":0.12266841081994671,"55":0.11058858604600878,"56":-0.12661176705904117,"57":-0.11355395674789698,"58":-0.1784960316995384,"59":-0.12682036900515312,"60":0.18819470460852492,"61":-0.18474091579146923,"62":0.0032031240707071557,"63":0.12605001243076613,"64":-0.016171873042769035,"65":0.05180226391982116,"66":0.20040842547636153,"67":0.028789379891282295,"68":0.18537262328984763,"69":-0.0016467134285843793,"70":-0.1041094984426839,"71":-0.017165764820970434,"72":0.13609791432361532,"73":-0.12255479496504025,"74":0.03814942864328416,"75":-0.1988155854695326,"76":-0.10196711150424084,"77":0.16078903343276893,"78":-0.06113559760345599,"79":-0.08032660071900534,"80":0.08203719176094405,"81":-0.062321126922411624,"82":0.17834468197140924,"83":-0.011828310122523271,"84":-0.012324003950046448,"85":0.1361306945803616,"86":-0.12633567995136932,"87":0.15589046313701393,"88":-0.06214827796617333,"89":-0.06785240885090213,"90":0.08073640084292705,"91":-0.07104582865787014,"92":-0.07423436546426126,"93":-0.03011293757921869,"94":-0.18430020931331867,"95":-0.11546205817760506,"96":0.07749007326992167,"97":0.15158027539667698,"98":0.11966429476111,"99":0.10298984023603297,"100":-0.05039348207224139,"101":-0.18879290945760208,"102":0.01692214603304123,"103":-0.0032969974336275747,"104":-0.008539595451920328,"105":-0.06509658583223413,"106":-0.09824193492080778,"107":0.14001334241917915,"108":0.039213630483423696,"109":0.06963825552212514,"110":0.1579257889398827,"111":0.1478487742989788,"112":0.014234821839468245,"113":-0.04192091968106433,"114":0.19225292439745326,"115":0.077834800210317,"116":0.1543309680617386,"117":0.06971893847474787,"118":0.06731687362059784,"119":0.027328882764484176,"120":0.19342538540689022,"121":0.06125322892083911,"122":0.046088601089958076,"123":-0.13674301451926024,"124":-0.17875154039137764,"125":-0.08496679490029936,"126":-0.18343294037032648,"127":0.08268070726928224,"128":-0.18933498878747124,"129":0.1372013529080571,"130":-0.19607254830815798,"131":0.027411953873663724,"132":-0.1175567014430575,"133":0.10009385812615176,"134":-0.17891095497244172,"135":0.18156900434684284,"136":-0.0779690167252014,"137":0.04342904672092971,"138":0.07428461983187798,"139":-0.09259613399557814,"140":0.07191620193153996,"141":-0.07215717995382782,"142":-0.024553890271575222,"143":-0.016723217233652565,"144":-0.13090596802138363,"145":-0.05467397509121393,"146":-0.11832168384611054,"147":0.14032654908931474,"148":0.009603003578341334,"149":0.07037562170126402,"150":-0.030800631123938143,"151":-0.102592575130453,"152":0.1522273759510106,"153":0.0820973795826433,"154":-0.006830283224008709,"155":0.0707522055883177,"156":-0.04844558833702277,"157":0.10716466069944343,"158":0.08638788600019172,"159":0.15530494349744517,"160":0.018056704575595522,"161":-0.06479617799967098,"162":-0.131261676604584,"163":0.03977726533547004,"164":-0.13901155975876422,"165":-0.04083548887034671,"166":0.04005634037576514,"167":0.005766694073389705,"168":-0.19381674989882772,"169":-0.15552571427805154,"170":-0.12849165482195973,"171":0.15117705883315405,"172":0.1141672189293435,"173":-0.1396280232840648,"174":0.11113904957371833,"175":-0.06672191099598361,"176":0.1838030032486516,"177":0.13617898182530086,"178":-0.19368826705409117,"179":-0.047599661929050734,"180":0.18230895030286565,"181":-0.11903031079404726,"182":0.04170525615198605,"183":0.18775287335124047,"184":0.0005031933721662169,"185":-0.0567530180426697,"186":-0.13322101343149553,"187":-0.06922327176187859,"188":-0.023244672291556693,"189":0.046430302933102074,"190":-0.08148125907718773,"191":0.16086761049810075,"192":0.0803269801449125,"193":0.0246684040434042,"194":-0.1628868133361011,"195":0.17518010283758711,"196":-0.14157427900547173,"197":-0.0694497029209595,"198":-0.12127635856650572,"199":0.04579425280953132,"200":0.19234858674532998,"201":-0.10061243969699245,"202":-0.00350854201959049,"203":-0.022702895471417104,"204":-0.0856215114184574,"205":-0.009112714625565805,"206":-0.1366561766776425,"207":-0.10700345449305032,"208":-0.14516835299757289,"209":0.06894563649511065,"210":-0.008205026933008324,"211":-0.016990484836612335,"212":-0.027503390523527932,"213":-0.06696003036792479,"214":0.06196288632083287,"215":0.03743312593420841,"216":0.016248312736040698,"217":-0.10990433982997379,"218":0.0017540428856939105,"219":-0.010974394923119114,"220":-0.06964808564953401,"221":-0.024109910355766755,"222":0.11097295945493929,"223":0.13374623420907983,"224":-0.1109298351874145,"225":0.063259855862684,"226":-0.020082276407933614,"227":0.0887701728680861,"228":-0.011218348601280046,"229":0.19101204292140136,"230":-0.05535602689331932,"231":0.009800582594240475,"232":-0.03020304011254618,"233":0.08431939989213229,"234":0.13358334418040216,"235":0.1898483998327908,"236":0.17786723772000493,"237":0.023604678182606482,"238":0.09897074851747283,"239":0.10482357171666815,"240":-0.05034840458590267,"241":-0.09704699444595663,"242":0.10052765735818328,"243":0.10131306822718839,"244":0.004179954924561272,"245":-0.16833529581282583,"246":-0.08826371495439574,"247":-0.07183725663949077,"248":-0.13724150248567274,"249":0.06782051357515129,"250":-0.054113257466331825,"251":-0.15184228227384197,"252":0.18579658461077386,"253":-0.1013724711726156,"254":0.0660363551930978,"255":-0.0823577799014901}},"9":{"bias":0.1263849577284465,"weights":{"0":-0.07862053766504794,"1":0.19070243150283922,"2":0.12721272599178832,"3":0.0030199958346895945,"4":-0.1579747964726674,"5":-0.06093009106054682,"6":0.15921617982787223,"7":0.01571972450008844,"8":-0.1785995153662319,"9":0.09285961686187477,"10":0.055599983568695215,"11":0.17898815161477774,"12":0.04572204142629761,"13":-0.0015946540724095391,"14":-0.00573598303458167,"15":0.06352769001846556,"16":-0.09619651665167525,"17":0.026647759702223807,"18":0.0005316724343712653,"19":0.1278639945408169,"20":-0.09576428102346686,"21":-0.08757951968985342,"22":0.04199400885690311,"23":0.14759101981329578,"24":-0.09546672708819608,"25":-0.10414722615587536,"26":0.057988237211875314,"27":0.08837801668539351,"28":-0.15313906367152533,"29":-0.03098697787789605,"30":0.19660366470361954,"31":0.030367942560742173,"32":-0.13294602071979925,"33":-0.04157342139227943,"34":-0.10533323155719558,"35":0.045318924054565,"36":-0.07652605127304626,"37":-0.01862158163032125,"38":-0.1280298846781924,"39":0.13193431033758277,"40":0.11005559046514553,"41":-0.04174448388444446,"42":0.031715826132086525,"43":0.021553151398283205,"44":-0.19480064067205682,"45":-0.15522152029233968,"46":0.1912107100374113,"47":0.16016325424053715,"48":-0.10410249387544708,"49":-0.05664578679574003,"50":0.13638428684988,"51":-0.016714645888598768,"52":-0.16497885295007073,"53":0.07304719189217194,"54":-0.0922895168184076,"55":-0.09530494469230445,"56":-0.12079555798784256,"57":-0.041192857078509997,"58":-0.0180828795460315,"59":0.1500088133785628,"60":-0.08058942513251703,"61":0.06761312523145727,"62":0.11682683164622043,"63":0.15278316061760994,"64":0.1804523351890375,"65":-0.01367210501467324,"66":0.06468384636774839,"67":-0.009576498097206992,"68":-0.09493896015328332,"69":-0.09068349781442761,"70":0.14452703987518137,"71":-0.1837915030397989,"72":0.06680036593461215,"73":0.07688036145555865,"74":0.0909966917060635,"75":0.07491682091416986,"76":0.10037068563973627,"77":-0.20000735023144453,"78":0.028416892168290693,"79":-0.14912979073835356,"80":0.09118257391892959,"81":-0.08478407391343352,"82":0.1093970408112421,"83":0.005242632200775212,"84":-0.11808019020744047,"85":0.07496304171648645,"86":0.16989396466310083,"87":-0.06327209548243073,"88":0.0801809080417803,"89":0.044259172096172854,"90":-0.01582279211954336,"91":-0.1790399601025628,"92":0.07692761798442926,"93":0.12783755121466323,"94":0.05048904300953444,"95":-0.16575080960128794,"96":-0.13865139843780533,"97":-0.023758552595689274,"98":0.10351151827619115,"99":-0.03445904446257842,"100":0.09915374037783442,"101":0.15017152368036654,"102":-0.13035607881055344,"103":-0.1903243486744584,"104":-0.04663656239418168,"105":0.04929755373732427,"106":-0.044848210292248045,"107":-0.002107986465526537,"108":0.07380535269072361,"109":0.14836566298150927,"110":-0.06724750077398339,"111":0.06298237555071769,"112":-0.08088080776758032,"113":0.1474259159402207,"114":0.15398082291872822,"115":-0.1863030685370301,"116":-0.11384816637717322,"117":-0.020948746480413394,"118":-0.16297354890646876,"119":0.0011113771697244257,"120":0.11813131063583228,"121":-0.02131715029669886,"122":-0.023874275511062835,"123":-0.1476422364583594,"124":-0.09395109686751363,"125":0.07905470170073582,"126":0.10726071765030988,"127":0.008315693421994263,"128":0.042816378499733646,"129":-0.017120239411903947,"130":-0.148095023128025,"131":0.07330513077211545,"132":-0.060107203021279657,"133":0.07338740257152136,"134":-0.036969288847194026,"135":-0.14291890066656016,"136":-0.16363000930777116,"137":0.12527307890102923,"138":0.034786883958327075,"139":-0.10829091665375624,"140":-0.1452044864659373,"141":-0.1577287505906154,"142":0.016041526203704814,"143":-0.06128147809537232,"144":-0.12487161172205465,"145":-0.05970610005117286,"146":0.1720942106443025,"147":-0.07512901476808793,"148":-0.18637674799445106,"149":-0.12195136091900156,"150":-0.07843609926595205,"151":0.029746767446355446,"152":0.06309777646824495,"153":0.0543855748579356,"154":-0.014928814091717008,"155":-0.11981408771368922,"156":-0.09302440102219013,"157":0.05761965842850369,"158":0.11564026931059061,"159":-0.04524043390057469,"160":-0.08784274731295275,"161":0.016138003281864623,"162":0.12609802662123834,"163":-0.12162083169415708,"164":0.11496137950240466,"165":0.04168124684341043,"166":0.017067513422973392,"167":0.142082346748255,"168":0.09225592003211981,"169":0.10011964111224297,"170":-0.04499612046320933,"171":-0.035653360664492165,"172":-0.141859774952094,"173":-0.016134912830531187,"174":0.030804125567143025,"175":-0.15919254532227436,"176":-0.09668926365649765,"177":0.07167628468241044,"178":-0.1192347916628352,"179":0.1485867167036144,"180":0.18390444257574431,"181":-0.06919685789518062,"182":-0.10742245917998788,"183":0.003809092808725646,"184":-0.16102834349827014,"185":-0.027958422699544284,"186":-0.052799763355970204,"187":0.09712704091552295,"188":-0.0386597168651135,"189":-0.15408698609877952,"190":0.12684400026473414,"191":-0.12826672448133566,"192":0.051231625136201775,"193":0.029790557881786493,"194":-0.03305238696706489,"195":0.15707584429705626,"196":-0.15380782257287057,"197":0.19708140848048125,"198":0.13755834436723616,"199":0.09193963978211683,"200":-0.004745396078948465,"201":0.15744198143155827,"202":0.006132594819488739,"203":-0.05978387445464394,"204":-0.11447469245558563,"205":-0.19285670439142635,"206":0.1707560904646978,"207":-0.06934918282389817,"208":-0.06211566851042996,"209":-0.010581989265229116,"210":-0.19916124497502302,"211":0.18310593954954912,"212":-0.04243913995150147,"213":-0.09348121925993115,"214":0.017105357281244755,"215":-0.19319983999171803,"216":-0.14125710027210225,"217":-0.0882191230911339,"218":0.16107053474145952,"219":0.08900175136836813,"220":-0.07147756825532664,"221":-0.14818125632155527,"222":0.13194192608951136,"223":0.1892664355984981,"224":-0.10216873465904146,"225":0.012592028416150425,"226":0.11246507418742269,"227":-0.08841003193333015,"228":0.07082773255369171,"229":-0.06247820987699111,"230":0.034215279570123575,"231":-0.15130293019100297,"232":-0.18896261721906288,"233":-0.19421411555361137,"234":-0.014510754401947148,"235":0.15059337996441183,"236":-0.001258354204392102,"237":-0.006590321791982661,"238":-0.030987654069770994,"239":0.16728751263003072,"240":-0.08728299990291719,"241":0.03984727951048932,"242":-0.14168434926521142,"243":0.15859505446842873,"244":0.1557198244606364,"245":0.13789743778066185,"246":-0.12575024618945096,"247":-0.10282807456693825,"248":0.14881101375538544,"249":-0.026724179504763024,"250":0.09375309166719888,"251":0.08121570506107155,"252":0.01088212558970087,"253":-0.16354567499355055,"254":0.0793990346055444,"255":0.10128906487389927}},"10":{"bias":0.12368384267569059,"weights":{"0":-0.1318524099636808,"1":0.14226028186192152,"2":-0.17910979209934955,"3":0.04415272050908948,"4":-0.19866769796567907,"5":0.0760666660244245,"6":0.10327782449500086,"7":-0.11266994495968206,"8":0.0967587613403006,"9":-0.07305618856082143,"10":0.05411238570225817,"11":0.03779110009973518,"12":-0.19169262653546595,"13":0.09243340267208461,"14":-0.13548191120823347,"15":-0.1930832085250338,"16":0.11156862642878862,"17":-0.12250411517279129,"18":0.17431020751101892,"19":-0.050854542813185986,"20":-0.011795123359816204,"21":0.11859196719134579,"22":0.006231544588890089,"23":-0.11857462783567438,"24":0.025009657662926933,"25":-0.12676044795614638,"26":-0.1594818317976261,"27":-0.10856853157922743,"28":0.12226309157955763,"29":0.050945310503072515,"30":-0.14093632988535196,"31":-0.15301765102007958,"32":-0.14081428961962295,"33":-0.007389795098086137,"34":-0.14092541126018204,"35":-0.1263876303936937,"36":-0.1972804940254828,"37":-0.14598390235273445,"38":0.12589656224711962,"39":0.08127386087816843,"40":-0.10650488810266374,"41":-0.18578142944829468,"42":-0.14320102791089093,"43":-0.18074949921794753,"44":0.13526015201602146,"45":-0.13367717123008835,"46":0.003415139527963351,"47":-0.03325289138209537,"48":0.00396124442562762,"49":-0.043636154134270966,"50":0.1323369623518611,"51":0.08674615649285258,"52":-0.1411090594852751,"53":-0.004730925211557259,"54":-0.017126799569690206,"55":-0.0022216606900613755,"56":0.010037751933572816,"57":-0.053917979884056146,"58":-0.06296259725588262,"59":0.10966961372184937,"60":-0.12306580235007201,"61":0.14707548954978245,"62":-0.12948516835661597,"63":0.062099218411965335,"64":-0.0956645160371721,"65":0.015484814475858345,"66":-0.09549285427534426,"67":-0.10717744609807392,"68":0.14779026819096888,"69":-0.030809609161026045,"70":0.01475543193931281,"71":0.025123341775584677,"72":0.17466602941873277,"73":-0.003307224416137439,"74":-0.02895072881883194,"75":-0.07992643235171516,"76":0.14052146294516915,"77":0.0121122207348985,"78":-0.17545293768693546,"79":-0.12427287640988498,"80":-0.12690015989414322,"81":0.16959119535744585,"82":-0.19835912913567738,"83":0.016597887113354644,"84":0.00445060676567705,"85":-0.12708963777337245,"86":0.026095608027738307,"87":-0.08808685568401182,"88":-0.049175422722147664,"89":-0.014622077489158248,"90":0.17281574460663246,"91":-0.09890990554273169,"92":-0.01138922235031485,"93":-0.18992767353189047,"94":-0.14425535282351723,"95":-0.03228898252843382,"96":-0.1347905862539635,"97":0.07233397320674913,"98":-0.1990887668384807,"99":0.125072651925365,"100":-0.10468150486935665,"101":-0.137628126558674,"102":0.061580821171609214,"103":-0.027521233910316228,"104":-0.036681274582235454,"105":-0.08376458022642898,"106":-0.19911978635304406,"107":0.1901509586727964,"108":0.06704297542973219,"109":-0.07041381279214494,"110":0.018846123824787786,"111":-0.17073468639194958,"112":-0.04902374409124647,"113":-0.1969333799025696,"114":0.1626578021974841,"115":0.0008660341983908089,"116":0.1114099653717876,"117":-0.1233303793007887,"118":-0.021710879758357702,"119":-0.15248759629746333,"120":0.04480169623082677,"121":0.021823074483070557,"122":-0.13734851614442342,"123":-0.03694981782885371,"124":0.018742746693729113,"125":-0.06387661578053105,"126":-0.01741310857832059,"127":-0.07609283375522503,"128":-0.010688942919937952,"129":0.140246217215551,"130":-0.13024041307132211,"131":-0.1139831514493881,"132":0.07554475243195748,"133":-0.17915473249289388,"134":0.06162818601343356,"135":-0.17393433446734008,"136":0.034863600378820976,"137":-0.06826623285921603,"138":-0.1620050203461009,"139":-0.1887973742170225,"140":-0.004772919729805458,"141":-0.06642047603977784,"142":-0.19316636513489563,"143":0.18401046270611493,"144":0.0035252826108524184,"145":0.05800853593941436,"146":0.029543653966195696,"147":0.18320838750705262,"148":-0.14010152838418333,"149":-0.13254159193686849,"150":0.16044594452280067,"151":0.09228616757313575,"152":-0.07702960970727188,"153":-0.17656560590935547,"154":0.010895751945497016,"155":0.1803074815399492,"156":0.17534874334448605,"157":-0.06475217689980527,"158":-0.18534623334917938,"159":-0.0838349339796301,"160":0.1767012871074838,"161":0.11329243793524393,"162":-0.03683926432134527,"163":0.045462956258199655,"164":0.1654387193154486,"165":-0.16659944191932538,"166":-0.02210141345478042,"167":-0.11176867748002536,"168":-0.0861566168439158,"169":-0.020811141885404314,"170":0.0031094996359577933,"171":0.004804940133267219,"172":-0.18103327095491795,"173":0.024989957776146064,"174":-0.022194886498990533,"175":-0.09897717755951435,"176":-0.07336248017242579,"177":-0.10070670878771021,"178":0.10086191225595897,"179":-0.18565710773001842,"180":-0.19413737375566373,"181":-0.13476417914532643,"182":0.14008024547565798,"183":-0.13971991104653447,"184":0.15954046712920153,"185":-0.09497982788389846,"186":0.1429706232982093,"187":-0.15139023635423465,"188":-0.13545768149157122,"189":-0.13522411358388955,"190":-0.17237304735346748,"191":0.1770245739652553,"192":0.04370411572986295,"193":0.052392643796253434,"194":-0.03546297811023409,"195":0.17211896951450903,"196":-0.046758800917344745,"197":0.07198139843026988,"198":0.1959239936968642,"199":0.1151054505056338,"200":-0.02579385409397027,"201":-0.16559135640503295,"202":-0.19115151237528225,"203":0.06205868204275794,"204":-0.06064852681023453,"205":-0.12816562606176263,"206":-0.13328492400849376,"207":-0.0760081922853743,"208":0.16276695511495154,"209":0.08743266910247148,"210":-0.15503564871527942,"211":0.09243732338173365,"212":0.026052070205168483,"213":0.05576083125086064,"214":-0.05395384507383396,"215":0.028842155819443965,"216":0.14853048437586902,"217":-0.09728195382021987,"218":0.07034997876833432,"219":0.15953080431761552,"220":0.189583690081111,"221":-0.18666135988669705,"222":0.019622524360908382,"223":0.0099226367969859,"224":-0.10972760626992999,"225":0.15925731966749898,"226":-0.05086092744304993,"227":-0.05033907019220478,"228":0.11240710797481646,"229":0.15811150846102545,"230":0.17133887270819406,"231":-0.02539057679802372,"232":-0.13760812909950604,"233":-0.10800998900155595,"234":-0.1947281909914234,"235":0.10851941595144352,"236":0.07284501523479854,"237":0.027790031347593985,"238":-0.18948437279698988,"239":-0.03859389532623162,"240":0.18122720046904658,"241":-0.11925356353671246,"242":0.04026096368455067,"243":0.13125058251423533,"244":-0.04061034357217762,"245":0.14340863864123177,"246":-0.03779033781238098,"247":-0.13865353014580648,"248":-0.021330262687004938,"249":0.12107906764973783,"250":0.0535642279008072,"251":0.11449266657464363,"252":-0.08246939155709015,"253":0.006379672201880038,"254":-0.1852600012186771,"255":0.07361983068474674}},"11":{"bias":0.030092405751863012,"weights":{"0":-0.05911099268298254,"1":-0.05035197378902887,"2":-0.058268850914401156,"3":-0.03376699957111039,"4":0.12016048456274722,"5":-0.07346818556684338,"6":0.07106708343918682,"7":0.04563975746390324,"8":-0.08114710463386582,"9":-0.12211700714737293,"10":0.031552555607757,"11":0.13427158374839976,"12":-0.019550324388062614,"13":0.00647758827694947,"14":-0.14536141197400834,"15":0.10686744521254624,"16":0.19121381559997538,"17":0.09773235157380401,"18":0.0866948118823622,"19":-0.15237187035996302,"20":-0.1430377106584245,"21":0.09582853374284067,"22":-0.1200274841742982,"23":0.1465892551038276,"24":0.10704153808799895,"25":0.17491465544114468,"26":-0.14752720086785454,"27":0.10123162802391854,"28":-0.02030845247248766,"29":-0.15026863994425788,"30":-0.1631534359713905,"31":-0.09052824057986229,"32":0.09817975465749167,"33":0.0015144198118726148,"34":0.14136594276098083,"35":-0.18218315654475203,"36":-0.05226070515326035,"37":-0.10406208551731326,"38":-0.17427415469063204,"39":-0.030803964467026157,"40":-0.03775265482297434,"41":-0.03696072305117484,"42":-0.17428811773693006,"43":0.13597185081225852,"44":-0.03188563497193338,"45":0.1306063358818677,"46":-0.1484998326945652,"47":0.17255788332197372,"48":-0.0846652635167286,"49":0.02425939183203784,"50":-0.06962072180008096,"51":-0.16655992956003926,"52":0.17952291780596347,"53":0.14060055452708448,"54":0.19020513061833616,"55":-0.09057358022853407,