{"layers":[{"0":{},"1":{}},{"0":{"bias":0.06139977700400115,"weights":{"0":0.05966662387833843,"1":-0.0395617988786487}},"1":{"bias":-0.11388418432109236,"weights":{"0":0.012214411481493853,"1":0.09526168831139739}},"2":{"bias":0.05310001472634175,"weights":{"0":-0.12637777202564848,"1":-0.19362019537247888}},"3":{"bias":0.14410005365867767,"weights":{"0":0.1681482267344671,"1":0.00698712656528707}},"4":{"bias":0.044043821977678234,"weights":{"0":-0.01660889584416117,"1":-0.13052390539805686}},"5":{"bias":0.14912144075984057,"weights":{"0":0.05191325774180067,"1":0.1247012065246222}},"6":{"bias":-0.15280835953257887,"weights":{"0":0.14219507871279052,"1":0.08497983026807142}},"7":{"bias":-0.07977239888334058,"weights":{"0":0.060752715432074944,"1":-0.12461065176656833}},"8":{"bias":0.03105056713063866,"weights":{"0":-0.08482486066872329,"1":0.11047194714507919}},"9":{"bias":-0.10237176582291384,"weights":{"0":-0.00018940048477739113,"1":-0.09463579423804165}},"10":{"bias":0.1859265823277564,"weights":{"0":-0.07569114979387558,"1":0.004660988953965502}},"11":{"bias":-0.06402210927247692,"weights":{"0":-0.04329658493192268,"1":0.0032728713331625563}},"12":{"bias":0.14959657779046007,"weights":{"0":-0.0020478428295093443,"1":0.09490579339094923}},"13":{"bias":0.16793732086966268,"weights":{"0":0.010526906611267428,"1":-0.018232711984434893}},"14":{"bias":0.016558899201930564,"weights":{"0":-0.13951641476014826,"1":0.1468630361767876}},"15":{"bias":-0.018216804373167392,"weights":{"0":0.18089493586291,"1":0.0974137483233118}},"16":{"bias":-0.05774989435572023,"weights":{"0":0.06441007372701535,"1":0.1830251644891946}},"17":{"bias":0.16038563967377184,"weights":{"0":0.08668868326297385,"1":0.13961436353298853}},"18":{"bias":-0.11424549189594553,"weights":{"0":0.015059800406009044,"1":-0.008707745242033993}},"19":{"bias":0.064444140199122,"weights":{"0":0.17306490007096914,"1":0.06217298678042947}},"20":{"bias":0.052236979811088644,"weights":{"0":-0.1491596450931052,"1":0.15629133971323175}},"21":{"bias":0.13502325251164443,"weights":{"0":-0.01934673442102461,"1":-0.14958427504443758}},"22":{"bias":-0.08220726099091821,"weights":{"0":0.01727458875703619,"1":0.08793854695868142}},"23":{"bias":-0.14210083711063967,"weights":{"0":0.13514348731572795,"1":-0.040830700759744654}},"24":{"bias":0.004256184226372891,"weights":{"0":-0.05827886161217402,"1":0.12030350319936003}},"25":{"bias":0.13950847436367034,"weights":{"0":0.09085188306326969,"1":-0.11069421593723978}},"26":{"bias":-0.1765897291359518,"weights":{"0":-0.07715140902108208,"1":-0.14472013741166773}},"27":{"bias":-0.0931328133392721,"weights":{"0":-0.11317570977401736,"1":-0.014227567115913732}},"28":{"bias":-0.04635165765506961,"weights":{"0":0.040858012117507225,"1":-0.0458471075368416}},"29":{"bias":0.08595629716137966,"weights":{"0":-0.0074041000997580875,"1":0.0624648398391601}},"30":{"bias":-0.13771097645849856,"weights":{"0":0.1980238817083761,"1":-0.1514535105171038}},"31":{"bias":0.08286769925208812,"weights":{"0":0.06447156442002555,"1":-0.037589831074961166}},"32":{"bias":-0.18635992005665197,"weights":{"0":-0.17411653707820732,"1":-0.0930272375249458}},"33":{"bias":-0.01448452078675995,"weights":{"0":-0.07379315384539772,"1":-0.16546914774109084}},"34":{"bias":-0.01595255349849947,"weights":{"0":0.07767053585362405,"1":-0.10055022400638593}},"35":{"bias":0.12417952380974195,"weights":{"0":0.1275548559004146,"1":-0.029300434008753116}},"36":{"bias":-0.09531327978502241,"weights":{"0":-0.04486774957937448,"1":0.0887910874497921}},"37":{"bias":0.027971433207182424,"weights":{"0":-0.19554944965734666,"1":0.16681994092060393}},"38":{"bias":-0.012688846749583121,"weights":{"0":-0.08495046424622013,"1":-0.08793128673021637}},"39":{"bias":-0.08706621847172939,"weights":{"0":-0.10656989817149798,"1":-0.18837404113896897}},"40":{"bias":-0.06102312432509169,"weights":{"0":0.1561662183452076,"1":0.09616060643948734}},"41":{"bias":-0.11655697742250386,"weights":{"0":0.07374470897192842,"1":0.18066428840065288}},"42":{"bias":-0.18893236831996763,"weights":{"0":0.18376055702391908,"1":-0.009164372853969717}},"43":{"bias":0.05389655093585266,"weights":{"0":0.1490852173922747,"1":-0.12108955224461838}},"44":{"bias":0.002974139617076014,"weights":{"0":-0.16913582146098696,"1":0.11533586049739826}},"45":{"bias":0.1893871336329045,"weights":{"0":0.03379414686801771,"1":0.02298060107764461}},"46":{"bias":-0.12684034233755653,"weights":{"0":-0.03317681819952184,"1":-0.07593794483256268}},"47":{"bias":0.12281311078675294,"weights":{"0":0.1466824529817709,"1":0.19554539149588981}},"48":{"bias":-0.1511248859832426,"weights":{"0":0.18519473827482785,"1":0.12838867573611717}},"49":{"bias":-0.1532397753204673,"weights":{"0":0.03901909588473568,"1":0.0054768499846862915}},"50":{"bias":0.14592495332099878,"weights":{"0":0.05227200079245187,"1":-0.10160499500701939}},"51":{"bias":0.008499475640065582,"weights":{"0":-0.07799740642005909,"1":-0.018690789142292892}},"52":{"bias":-0.19520847695144733,"weights":{"0":0.05081822900822813,"1":0.10461128510140563}},"53":{"bias":0.14059283789500515,"weights":{"0":0.027867725707509894,"1":0.17544774254115822}},"54":{"bias":-0.03180658786092425,"weights":{"0":0.03877616663244385,"1":0.13353913538397047}},"55":{"bias":-0.0868458241069291,"weights":{"0":0.1880457381634555,"1":0.18395136035783075}},"56":{"bias":0.047479258418487415,"weights":{"0":0.04263406293129712,"1":0.11814351869028349}},"57":{"bias":-0.1181970584751432,"weights":{"0":0.10441535004245334,"1":0.09508236432400766}},"58":{"bias":0.16790466032268087,"weights":{"0":-0.09565304653768339,"1":0.07182570150815054}},"59":{"bias":-0.06565304223581325,"weights":{"0":-0.1487612059009293,"1":-0.12489741158879351}},"60":{"bias":-0.06779397923254873,"weights":{"0":-0.033727364522701475,"1":-0.0063302115768947695}},"61":{"bias":-0.04627765620670403,"weights":{"0":-0.05104810195834819,"1":-0.08269728872514126}},"62":{"bias":-0.013411771670626089,"weights":{"0":-0.03784797227998843,"1":0.013504687908310095}},"63":{"bias":-0.07684964555555163,"weights":{"0":-0.0007603800946318628,"1":-0.02756611162281249}},"64":{"bias":0.10578878190605474,"weights":{"0":0.11191645967281433,"1":-0.017130542808600418}},"65":{"bias":0.020473673922334804,"weights":{"0":-0.14012210411532014,"1":0.1486333333721424}},"66":{"bias":0.1916737805021331,"weights":{"0":0.06212214522771503,"1":0.05454017065815081}},"67":{"bias":-0.047151551949935554,"weights":{"0":-0.09161301590393212,"1":-0.04593156820470408}},"68":{"bias":-0.18628537350758392,"weights":{"0":0.03243725394468208,"1":-0.02950852771406259}},"69":{"bias":0.13762927041520565,"weights":{"0":-0.031208835108825023,"1":-0.15638732963818316}},"70":{"bias":0.1556207780292483,"weights":{"0":-0.13608214772215002,"1":-0.18049995170221775}},"71":{"bias":-0.003751229462220156,"weights":{"0":0.1734950567677127,"1":0.1745472581359885}},"72":{"bias":-0.01989743191599653,"weights":{"0":-0.037287547381507025,"1":-0.09603823835686072}},"73":{"bias":0.09580651622897607,"weights":{"0":-0.15649503376853416,"1":0.1943889227608182}},"74":{"bias":-0.052907075496206754,"weights":{"0":-0.044990658707402986,"1":-0.024044484401648383}},"75":{"bias":0.06712356860793912,"weights":{"0":0.1311056002089656,"1":0.12437931550718548}},"76":{"bias":-0.09508034604680814,"weights":{"0":0.11205118708202183,"1":0.18581308666256616}},"77":{"bias":-0.02408422713270022,"weights":{"0":0.1559548579188701,"1":0.12046925785818807}},"78":{"bias":-0.020026085513885038,"weights":{"0":-0.1732611039759765,"1":-0.12722332477801174}},"79":{"bias":-0.0766027161989411,"weights":{"0":0.019667123072331094,"1":-0.006653528302096179}},"80":{"bias":0.055618378360346166,"weights":{"0":-0.18863268280725523,"1":-0.0017217960390062618}},"81":{"bias":-0.15215415825665005,"weights":{"0":0.019097705451802588,"1":-0.0522526483338226}},"82":{"bias":0.13633230876552158,"weights":{"0":0.0885549949572842,"1":0.15236843344021922}},"83":{"bias":0.05462947373335941,"weights":{"0":0.06723840320518215,"1":0.10258942898309284}},"84":{"bias":0.04957711373349293,"weights":{"0":0.16197930169860764,"1":0.10740576892966693}},"85":{"bias":0.018123989201056786,"weights":{"0":-0.17203523182294556,"1":0.17282804225632256}},"86":{"bias":0.07099404883912046,"weights":{"0":0.08076633824768509,"1":0.08749889765301658}},"87":{"bias":0.10576607361837724,"weights":{"0":0.17355972135891307,"1":0.18007481910054446}},"88":{"bias":0.1057681620855858,"weights":{"0":-0.11957618289527723,"1":-0.09783659115679141}},"89":{"bias":-0.021857518699454404,"weights":{"0":-0.13987718566747606,"1":-0.048531076114744894}},"90":{"bias":0.01866366885322659,"weights":{"0":0.11643769442847118,"1":0.12427294918744222}},"91":{"bias":0.1253110388010137,"weights":{"0":0.09260956831319095,"1":0.06438255743714717}},"92":{"bias":0.03930696458559841,"weights":{"0":0.1585618192149843,"1":0.04809069347131719}},"93":{"bias":0.1872169575903851,"weights":{"0":-0.15830569865093125,"1":0.01957587835825818}},"94":{"bias":-0.08626960836554813,"weights":{"0":-0.19091537739375797,"1":0.173954364020483}},"95":{"bias":-0.08028687224532294,"weights":{"0":0.11153935743411819,"1":-0.19050897056657315}},"96":{"bias":-0.0279149186232992,"weights":{"0":-0.15922922011021426,"1":0.10775654951675286}},"97":{"bias":-0.05431342479591442,"weights":{"0":-0.05513165901426351,"1":0.16460022697619434}},"98":{"bias":0.1586838865261718,"weights":{"0":0.09401412930958192,"1":-0.10394392183040865}},"99":{"bias":0.04106488637820549,"weights":{"0":-0.03810999178127342,"1":-0.11836885901810172}},"100":{"bias":-0.011134090995160384,"weights":{"0":0.006293569938483123,"1":-0.10759445865892721}},"101":{"bias":-0.08523984172938553,"weights":{"0":0.15965429857216906,"1":0.18310164098002338}},"102":{"bias":0.12076082264745099,"weights":{"0":-0.08873543886512439,"1":-0.09520574725281887}},"103":{"bias":0.19898038695904605,"weights":{"0":0.1098929007265439,"1":0.029204433228554604}},"104":{"bias":-0.14206956200085744,"weights":{"0":-0.008916340142803042,"1":-0.19494740205962116}},"105":{"bias":-0.16921779175168405,"weights":{"0":0.02021879933616022,"1":-0.0876116240313953}},"106":{"bias":0.17592287165728127,"weights":{"0":0.11135964612287019,"1":0.13895037243443206}},"107":{"bias":-0.05064713017638607,"weights":{"0":0.13053625845830724,"1":0.044927464480339}},"108":{"bias":-0.19065845229856618,"weights":{"0":0.011752953346070433,"1":-0.18708268087884475}},"109":{"bias":0.15653842957267006,"weights":{"0":-0.10332230433821916,"1":-0.020167236865044458}},"110":{"bias":-0.20005494781189187,"weights":{"0":-0.025725472705932784,"1":-0.1989883529391051}},"111":{"bias":0.10386965621382234,"weights":{"0":0.04001459933314777,"1":-0.12011349201671263}},"112":{"bias":0.1815344346632001,"weights":{"0":-0.026792683302316878,"1":-0.09095179198146505}},"113":{"bias":0.06484177957675856,"weights":{"0":0.1496079410547319,"1":-0.14816726830807095}},"114":{"bias":0.13906233578951108,"weights":{"0":-0.12833657123094755,"1":0.08178104853915846}},"115":{"bias":0.0457603021931843,"weights":{"0":0.08828130469777201,"1":-0.17105437427342446}},"116":{"bias":0.0911001917134761,"weights":{"0":-0.1861735024791149,"1":0.18670250172115357}},"117":{"bias":0.026310591632181676,"weights":{"0":0.05150186325266509,"1":0.1983122703240716}},"118":{"bias":-0.01611601616530682,"weights":{"0":-0.050633239949226555,"1":0.06606354589669157}},"119":{"bias":-0.159936532086093,"weights":{"0":0.038055246109212154,"1":-0.11991967627382345}},"120":{"bias":0.17909666739470598,"weights":{"0":0.014364085503097007,"1":-0.09754888487669323}},"121":{"bias":-0.0028488270357570136,"weights":{"0":0.1831496848206955,"1":0.02135628675811548}},"122":{"bias":-0.06138370351688377,"weights":{"0":0.17793346780954578,"1":-0.09602499110564573}},"123":{"bias":0.0276947265818305,"weights":{"0":-0.0016715378884352705,"1":-0.09320719628424477}},"124":{"bias":-0.041310494344064794,"weights":{"0":0.1331203905373517,"1":0.11529601825853113}},"125":{"bias":0.09960498041278809,"weights":{"0":-0.009518788844145837,"1":0.06297149263258921}},"126":{"bias":-0.04071489745842236,"weights":{"0":0.0818322916111372,"1":-0.06169913276202942}},"127":{"bias":0.13757131314914117,"weights":{"0":-0.03003278831064468,"1":0.1686297803589931}},"128":{"bias":0.13743608982339325,"weights":{"0":0.052462155372209274,"1":-0.1439503754141898}},"129":{"bias":0.18313435555055216,"weights":{"0":0.16291550784556003,"1":0.0981255884036624}},"130":{"bias":0.11131794846036434,"weights":{"0":0.02228103930500938,"1":-0.049292350272198186}},"131":{"bias":-0.05962880151901453,"weights":{"0":0.06954030530679828,"1":-0.04401998165212583}},"132":{"bias":-0.17318251598921253,"weights":{"0":-0.17705402764067948,"1":-0.11295996429263157}},"133":{"bias":0.19888794711267113,"weights":{"0":0.06870095732030246,"1":-0.07410012840437015}},"134":{"bias":-0.10337005405938397,"weights":{"0":-0.17464091943346435,"1":0.05089774833806552}},"135":{"bias":0.11611756540105411,"weights":{"0":0.0862658070311274,"1":-0.002836448624152684}},"136":{"bias":-0.0632408316670032,"weights":{"0":0.028655778224912692,"1":0.10569043206262108}},"137":{"bias":0.0685890410927807,"weights":{"0":-0.187519351508331,"1":0.12564832518994043}},"138":{"bias":0.017383775540312518,"weights":{"0":0.035030165544002845,"1":-0.09931055572552122}},"139":{"bias":-0.08126165963554313,"weights":{"0":-0.1735793553883716,"1":-0.20108717849523258}},"140":{"bias":0.03446008748941635,"weights":{"0":-0.0498462895264713,"1":-0.04990053861539388}},"141":{"bias":-0.15655369859918014,"weights":{"0":0.19824233263396884,"1":-0.1486702807725986}},"142":{"bias":-0.13455192388346854,"weights":{"0":0.09785834165993001,"1":0.09767098097373854}},"143":{"bias":-0.026507830909454036,"weights":{"0":0.0019270669700908738,"1":0.021601130774238936}},"144":{"bias":0.16161645066890265,"weights":{"0":-0.1966420212698238,"1":-0.01928462988884401}},"145":{"bias":0.0616171836907287,"weights":{"0":-0.12159220018749012,"1":0.0016215572904318912}},"146":{"bias":0.13987572785009872,"weights":{"0":0.02719834951659844,"1":-0.14798882780981054}},"147":{"bias":-0.0802293833599469,"weights":{"0":0.06667109286399697,"1":-0.01115200671241678}},"148":{"bias":0.15938083872109035,"weights":{"0":-0.09906022718916861,"1":-0.17796286954112936}},"149":{"bias":-0.15189227035437064,"weights":{"0":-0.07969815726380897,"1":-0.14698550061649546}},"150":{"bias":-0.12450018262484511,"weights":{"0":0.1105386281618067,"1":-0.09588513952017172}},"151":{"bias":-0.0656650516160359,"weights":{"0":-0.12702539330309526,"1":-0.05955888223236005}},"152":{"bias":0.09495590463307718,"weights":{"0":0.14958442763291907,"1":-0.02813867791259705}},"153":{"bias":0.16788332871140657,"weights":{"0":-0.005835781408070506,"1":-0.04311352430674419}},"154":{"bias":0.15433714854716787,"weights":{"0":0.0991587010047833,"1":0.007670106956633805}},"155":{"bias":0.013227718260437874,"weights":{"0":0.01988602702308978,"1":-0.15520485617743968}},"156":{"bias":-0.18955314671319454,"weights":{"0":-0.08205670070354475,"1":-0.06374509440158752}},"157":{"bias":0.061047449566797495,"weights":{"0":0.1454381068623531,"1":-0.1766290387627886}},"158":{"bias":0.06805493168845515,"weights":{"0":0.08300316096665028,"1":0.12301024038566777}},"159":{"bias":0.00459761533731251,"weights":{"0":-0.10661888786518237,"1":-0.051621614219607766}},"160":{"bias":-0.1876709649742129,"weights":{"0":0.10735800891837333,"1":0.07119255107428847}},"161":{"bias":-0.04679175860748974,"weights":{"0":0.02783443993425977,"1":-0.10447945460329536}},"162":{"bias":-0.0742676871078591,"weights":{"0":0.18355666171308455,"1":0.04096325356032064}},"163":{"bias":-0.008228255742247052,"weights":{"0":-0.078355017460148,"1":-0.17892746757902778}},"164":{"bias":0.05352937005979707,"weights":{"0":-0.06166595022995747,"1":-0.18708750679308597}},"165":{"bias":0.018352688931741096,"weights":{"0":0.014353900139684322,"1":-0.026794832090667926}},"166":{"bias":-0.13478185742167273,"weights":{"0":0.02081777414646524,"1":-0.1723383464189977}},"167":{"bias":0.04484308533462964,"weights":{"0":0.18592974753990144,"1":-0.16561608921706}},"168":{"bias":-0.15710307260120482,"weights":{"0":-0.13069116612924284,"1":-0.1729120757485947}},"169":{"bias":0.07821404020113952,"weights":{"0":-0.040548586778162754,"1":-0.0372463466678645}},"170":{"bias":0.1472398566575164,"weights":{"0":-0.18245301056510624,"1":-0.025945889139192223}},"171":{"bias":-0.08914542679365604,"weights":{"0":0.19912054776299176,"1":-0.1585667058615504}},"172":{"bias":0.192452724280575,"weights":{"0":-0.1867177515696347,"1":0.09138718847467739}},"173":{"bias":-0.06812504502194934,"weights":{"0":0.05982146110376424,"1":0.0739026306745819}},"174":{"bias":-0.1234717045591119,"weights":{"0":0.003148324126642066,"1":0.0012027213391529897}},"175":{"bias":-0.11535807146664415,"weights":{"0":0.10351582860542702,"1":0.17762339634575322}},"176":{"bias":0.16412000947936023,"weights":{"0":-0.19338097985659905,"1":-0.09735387589217247}},"177":{"bias":-0.15720851224016852,"weights":{"0":0.156186982063878,"1":-0.11617266168973914}},"178":{"bias":0.0534915348646977,"weights":{"0":0.011571990251308145,"1":-0.18893151450744083}},"179":{"bias":-0.1817978804896041,"weights":{"0":0.05517191071417199,"1":0.13080562893390366}},"180":{"bias":0.09738768288712168,"weights":{"0":-0.12141041772659636,"1":0.13379138452716965}},"181":{"bias":-0.03922633186033483,"weights":{"0":0.09498973879848904,"1":0.19908340582099945}},"182":{"bias":0.13965135267283976,"weights":{"0":-0.01362483993029473,"1":-0.19196444569564894}},"183":{"bias":0.18593639371267276,"weights":{"0":-0.04588822291410394,"1":0.10313981455036694}},"184":{"bias":0.037671323480227975,"weights":{"0":-0.15280233664538498,"1":0.18117238995274834}},"185":{"bias":-0.13810035380989413,"weights":{"0":-0.12657010955013792,"1":0.175091640139099}},"186":{"bias":-0.15098817651053442,"weights":{"0":-0.0334504314114171,"1":0.1882544463021686}},"187":{"bias":0.05237104226167541,"weights":{"0":0.16108526464845968,"1":-0.08996002745634785}},"188":{"bias":0.12785107052924577,"weights":{"0":0.08759997957390453,"1":0.056793982381508124}},"189":{"bias":0.14674551831311605,"weights":{"0":-0.07246511780897472,"1":0.20000037448795302}},"190":{"bias":-0.028859599263302563,"weights":{"0":0.07403306910083585,"1":-0.05395182192483782}},"191":{"bias":0.09398372809152104,"weights":{"0":-0.11445763019901767,"1":-0.12492621762458656}},"192":{"bias":-0.002670885906142178,"weights":{"0":0.053409019550326176,"1":-0.08486926446003937}},"193":{"bias":-0.12298836223092827,"weights":{"0":0.19405169611745665,"1":-0.04266875134999532}},"194":{"bias":-0.08461141164059548,"weights":{"0":0.18932679079835507,"1":-0.05033200363189503}},"195":{"bias":0.014542865137581814,"weights":{"0":-0.09289110345390653,"1":-0.14421687615882586}},"196":{"bias":0.0346697579929907,"weights":{"0":-0.09351633194369775,"1":-0.096634367129979}},"197":{"bias":-0.1958686005432712,"weights":{"0":0.11196583392864295,"1":-0.13069287975621466}},"198":{"bias":-0.05844051313677475,"weights":{"0":-0.12495414099305241,"1":-0.10442812284152475}},"199":{"bias":0.11797318674049463,"weights":{"0":-0.08457788188621801,"1":-0.09973530905463097}},"200":{"bias":-0.060949154508845076,"weights":{"0":0.1866160870635235,"1":0.01633312378729395}},"201":{"bias":-0.19916912978521573,"weights":{"0":-0.10572776032371207,"1":-0.08515910811102083}},"202":{"bias":-0.08408614779787285,"weights":{"0":0.19734670746871757,"1":-0.04427273636961069}},"203":{"bias":-0.1013818465016588,"weights":{"0":-0.12097754749744008,"1":-0.004656238929330704}},"204":{"bias":0.047337562443438376,"weights":{"0":-0.07700400548594688,"1":-0.06165988524613026}},"205":{"bias":-0.09326797756583942,"weights":{"0":0.1911382527958317,"1":0.19677788264238913}},"206":{"bias":-0.19699213984275726,"weights":{"0":-0.042609090164732244,"1":0.16450842374754676}},"207":{"bias":0.0747257988326348,"weights":{"0":0.10649360329487251,"1":0.18270962894422546}},"208":{"bias":-0.15228399086910713,"weights":{"0":-0.10819816240067492,"1":-0.19218951102444837}},"209":{"bias":-0.15035345376093565,"weights":{"0":-0.12787215183995687,"1":-0.09471950847632411}},"210":{"bias":0.14284642506764755,"weights":{"0":0.05395967889727443,"1":0.12770479581690575}},"211":{"bias":0.0960313855558854,"weights":{"0":-0.08372065465140253,"1":0.10818516281660555}},"212":{"bias":0.13770197097842304,"weights":{"0":-0.05417985773999262,"1":0.16014554174798645}},"213":{"bias":-0.17868962682622,"weights":{"0":0.11003336486483212,"1":0.12329669301449646}},"214":{"bias":-0.07371952495356376,"weights":{"0":0.18812565470030268,"1":-0.07631833082437926}},"215":{"bias":-0.03767971044715476,"weights":{"0":-0.03210286924652239,"1":0.09627183049973788}},"216":{"bias":-0.10819522485571491,"weights":{"0":-0.013824923210195988,"1":-0.16217016933901912}},"217":{"bias":-0.12800952329033785,"weights":{"0":0.1666063142935852,"1":0.0821518216599354}},"218":{"bias":0.13574721744954538,"weights":{"0":-0.1577591330125536,"1":-0.028244032783338723}},"219":{"bias":0.14857799606562322,"weights":{"0":-0.16766362869551418,"1":-0.146605096115354}},"220":{"bias":0.013112265995230047,"weights":{"0":0.06549418673976498,"1":0.17951683066620996}},"221":{"bias":-0.02557098274596417,"weights":{"0":0.11293709200773527,"1":0.1941023850318425}},"222":{"bias":0.02941689535020798,"weights":{"0":0.03233621585947466,"1":-0.007460800390853621}},"223":{"bias":-0.04894732412576869,"weights":{"0":-0.18787756604920017,"1":0.11414140000286487}},"224":{"bias":-0.02123783116819694,"weights":{"0":0.037410155866488826,"1":-0.10719983128336905}},"225":{"bias":-0.00825056358092782,"weights":{"0":-0.13823320885696466,"1":-0.12825480006780612}},"226":{"bias":0.04548526862248093,"weights":{"0":0.03429750010137056,"1":0.06406428037333854}},"227":{"bias":-0.03519705801846279,"weights":{"0":0.169822477480494,"1":-0.02437742787169884}},"228":{"bias":0.05167789629430816,"weights":{"0":0.039162638776962494,"1":0.10846612555004406}},"229":{"bias":-0.0415863790314518,"weights":{"0":0.07367017286417515,"1":0.05162770336053703}},"230":{"bias":0.08056345300757778,"weights":{"0":-0.08940205755807798,"1":-0.13811807235450488}},"231":{"bias":0.10857814132600216,"weights":{"0":-0.10983337924137154,"1":0.19658736637614108}},"232":{"bias":-0.12278226325907461,"weights":{"0":0.057483822129187956,"1":-0.037161663800175083}},"233":{"bias":0.0998481409665858,"weights":{"0":-0.07330087655677361,"1":0.07059739256725092}},"234":{"bias":-0.16702874509377347,"weights":{"0":0.14114067652028395,"1":-0.044334549983054944}},"235":{"bias":0.014440578284347843,"weights":{"0":0.11364308591210187,"1":-0.013592479100358401}},"236":{"bias":0.09480198648395292,"weights":{"0":0.09410386284846084,"1":0.048943566420375555}},"237":{"bias":-0.0349640304367979,"weights":{"0":0.04386331770055146,"1":-0.14705851451757793}},"238":{"bias":0.00888634232730297,"weights":{"0":0.059982496067668145,"1":0.1428765014215065}},"239":{"bias":0.04732328606302448,"weights":{"0":0.0012515770915532687,"1":-0.13414413342967227}},"240":{"bias":-0.05566224592335839,"weights":{"0":0.014993888326254534,"1":0.020300364326752657}},"241":{"bias":-0.18209917950759688,"weights":{"0":0.1891566780714573,"1":-0.09755537249777972}},"242":{"bias":0.18218659839677412,"weights":{"0":-0.04076386136077223,"1":0.08059480574886366}},"243":{"bias":-0.021880635418209386,"weights":{"0":-0.12526171331900182,"1":0.069164077749395}},"244":{"bias":-0.16351546457278082,"weights":{"0":-0.07829705713076036,"1":-0.09818562073381054}},"245":{"bias":0.17286829554171537,"weights":{"0":-0.16039658475671034,"1":-0.023093310700661916}},"246":{"bias":0.07503332464512587,"weights":{"0":0.11828429207111102,"1":0.15283835360047412}},"247":{"bias":0.09100127803276671,"weights":{"0":-0.08933267256328109,"1":0.026838101682136375}},"248":{"bias":0.02611026922838025,"weights":{"0":0.11265447210155077,"1":-0.018230994174673488}},"249":{"bias":-0.03001389555344978,"weights":{"0":-0.19668980550711287,"1":0.17985731094377116}},"250":{"bias":0.15384512965077363,"weights":{"0":0.10484551442634127,"1":0.12013896078823467}},"251":{"bias":0.06576740870206448,"weights":{"0":-0.10187200509465866,"1":-0.08207213808180737}},"252":{"bias":0.17240259006518005,"weights":{"0":-0.1419047156762382,"1":0.0833199257908466}},"253":{"bias":-0.1973960024315455,"weights":{"0":-0.1436346122638198,"1":-0.12537802188840633}},"254":{"bias":-0.1426534080501304,"weights":{"0":-0.17085390820291543,"1":0.09157920732414562}},"255":{"bias":0.15169963013934387,"weights":{"0":0.1812563077450567,"1":0.18562610852563327}}},{"0":{"bias":0.1378353277999911,"weights":{"0":0.1576388385574295,"1":0.13833075426993746,"2":-0.010101629582233566,"3":-0.046324705348826385,"4":-0.1910811816568507,"5":0.03053512789196529,"6":0.07937905504839744,"7":0.009712930842027075,"8":0.20009570868109042,"9":0.05221365037102541,"10":0.0021248255958695736,"11":0.023386781377153634,"12":0.1996370859654432,"13":0.04593201200602968,"14":-0.17513435589243567,"15":0.015595146240096384,"16":-0.15721414438470482,"17":-0.026790139498378898,"18":-0.008328354285959308,"19":-0.18038098832473795,"20":-0.1896919637101143,"21":-0.07385440594405897,"22":-0.04624403543752655,"23":0.017600322768871288,"24":-0.09294737024901868,"25":0.06386584107002384,"26":0.1961890882025764,"27":0.18339500326090025,"28":0.11562765439929185,"29":0.19400519196417226,"30":0.015434652138250996,"31":0.10226943263025019,"32":0.0630782963944266,"33":0.15894835775672503,"34":0.027594252711243144,"35":0.06970365034750445,"36":-0.016501572962741174,"37":0.11589612856840259,"38":0.11821773506591482,"39":-0.10237680762220132,"40":0.05626961601573836,"41":0.1715797354296129,"42":0.11833575012314089,"43":0.10274395051802698,"44":-0.12202623135877995,"45":0.028224761845480378,"46":-0.14818152304667379,"47":0.12445740269536172,"48":-0.015018037656324376,"49":-0.17252455627295707,"50":0.19916080980528234,"51":-0.16146144907809257,"52":0.11057521799410244,"53":-0.06455706453093185,"54":-0.07802439944304532,"55":0.13701263399186372,"56":0.13588344005632633,"57":-0.10906607448364321,"58":-0.07554694717654643,"59":-0.11181220492317097,"60":-0.15364961484805748,"61":0.08033023076909149,"62":-0.14646319151465959,"63":-0.06282842482606579,"64":0.04621542580530027,"65":0.026493116776765864,"66":0.1520099834091472,"67":-0.05491315794993404,"68":-0.08811250735934582,"69":-0.047416435348351924,"70":-0.02290739694758817,"71":0.156587240681892,"72":0.1981295285669685,"73":-0.16470532142185745,"74":0.16976295230432184,"75":-0.1762003569189396,"76":-0.04956299238413226,"77":0.009269696090650394,"78":0.00606362667467534,"79":0.04322831216916392,"80":-0.05573357685228914,"81":-0.04134749341596976,"82":0.19262399773412703,"83":-0.01691319627491427,"84":0.10698426517439534,"85":-0.14382923545573217,"86":0.17470655405763585,"87":0.04595054812516808,"88":-0.058870170617170814,"89":0.11673790432442518,"90":0.06157781699370256,"91":0.06118687314083324,"92":0.11944628676493593,"93":-0.09195240447773095,"94":0.15437165210901693,"95":-0.05092060259349208,"96":0.1353910104096214,"97":0.008296717097997073,"98":0.1995207645079482,"99":0.07077425611238104,"100":-0.15756234626000562,"101":-0.19286415062159762,"102":0.1249645556187387,"103":-0.06376890360538813,"104":-0.13183557307782548,"105":-0.05217104497641228,"106":-0.020384782639723483,"107":-0.1778950878656049,"108":0.0006281903136180245,"109":-0.16981512199463725,"110":-0.07784234698939797,"111":0.1895018303699329,"112":0.10280515590429537,"113":0.01678953898123493,"114":-0.05271199420729542,"115":0.16701338573846053,"116":0.09600534170442865,"117":-0.14563476766915612,"118":0.08026763600752819,"119":0.18734006549772933,"120":-0.07081363180798626,"121":0.19428342478529945,"122":-0.09861831259220305,"123":0.1871299153538188,"124":-0.099491333611907,"125":-0.08147644443895151,"126":0.15083835961050537,"127":-0.1713016164419568,"128":-0.035858548311469486,"129":-0.05887234332981768,"130":0.08517794762866798,"131":0.10415901779572301,"132":0.06219171627055514,"133":-0.042321100628730325,"134":0.014647924484158687,"135":-0.1468099042417625,"136":-0.1741954726995586,"137":-0.11385691910880881,"138":0.12430751515700934,"139":-0.03436929504246795,"140":-0.043903545820215766,"141":0.19237514731849878,"142":-0.016560510450232227,"143":0.08166688370950118,"144":0.19682004350059434,"145":0.13879091214988548,"146":0.019678802271641246,"147":0.19258391032500952,"148":0.08796543529899283,"149":0.01523175790580152,"150":-0.14059434156554682,"151":0.10279350599365025,"152":-0.12931723145304597,"153":0.02587230254799631,"154":0.014446701225497922,"155":-0.12279619492929351,"156":0.0002602652295834179,"157":0.023919301423729184,"158":-0.07988199746857609,"159":-0.04008410846272025,"160":0.04693843828019474,"161":-0.12760612415635425,"162":0.093037539238198,"163":0.12448771300053472,"164":0.05848561987244363,"165":0.018002573196069436,"166":0.0394985192683641,"167":-0.004594051016604511,"168":-0.07183245581854211,"169":0.037512573821189665,"170":0.12135313510907456,"171":-0.11323328379490688,"172":0.1255585405364642,"173":0.0901266822795425,"174":-0.17276784796047462,"175":0.12936844770851488,"176":0.08917371274313864,"177":-0.017187595108594,"178":0.14134337147283563,"179":0.00805121755985321,"180":0.17953553595392993,"181":-0.029425583442770114,"182":-0.11153071265948836,"183":-0.0959058974883329,"184":0.17068824614635958,"185":0.02968289994414289,"186":-0.06124910599589057,"187":0.14735576992133548,"188":0.16854212910676278,"189":-0.13402302937569358,"190":0.06423627621850012,"191":0.04204944717413869,"192":0.093968110893925,"193":-0.19051223050208527,"194":-0.13201155819591276,"195":0.11512417060861381,"196":-0.12761866133038888,"197":0.12395880791285827,"198":0.12098081687394364,"199":0.08317913214678066,"200":-0.039492671286743004,"201":-0.1583217967711722,"202":0.0328584016920632,"203":-0.09728965666153497,"204":-0.14025144757876062,"205":-0.1511813325811052,"206":-0.09267086941403302,"207":0.07084996349478467,"208":-0.1385959025588367,"209":-0.09094055054837222,"210":0.18131950416716852,"211":-0.12672865727767738,"212":0.14524988413005083,"213":-0.008360526833609074,"214":-0.13639669950985825,"215":-0.09380292598111468,"216":-0.09225025501297432,"217":-0.19047986749093138,"218":0.159405295161862,"219":-0.1635377382241753,"220":0.2020490700077698,"221":0.03535359377223409,"222":-0.13793050418777178,"223":-0.04565360574715959,"224":0.14743615569647434,"225":-0.01863790200541034,"226":0.08453959647018858,"227":0.03367017038985012,"228":-0.07653626223693383,"229":0.1806827264678534,"230":-0.12082165479715395,"231":-0.01377274417556972,"232":-0.127945874182665,"233":0.12096259795983551,"234":-0.08638926299139545,"235":-0.09945948859733848,"236":-0.16666029405326477,"237":0.022300821273487575,"238":0.1513657570681847,"239":0.10979194590597192,"240":-0.15303374120390978,"241":0.14833239939306994,"242":0.2041404682677862,"243":0.07750070837639503,"244":0.1833870258085442,"245":0.11306853260041236,"246":0.15078996653224835,"247":-0.04439367597285366,"248":-0.141320736317419,"249":0.12336618078094981,"250":0.06548916725549828,"251":-0.06555039792306275,"252":0.023112841985715844,"253":0.06193213279425851,"254":-0.18114561864880552,"255":0.07928889861323503}},"1":{"bias":0.03153947065717424,"weights":{"0":0.01524118075930242,"1":0.08425111267908215,"2":0.11594337213393838,"3":-0.06945842663049308,"4":0.1853566758032345,"5":-0.007191334415763544,"6":0.18855017591586956,"7":0.14097899022708582,"8":0.14085853712967644,"9":0.04225347205589778,"10":-0.12446098634664123,"11":-0.022865514438502915,"12":-0.15455483969867398,"13":-0.15242037942223868,"14":-0.1206898315686122,"15":-0.024230345087101722,"16":-0.09277713810068601,"17":-0.18639662619673644,"18":0.13725091010058463,"19":-0.15615330769088595,"20":-0.12444234474294949,"21":-0.07434586125631015,"22":-0.0728408485550977,"23":-0.1467619265219087,"24":0.06443320207658786,"25":0.17014905691338753,"26":-0.005479946493018414,"27":-0.18238030276852923,"28":0.1963524143379933,"29":0.005688850617141206,"30":0.19533255370867889,"31":0.09951986973947027,"32":0.06290581866698393,"33":-0.08764278225904815,"34":-0.09240136382990825,"35":-0.10894197718512179,"36":-0.07761565499314416,"37":0.17435049613297582,"38":0.11601263908278571,"39":-0.021203959115571398,"40":-0.0433758494482249,"41":0.07124445123191486,"42":-0.04603484108173531,"43":-0.026400310515108796,"44":0.09115810051002686,"45":0.164643147076926,"46":0.017761993332463772,"47":0.13887791232553554,"48":0.1300668725098215,"49":-0.19143115685823997,"50":-0.17640359073354095,"51":0.1609610448699942,"52":-0.03963107246102826,"53":-0.16351291419050068,"54":-0.07777303639011537,"55":-0.18048743298054243,"56":-0.1307701176588264,"57":-0.11657950843528772,"58":-0.0692083135931817,"59":-0.13921145797044693,"60":-0.07425672381073102,"61":-0.141016852748375,"62":-0.17823442757230937,"63":0.05454550695311805,"64":0.18958545348840736,"65":-0.1486682877043414,"66":0.1644228475057954,"67":-0.16089750718294646,"68":0.08363729914028807,"69":-0.020470369453941446,"70":0.1983525508335044,"71":0.1241364130857619,"72":-0.09277514487232946,"73":0.1702241229724823,"74":-0.034686594207384014,"75":0.15600854887348967,"76":0.170365850859978,"77":-0.08656842341230539,"78":0.08513411573756144,"79":-0.0958819002617783,"80":0.03464010437427194,"81":0.01632453225400082,"82":0.0003893968422314388,"83":0.007086530626348723,"84":-0.07380942657351122,"85":0.1505503817067697,"86":-0.1349712155126347,"87":0.1249995866116797,"88":0.18556723965523517,"89":0.1154160399055716,"90":0.05874089348610959,"91":-0.19453516416822766,"92":0.13808410180257044,"93":0.1606740386147209,"94":-0.12732460449341332,"95":-0.1125061955272205,"96":-0.1514415094393473,"97":-0.020012094589003302,"98":-0.047871862734598175,"99":0.00557850339686857,"100":0.039188924528405535,"101":-0.1736152191655539,"102":-0.13604579516546397,"103":-0.07080293336202492,"104":-0.13102734674251776,"105":0.1570590819283106,"106":-0.15340637006988894,"107":-0.0006153910707800264,"108":0.07320838823765426,"109":0.11348237100242976,"110":-0.18449920359679486,"111":0.12851548065055596,"112":0.0036639535882414557,"113":0.15745352558630626,"114":-0.15964120577061697,"115":-0.09893104359291731,"116":-0.1289131638102189,"117":0.11116547905355799,"118":-0.07784858927341298,"119":-0.02422182442823183,"120":-0.07325885447056985,"121":0.03683409545547483,"122":-0.07721039944154427,"123":0.161036602485522,"124":-0.1252063263812064,"125":-0.05915582928573782,"126":0.19268393773431283,"127":-0.05262336795748112,"128":0.06886140794318468,"129":0.14953037469621958,"130":-0.10436325114055377,"131":0.12235653127739833,"132":0.13908112140527468,"133":-0.19420199946933714,"134":-0.0037930571546768714,"135":0.04830311562589098,"136":0.18153886781411793,"137":-0.12837579885380657,"138":-0.16574072434684653,"139":0.1836984045005397,"140":0.11075211201804647,"141":-0.03617770401712018,"142":-0.11891069177155764,"143":0.02194646683135971,"144":-0.13917331196890215,"145":-0.07946656640838574,"146":0.06590377051977153,"147":-0.028395432328510682,"148":-0.10455708414970734,"149":-0.046101153559760466,"150":0.12153257672366488,"151":0.19532448245606734,"152":0.08035944457078287,"153":0.07807229522341458,"154":0.07557995854397169,"155":-0.03356502849495532,"156":-0.16182983750216887,"157":0.1633436725634406,"158":0.1414472665965878,"159":-0.07580072940841762,"160":-0.013528999673926935,"161":-0.03602948103829347,"162":-0.11590440592305094,"163":0.117899203178251,"164":-0.13459604578632434,"165":-0.07556264288767003,"166":-0.18635183165077499,"167":0.15718091910290272,"168":0.06062656534760095,"169":-0.16951902251307188,"170":0.1222486167158537,"171":0.11577668406328197,"172":0.1804939800799989,"173":-0.09456423473645342,"174":-0.03331109468146231,"175":0.08053656515726698,"176":0.16552499614853203,"177":0.19808524238932246,"178":0.18519546570071085,"179":-0.18107468293860876,"180":0.08362406885888313,"181":0.0768897402047575,"182":-0.15015634348190027,"183":0.19393654418963355,"184":0.13490182637747541,"185":0.15334473914970387,"186":0.11680508379400933,"187":-0.16058339014612583,"188":-0.09882335835672691,"189":-0.16390740981410382,"190":-0.02984966222304597,"191":0.06635165373874087,"192":-0.05509086831552555,"193":-0.05330200766907357,"194":-0.016873217289170003,"195":-0.01557948583653607,"196":0.030707571622352412,"197":-0.00035044257984642485,"198":0.18021143074120718,"199":0.12131397968143956,"200":0.13222264651254806,"201":0.12023869495805305,"202":-0.05943690531055124,"203":0.1260021939915724,"204":0.17807327468982045,"205":-0.12051956065926493,"206":-0.07964832424946831,"207":0.18826956463235953,"208":-0.09782332805613225,"209":0.19959578806390055,"210":0.2004096933355475,"211":-0.010514602612572034,"212":0.18407158599313142,"213":-0.12249908434036043,"214":-0.1659613283602632,"215":-0.04760256741268866,"216":-0.09306064015768324,"217":0.19481043566630296,"218":0.14356332520026313,"219":-0.17197317137108778,"220":0.1436279579777171,"221":0.15108093220780805,"222":0.07534613290107464,"223":0.07947212133045163,"224":0.07919686653967303,"225":0.10760728901693203,"226":0.0783086987383193,"227":-0.15062879897574705,"228":0.005992592875306337,"229":-0.1281645830643053,"230":-0.09503095905709817,"231":0.16005400719794094,"232":0.03993363665946909,"233":-0.0971568851624417,"234":-0.04001593354035645,"235":-0.029091804134474316,"236":-0.15831707888779778,"237":0.08369435484790774,"238":0.01894231417973404,"239":-0.00896284346798345,"240":0.04045709967834579,"241":0.07063790125724137,"242":0.021738127208770358,"243":0.0030226101914735356,"244":-0.09252354986228395,"245":0.13028607442530496,"246":-0.020503199536339164,"247":-0.03905320572098235,"248":-0.03883884341019196,"249":-0.1730673454721321,"250":-0.09838241696358467,"251":0.16683969354474953,"252":0.08037350202103924,"253":0.04741334683910198,"254":-0.0010500250546618204,"255":0.19168751663757935}},"2":{"bias":0.15101531564048204,"weights":{"0":-0.16386503937856872,"1":-0.08732648903383101,"2":-0.03547564236801597,"3":0.18527366620124866,"4":0.020805244777382496,"5":-0.0887482138257639,"6":0.182337136314265,"7":-0.05700836321210811,"8":-0.1740967652681728,"9":0.1979731162770893,"10":0.03139780268264962,"11":0.09137346786175095,"12":-0.13925395824020223,"13":0.007872632157412842,"14":-0.07103597851487038,"15":0.12975625411145464,"16":-0.0012129456005427553,"17":-0.10714830536102461,"18":-0.1940861628238198,"19":-0.15506327064990985,"20":-0.14813172390178356,"21":-0.16418866614157085,"22":0.15665001988837374,"23":-0.15954475650909056,"24":-0.14972821703379552,"25":-0.04026096839883392,"26":0.10735904192219728,"27":-0.06727821510807433,"28":-0.10796837801174079,"29":0.045435476136969244,"30":-0.056993372149242466,"31":0.1905101362694136,"32":0.14126421946750187,"33":-0.17206315831590235,"34":-0.17680093053981127,"35":0.00998713005942231,"36":-0.09062884929844406,"37":0.08434973020759468,"38":-0.18912251545564782,"39":0.08028467777238527,"40":-0.18271992869480122,"41":-0.19460467159444075,"42":0.016566381185883376,"43":0.12629313868860143,"44":-0.008848064081555524,"45":0.03644018546727232,"46":-0.09260104243495079,"47":0.14261555074977547,"48":-0.020854083839745276,"49":0.08518946424603915,"50":-0.03376089621173624,"51":0.04936198338974826,"52":-0.16712417160579743,"53":0.03987475165381382,"54":-0.04447680338424284,"55":-0.15817544871952013,"56":-0.11129789562993431,"57":0.11385614372167388,"58":0.10435135758266999,"59":-0.17752191480615204,"60":0.16224933636896477,"61":-0.07804600876318246,"62":0.06529104521302677,"63":-0.021230753554912482,"64":-0.09071213031032266,"65":0.1409546874987899,"66":0.021109085915074908,"67":-0.1262824786623783,"68":0.1561049139987996,"69":-0.15492858144471106,"70":0.02215555054174373,"71":0.1554023073486458,"72":0.028005409316731452,"73":0.13635884932816275,"74":-0.07277192758505535,"75":-0.029054170526684315,"76":-0.1622854859886399,"77":0.1209077305043782,"78":-0.1632373035451623,"79":0.12322752168055605,"80":0.04926550313028272,"81":0.0656625581968664,"82":0.14141714386325063,"83":0.11225090721412154,"84":-0.027668285222428483,"85":-0.12149695080697132,"86":-0.054169944800519274,"87":0.05935638150942683,"88":-0.0568057691458189,"89":-0.07423616161523386,"90":-0.1466044291953102,"91":-0.1310270487951492,"92":0.11901169262358859,"93":-0.13700324015134924,"94":-0.1389671615055606,"95":0.05196965288369815,"96":-0.02585863209303198,"97":-0.13745113764031838,"98":0.023208162104258967,"99":-0.09673160561648154,"100":0.1997106665368177,"101":-0.07285389117177532,"102":-0.05725221947748719,"103":-0.11019625226748381,"104":-0.1962834990967372,"105":0.16573854368859534,"106":0.1177693675648638,"107":0.10972359294561433,"108":-0.10923270096752319,"109":0.19645928053182296,"110":0.053465457405781826,"111":-0.17771637395831363,"112":-0.06545620546118201,"113":0.15492910643065538,"114":0.18481883692316636,"115":-0.07420362204701889,"116":0.15166931637255726,"117":-0.11601103235535322,"118":-0.1165276424876024,"119":-0.13606686705878154,"120":-0.18515111339414356,"121":-0.13406809507790315,"122":0.08933919668360621,"123":0.04325881394571022,"124":0.005980530039193604,"125":-0.19898556705652007,"126":0.04467521860773567,"127":0.015673591788733586,"128":0.06220740243219442,"129":-0.09250153685175211,"130":-0.05620540923377633,"131":-0.13577717797269193,"132":0.020728737210825656,"133":-0.140181130849265,"134":-0.06731966720948965,"135":0.1401411207969562,"136":0.09522944859476508,"137":0.03231825033171832,"138":-0.07391797705975034,"139":-0.17931476612667469,"140":0.18814817102019224,"141":-0.1802437736912698,"142":0.0025088516855160995,"143":0.18880949181097675,"144":0.19874653132638678,"145":-0.18307758000484073,"146":0.10379239333566434,"147":-0.13021955416574543,"148":-0.05838324777879158,"149":0.18615283911885616,"150":0.03911662205449608,"151":-0.08967167514044012,"152":0.12482566710299907,"153":0.12368301873968353,"154":-0.16923442976427938,"155":-0.1285093938113005,"156":-0.019395572159530198,"157":-0.06488400903960041,"158":0.1884939230705753,"159":0.16050315292732298,"160":0.013788131231289288,"161":0.1140637813715413,"162":0.01242665248610593,"163":0.13836536596966933,"164":0.1411626708982521,"165":-0.04049870387395881,"166":-0.09211341509961977,"167":-0.1229584448165609,"168":0.013529293381781124,"169":-0.1681159283510091,"170":-0.11855761079476533,"171":-0.11578940677229982,"172":-0.14895351513827035,"173":-0.16848175154666212,"174":0.1501031250842215,"175":0.09754495631017684,"176":-0.14514609797788416,"177":-0.17371758318256042,"178":-0.0507010996036176,"179":0.10208845784612408,"180":-0.13669213460899154,"181":-0.03287005491826082,"182":0.12286433964013081,"183":-0.18112715676264618,"184":-0.12235384902228243,"185":-0.09780822716568371,"186":-0.0722254766680246,"187":-0.04985641182501778,"188":-0.17546413193167218,"189":-0.17739299379190088,"190":-0.19734186220300035,"191":-0.10511920661950303,"192":0.1407402082505878,"193":-0.09711649206590597,"194":0.12141289972030439,"195":-0.00767864572549077,"196":-0.07470806395236733,"197":0.037592251678940244,"198":0.16002836084022562,"199":0.15020280309062864,"200":-0.026132176135063804,"201":-0.19335992112740297,"202":0.0915896430582524,"203":0.18154974103112587,"204":-0.04506273862167116,"205":-0.11569404111448298,"206":0.19565533562164178,"207":0.12748606633067974,"208":-0.1348048155827251,"209":-0.15487403064775626,"210":-0.12669381742844807,"211":-0.10261009498620134,"212":0.04823187074369546,"213":-0.13885915721606043,"214":-0.18528568837224274,"215":-0.0221244327724585,"216":-0.09120238831587457,"217":0.002126530233606236,"218":-0.010235078851641806,"219":-0.1742539747563462,"220":0.092344748933881,"221":-0.18729577819685758,"222":-0.14455309030320332,"223":-0.11941092447972584,"224":-0.02442724599654956,"225":0.125587967706672,"226":0.14460950290558552,"227":0.1830983351103199,"228":0.16056011342237578,"229":0.02397015758162531,"230":0.09499964162117978,"231":-0.18877445464939846,"232":0.0513537937272325,"233":-0.14737573179468946,"234":0.17041434788801524,"235":0.1951722831172211,"236":-0.06916573669389353,"237":0.15296013853162096,"238":-0.08390340671159119,"239":-0.023814727452313094,"240":0.06509281974931684,"241":0.09022290175009048,"242":0.10100261561501538,"243":0.14818534258058136,"244":0.09282502784754842,"245":0.16982003481758373,"246":-0.09686424826271042,"247":0.0758437395370137,"248":0.006228057720666719,"249":-0.04315602281765691,"250":0.020433448386720017,"251":-0.15826635614306508,"252":0.1347592270122903,"253":0.1057551290660418,"254":-0.040020587872129976,"255":0.0657820104654247}},"3":{"bias":0.11734879933952588,"weights":{"0":-0.19226127920922131,"1":-0.14583066904744224,"2":-0.19777995005095675,"3":-0.06864663681435396,"4":0.11189978086941409,"5":-0.057530449862949556,"6":-0.05586854600132244,"7":0.1671764076585469,"8":0.19400163283708907,"9":0.19148501256127462,"10":-0.1427278126981439,"11":-0.04336329537098911,"12":-0.04259631813681483,"13":0.014315765695574616,"14":-0.13260683932145895,"15":0.03755858551772167,"16":0.07401481290232935,"17":-0.119626943465714,"18":-0.06617274844946637,"19":-0.06874752470269967,"20":0.05662133685078298,"21":-0.09822253211798718,"22":0.006168688123709175,"23":-0.16011123588289414,"24":0.1732597084404958,"25":-0.1447951318540742,"26":0.1977011493517629,"27":0.052684914652188476,"28":0.10523705042047461,"29":-0.10142902845385528,"30":-0.10539327159389486,"31":-0.1392357774140966,"32":-0.09389109272779864,"33":0.06897910090006328,"34":-0.009764801400255105,"35":-0.13146211535025373,"36":-0.19161103187105674,"37":0.1300419255049865,"38":-0.11707518858291513,"39":0.10010194172821096,"40":0.03890921276441471,"41":0.05407435832450112,"42":-0.010341102066495403,"43":0.09815295500977282,"44":0.0868744575376237,"45":0.04030644531644736,"46":0.0663911363060625,"47":0.14275376094355963,"48":0.14450819408461046,"49":-0.01426586281269147,"50":0.04248027838538365,"51":0.19303790754496336,"52":0.15199892502184056,"53":-0.14530832438387337,"54":-0.054759738437904416,"55":0.14975921700015785,"56":-0.07029540194062844,"57":-0.03931482811718286,"58":-0.07553461147863702,"59":0.13877140933021012,"60":0.12184174395548789,"61":-0.12156520478993528,"62":-0.08991129226869474,"63":-0.1709484227646798,"64":-0.06536033143789485,"65":-0.060115304205742015,"66":-0.1967263944768935,"67":0.0948967996835398,"68":0.20006910194594854,"69":-0.19122767724725168,"70":-0.05184607664406201,"71":-0.09090107098986465,"72":0.1132067376548241,"73":0.08594440131813473,"74":0.010731706987049635,"75":0.006686743471306133,"76":0.04998991875994234,"77":-0.013143484907181464,"78":-0.012599490387837793,"79":0.1306991304902478,"80":-0.14142592296545456,"81":0.18379124345283565,"82":0.1541808112483805,"83":0.13704507733280377,"84":-0.08229727807971349,"85":0.03967229335026942,"86":-0.02323546204492722,"87":-0.02352952432982802,"88":-0.04674673812373463,"89":-0.1827950203309989,"90":0.06031228022468088,"91":0.08309322840253475,"92":0.11516110514531576,"93":0.1574716129914447,"94":-0.15261735592816905,"95":0.1452952538656279,"96":0.13013209233883596,"97":-0.04747800863230543,"98":-0.11474968919649871,"99":0.18237462302857463,"100":-0.10062923403073379,"101":-0.1891806405944348,"102":-0.16913485266015224,"103":-0.10325312059970858,"104":-0.05527982199361376,"105":0.1583589601248972,"106":-0.04095151278453124,"107":-0.17796982911387857,"108":-0.03795612640522358,"109":0.1390069889671579,"110":-0.12380291335205651,"111":-0.17407946457338908,"112":-0.00993684295674795,"113":-0.07015355295287141,"114":0.09584999371710502,"115":-0.017807342125452978,"116":0.07724967873678518,"117":-0.19055628064102798,"118":-0.10791613801140673,"119":-0.032481176333047736,"120":-0.15226078869771353,"121":-0.17084500877515793,"122":0.06881783194870233,"123":-0.055991241841315494,"124":0.12463280001898926,"125":-0.08860367549465357,"126":-0.1828078121909058,"127":0.0832446083989422,"128":-0.12150219310677458,"129":-0.10234671459426392,"130":0.0007665848078777127,"131":0.12637818270339105,"132":0.0976521068746498,"133":-0.07416416494639011,"134":-0.18186856690380715,"135":0.045728407438448346,"136":-0.03800873911516384,"137":-0.07449013583320002,"138":0.08953008900362977,"139":0.15826014127157043,"140":-0.03913054229572882,"141":-0.06457523693416709,"142":-0.08684684193587815,"143":-0.1731478168914488,"144":0.11112508638168787,"145":-0.04703412038369822,"146":-0.02839590658328637,"147":0.10157678976566505,"148":0.039216375864546904,"149":0.08880421377198516,"150":-0.13377610273267032,"151":-0.0839071487220934,"152":0.037795194370337834,"153":0.14356516152704554,"154":-0.17153128866364356,"155":-0.11926034349657429,"156":-0.09671257571362309,"157":0.10574401249112278,"158":0.09234805502430736,"159":0.03744494011592513,"160":0.0020663456793046037,"161":-0.057937645700129964,"162":-0.16347849555918798,"163":0.1483991859285289,"164":0.16113355980577454,"165":-0.09199155575643128,"166":-0.09077928850261488,"167":0.09124995875153727,"168":-0.1971835023726159,"169":-0.05682281911358491,"170":0.054620208667333574,"171":0.0011773521558223906,"172":0.11071499920016906,"173":-0.17266024283140283,"174":0.024210824312676765,"175":-0.11962918517339816,"176":0.07244510215041727,"177":-0.14997682872912485,"178":0.18415802256769426,"179":0.06784768669365458,"180":0.028078166909333693,"181":0.09446325360577491,"182":0.05871689542028922,"183":0.11526540853871962,"184":-0.11936162121621685,"185":-0.134023227679484,"186":-0.06187073575067053,"187":-0.15262315960667225,"188":-0.1602234060766681,"189":0.09986120734449092,"190":-0.030411062233124262,"191":-0.0871175341112744,"192":0.07247941375886743,"193":-0.11711807769961748,"194":-0.15461660725230983,"195":-0.02706428733865448,"196":-0.03695110658124454,"197":0.10919191136192072,"198":-0.1591840611670058,"199":0.017091199985413173,"200":0.06238019537046055,"201":0.08807784741487626,"202":0.07527039326784653,"203":0.14331541595111477,"204":0.006779579024503686,"205":-0.18207782255916533,"206":0.11705852486647456,"207":0.16432035357902008,"208":-0.18898160014727744,"209":-0.08867307289777258,"210":0.015657478520974766,"211":-0.038403992756024304,"212":-0.10091851239421896,"213":-0.14525712805097002,"214":0.0021848391629587616,"215":-0.0991137375770591,"216":-0.18657622673988644,"217":-0.07467631117395214,"218":-0.03281923207033365,"219":0.17635802100839773,"220":-0.14963355771738285,"221":0.08044069271366497,"222":-0.07334225528961112,"223":0.14028983325631708,"224":-0.17684614615073213,"225":-0.09404582263898928,"226":0.0022767857299307724,"227":-0.005895644059337645,"228":0.03448460615847842,"229":0.1853417049028045,"230":0.029491710783707208,"231":0.18959677980022313,"232":0.08078237963380448,"233":0.09434397395912417,"234":-0.17549780293175257,"235":-0.09103263000135332,"236":-0.0636667698536932,"237":0.08926845463208367,"238":0.15958542339090598,"239":0.10662676481003525,"240":0.01984208263567065,"241":-0.18973901300395735,"242":0.10133179574778886,"243":0.11733623076514565,"244":0.18504372383542136,"245":-0.17830294414718897,"246":-0.07396311167235943,"247":-0.04004901536447039,"248":0.12884316182591574,"249":-0.09605181098836636,"250":0.1459049251719687,"251":0.05708290266926758,"252":-0.11631386892452926,"253":-0.0239966305003955,"254":-0.13745461007051238,"255":0.06053357918803438}},"4":{"bias":0.06125731346376782,"weights":{"0":-0.019570991920762185,"1":0.04405387038892357,"2":0.06611820975136828,"3":0.015677825749283822,"4":-0.17568164390971758,"5":0.15277321114831208,"6":-0.08970674830109085,"7":-0.06516683363537898,"8":0.04889514094807368,"9":-0.16602872077033434,"10":-0.07742256651271594,"11":-0.1646151058632353,"12":0.034292464386593245,"13":0.08149404285071805,"14":0.08569958736093458,"15":0.13126192424959374,"16":0.024668285431282078,"17":-0.0919907238710853,"18":0.12201882171103576,"19":0.11887439310572133,"20":0.08470173804380215,"21":0.0931414592092236,"22":0.14710267092650733,"23":0.10628853873514395,"24":-0.09226935300118222,"25":-0.03064138541225371,"26":0.06084930949165783,"27":0.13161747313645294,"28":-0.153946296404781,"29":-0.05673339283659714,"30":0.027247572611448053,"31":0.008098652072350542,"32":0.10246284861510346,"33":-0.09931406352913147,"34":0.0042970344963282866,"35":0.15844621788289479,"36":-0.06722653427742502,"37":-0.026784660614691373,"38":0.06977046276046638,"39":-0.17081657054890378,"40":-0.11949962045459533,"41":-0.08947147231083319,"42":-0.05888495521710748,"43":0.10696691814603806,"44":-0.1617626684888798,"45":-0.04311314201378729,"46":-0.13136766760832114,"47":0.16043462807830233,"48":0.09441145448969777,"49":-0.11976781188585434,"50":-0.19555771374604822,"51":-0.16451187188518154,"52":0.16233051859746428,"53":-0.0028845265772618565,"54":0.09007770629034875,"55":0.18337304904106053,"56":-0.05685591960640549,"57":-0.14507608247278647,"58":0.016604422142405727,"59":0.11212717788899564,"60":-0.14691706346000782,"61":-0.07531686566201778,"62":0.0597300810916187,"63":0.17219420229098606,"64":-0.1406635322212953,"65":-0.06471215220461118,"66":-0.15948359994532468,"67":0.16301504988965487,"68":-0.053688127668036434,"69":-0.19525886046748966,"70":-0.04377561663861479,"71":0.18311906926835536,"72":0.09771054594620265,"73":0.18946179175509648,"74":0.20118874088177113,"75":-0.17957339517411566,"76":0.08888502070496503,"77":-0.05370035382910826,"78":0.16181150864674346,"79":0.14004584350784233,"80":-0.10994787990198922,"81":0.1259039951539503,"82":0.06073907066096644,"83":-0.15051648833645617,"84":0.08219629282282229,"85":-0.14775460021268064,"86":-0.18556509780902444,"87":-0.053748549405731094,"88":0.012154397876474021,"89":-0.13078127956653376,"90":-0.17914265988567205,"91":0.12169071356098249,"92":0.07836455665742231,"93":-0.10318033874114954,"94":0.0028347001084747772,"95":-0.06393589163758599,"96":0.09019374661141594,"97":0.16601497973090076,"98":-0.06996261716904284,"99":0.05411670769204663,"100":-0.17734750064798738,"101":-0.1845731504623456,"102":0.19537441613123152,"103":-0.023756553142105806,"104":-0.18472614057388503,"105":0.0001430144491408286,"106":-0.1800926429960725,"107":0.19960541732787324,"108":0.0291407061851571,"109":-0.13214539208883,"110":0.03721056905799463,"111":0.010800026075680902,"112":-0.09335037693948096,"113":0.01762313109418638,"114":-0.013285323597365159,"115":0.10050047224903735,"116":-0.1561588629859096,"117":0.1930269106097838,"118":-0.17256321831241997,"119":0.1785018481130419,"120":0.10902101514042513,"121":0.08000218728300343,"122":-0.10744888526770036,"123":-0.1857255659177495,"124":0.1820757337724584,"125":0.060508709610401834,"126":-0.02064299414705036,"127":-0.005559930071231632,"128":-0.02975828687963701,"129":0.09766521564660953,"130":0.1428176901504162,"131":-0.09342635679367033,"132":-0.16468232744138292,"133":0.024150181417864534,"134":-0.14765820873247787,"135":-0.013884209123453131,"136":0.024139272707143188,"137":0.16938656069919972,"138":0.15931772314735873,"139":-0.13922909160255426,"140":-0.031070344671793256,"141":-0.05446746145688607,"142":-0.15834150439445638,"143":-0.16074768887089375,"144":0.1714491219797631,"145":-0.14165629630216872,"146":-0.01697332598774665,"147":-0.0845691318262126,"148":0.02507210238394081,"149":0.1649577120553231,"150":-0.12748011544591006,"151":-0.04702609174119399,"152":-0.19094996882275483,"153":-0.07406356540614546,"154":0.13256454834122458,"155":-0.09358004373739572,"156":-0.1651451270406848,"157":-0.05818626231868294,"158":0.12544318857215114,"159":0.19902001950985604,"160":-0.11367200387099319,"161":0.042775281884930044,"162":0.0837325727321359,"163":0.07692864809518035,"164":0.19658175484187343,"165":0.11308997408192233,"166":-0.029691050206468318,"167":0.19935489698978967,"168":-0.10560230898551486,"169":0.1718429797842525,"170":0.10083511048537816,"171":-0.1061235555789444,"172":0.18410362110697115,"173":-0.14915508796184032,"174":0.10737330814870873,"175":0.14773637117130278,"176":0.0211571898490511,"177":-0.12624634285656036,"178":0.1803671160323309,"179":-0.1256391291464462,"180":0.15678112448749273,"181":0.056775914818064994,"182":0.09404107590644617,"183":-0.053937567387787856,"184":-0.12861765955002524,"185":0.04673886396978456,"186":0.03504768609545678,"187":0.1285222267980477,"188":-0.08302421602414266,"189":-0.03983707586325416,"190":-0.06028030033902433,"191":-0.09601012185523941,"192":-0.04360075612023933,"193":0.12376584348822765,"194":0.06617595400902335,"195":0.03876603298574596,"196":0.04107972982463079,"197":-0.12542685514669727,"198":0.03653690941177657,"199":-0.05795258929431803,"200":0.16364502063562444,"201":-0.0366741403033833,"202":0.022697760135774292,"203":-0.02250851848897871,"204":-0.15346450962165734,"205":0.10785283606622775,"206":0.09765647283168633,"207":0.05702203629185387,"208":0.0073298958635742185,"209":-0.10592029003243945,"210":0.017313881028649912,"211":0.05232539148595461,"212":-0.08050797868369095,"213":0.06462871897604529,"214":0.1772741809557569,"215":-0.127166483764289,"216":-0.07136082171996438,"217":-0.12465908956279335,"218":0.11310136762542758,"219":-0.06978396719721588,"220":-0.18342131918765991,"221":0.1324965413844776,"222":0.07856416927115013,"223":-0.08750523760524866,"224":-0.002252505869502574,"225":-0.11533102216744812,"226":0.1618602617681436,"227":0.04892083176443027,"228":0.11959948027124402,"229":-0.01781076641903268,"230":-0.07119499921823863,"231":-0.02819720802618005,"232":-0.11354086459815019,"233":-0.03657833039874271,"234":0.020964022085426456,"235":0.16468134490852113,"236":-0.1128703654159419,"237":0.09043091691389561,"238":0.0016977002466048165,"239":-0.10912139125954326,"240":-0.015210498358014996,"241":0.1971573021120066,"242":-0.15206359306983253,"243":-0.1921647290774218,"244":-0.1910386350221146,"245":0.09019170007881347,"246":-0.12115624790458336,"247":0.17394654222959538,"248":-0.17514108294991054,"249":0.053273543491788075,"250":0.019451633854449483,"251":0.09789328361939453,"252":0.09198298102611556,"253":-0.18573954239149865,"254":-0.08547812173407218,"255":-0.0751262241717966}},"5":{"bias":-0.18758325206350615,"weights":{"0":0.12812943592281537,"1":0.13796052371836168,"2":-0.1918854407709516,"3":-0.18484438883244322,"4":-0.13031815889495124,"5":-0.14870395961040028,"6":0.12517364269887166,"7":-0.09537390590244361,"8":0.18992165460354593,"9":-0.03956727222821618,"10":-0.012755112640767036,"11":-0.0034371127272999342,"12":-0.16140852085457258,"13":-0.07813334775619109,"14":0.0618169809380736,"15":0.03892052156149995,"16":-0.14897746207194307,"17":-0.02174620663929444,"18":0.031001270632791785,"19":0.0055482376258837165,"20":0.04655207598723414,"21":0.026127822873960982,"22":0.06146824635180789,"23":-0.16259951386384683,"24":-0.06212707367368133,"25":-0.09121628865460396,"26":-0.07588165303999289,"27":-0.02674542859701178,"28":-0.027187296798874012,"29":-0.02920222261258854,"30":-0.035074125673550414,"31":0.15434560419753784,"32":0.05962677238519956,"33":-0.0484385608010243,"34":-0.05073721002068768,"35":-0.07595097414488002,"36":-0.14084741196557057,"37":0.18878992129002914,"38":-0.03518174876963538,"39":0.013922169782732237,"40":-0.11993581981942841,"41":0.08919977846942279,"42":-0.1476303557971064,"43":0.1827018841614632,"44":0.007763362666524361,"45":-0.026445695655555965,"46":-0.08382046155640016,"47":-0.19790376807766888,"48":0.16391945175601397,"49":-0.12780365391879037,"50":0.014856171319538458,"51":-0.020748657503660593,"52":-0.1827193283812708,"53":0.09249466767211839,"54":0.07734185062161965,"55":-0.09227840013068316,"56":-0.11692833529013509,"57":-0.06069367707561893,"58":0.11715797829758011,"59":0.11992576860395399,"60":-0.06398710533072177,"61":0.06612288861359075,"62":0.03836156165754269,"63":-0.12548073314840538,"64":0.025778603783881537,"65":0.06135535962093629,"66":0.16864406838759882,"67":-0.1474062884093049,"68":-0.02109431090317914,"69":0.11999614315512845,"70":0.03623247660669314,"71":0.0226993129245688,"72":0.06188875538564375,"73":0.12909198110863948,"74":0.15118240888087864,"75":-0.04682804170816229,"76":-0.10179620032867967,"77":0.06934349527261414,"78":-0.005711509712402514,"79":-0.16772678193984877,"80":0.13372071122414622,"81":0.18000320814368367,"82":-0.0048431852237772995,"83":0.17557082173861382,"84":0.022058476593396853,"85":0.11025580914035414,"86":-0.052976841548369694,"87":-0.13831576063764428,"88":0.05570030337917093,"89":-0.003589355508154415,"90":-0.19098219826111668,"91":0.024241660860970928,"92":0.002417117064482497,"93":-0.09121913276099465,"94":-0.0005334226417850421,"95":-0.12970918536800402,"96":-0.17307102002944022,"97":0.09185226783340798,"98":0.036773810631784726,"99":0.016932266481642314,"100":0.13098356075006978,"101":-0.11616988236637844,"102":0.05284236649102557,"103":-0.16195919599661712,"104":-0.010899652513968707,"105":-0.07837732347582174,"106":-0.04995206437799326,"107":-0.1733885207876958,"108":0.18976807688488473,"109":0.18583315606533002,"110":0.17456152494860905,"111":-0.04798233729629094,"112":0.10154387952909272,"113":0.08410379743028876,"114":0.026716348296476792,"115":0.01028904194502209,"116":0.12166664364662054,"117":0.037648474222136595,"118":0.09144518350331722,"119":0.19319539911987532,"120":-0.01708153368732954,"121":-0.1294997884237734,"122":0.10160250297442763,"123":-0.029763540486739497,"124":0.0887185221689685,"125":0.1975830258159229,"126":-0.16045160936926178,"127":0.07839303579289426,"128":-0.003689707719292015,"129":-0.01166145355344737,"130":0.14934812370652303,"131":-0.02369612118917374,"132":0.13233791183253615,"133":-0.023436894224267774,"134":0.04573174165659693,"135":0.11118266153207539,"136":-0.051042316116740705,"137":-0.1493810940336995,"138":0.03350028391371608,"139":0.08186766108887923,"140":0.133104879985647,"141":-0.1727012713199817,"142":0.17535429986482742,"143":0.15950948951955823,"144":-0.12055329732953703,"145":-0.1933230326360638,"146":0.11739115118918574,"147":-0.10267573628070895,"148":-0.1916847824767791,"149":-0.14728124722619085,"150":0.0633363979881904,"151":-0.10207880585561836,"152":-0.011803400382765537,"153":-0.11551308566941561,"154":-0.1361236567764282,"155":-0.03402221872203357,"156":0.08126130871195004,"157":-0.1140147080115798,"158":-0.027988159498967782,"159":0.09836683968552125,"160":-0.009158283558450081,"161":0.03573436375995015,"162":-0.10714113441318864,"163":-0.13999464158094038,"164":0.10959707380921785,"165":0.11643094386346861,"166":0.17150346516096698,"167":0.12351503848462568,"168":-0.024254461121930984,"169":-0.18870681432661984,"170":0.19354129798626218,"171":-0.19717083336746,"172":-0.13448011811053265,"173":0.08221511832133646,"174":-0.073317875852386,"175":0.12221224267188621,"176":0.0053355536903199035,"177":0.18631806201106207,"178":-0.14514266008069882,"179":0.1698150521271443,"180":-0.17037821673121006,"181":-0.17042270442508978,"182":-0.17149316479304028,"183":0.021340706958185404,"184":-0.05053623153588868,"185":-0.08235797412872191,"186":0.180438990132518,"187":-0.10795310837534358,"188":0.11263136915374414,"189":0.13134815294831775,"190":-0.025843824776711318,"191":0.09750850279469014,"192":-0.09740926277515947,"193":0.1979411413665521,"194":-0.051316046913261755,"195":-0.07266527254404108,"196":0.020485795872307005,"197":0.1352361767589016,"198":0.08855177127822779,"199":-0.07390358174157176,"200":-0.16553578004791472,"201":0.059202691071761446,"202":0.004137081040679586,"203":0.02427444996557932,"204":-0.1660279155086443,"205":-0.19189705653148237,"206":0.0772992835886088,"207":0.09979643240975047,"208":0.07300924774020133,"209":0.1598193321987064,"210":0.1067186936996005,"211":0.1791801212829124,"212":0.12779020310781414,"213":0.07058164545329408,"214":-0.10575385103012816,"215":-0.10905839575783571,"216":0.01573345586326776,"217":0.0633566499833839,"218":0.02397812394579101,"219":-0.010917369702773773,"220":0.02910111285064447,"221":0.005325285725295734,"222":0.13812498352482688,"223":-0.19181439225993807,"224":-0.11866521896897594,"225":-0.0435620017659989,"226":-0.03783764556752431,"227":-0.04849130882711555,"228":-0.19069561355942521,"229":0.06675743090458704,"230":0.07053031446626895,"231":-0.07099347124782748,"232":0.08849563134497977,"233":0.03508899243501482,"234":-0.05150498034588808,"235":-0.07763989240868688,"236":0.08489050555934584,"237":-0.12302822640927225,"238":-0.16840161185667926,"239":0.1903746068063132,"240":0.19016662907471682,"241":-0.06582018046622232,"242":-0.011417861380610322,"243":0.16989843823222,"244":-0.035303698215046926,"245":0.16540838911125405,"246":0.009644884808386657,"247":-0.06064415749244338,"248":0.11858216877887087,"249":0.16040768242308534,"250":-0.013302216112603448,"251":-0.17172736394513427,"252":0.09059096428844388,"253":0.1293193386438991,"254":-0.08291515161713217,"255":-0.008133074523058257}},"6":{"bias":0.03304970186340863,"weights":{"0":0.03493814518351376,"1":-0.06507410843462805,"2":-0.05452045671247177,"3":-0.16836296296369033,"4":0.054184602853138676,"5":0.09999559304426343,"6":0.15628768051946906,"7":-0.1651180144239364,"8":-0.12287692208714517,"9":0.08117709098147347,"10":-0.023207966965281428,"11":0.10559953692899679,"12":0.04035612291836756,"13":0.1452421205794043,"14":0.004866776374076178,"15":-0.16810767186426,"16":0.1283629442669767,"17":-0.15285316876276578,"18":-0.19458291334333738,"19":0.06807772743873541,"20":0.019823689775286514,"21":-0.02774719277316494,"22":-0.12740307250873892,"23":0.15557916213816775,"24":0.16080271280779693,"25":0.00698420126123509,"26":-0.07545172640401503,"27":0.0798991331609248,"28":-0.07733343719172786,"29":0.040997560963601,"30":-0.07315753495945651,"31":-0.13133257703966877,"32":-0.007052477438743624,"33":0.09938569684515197,"34":0.1659208770016566,"35":0.011239050196476787,"36":-0.1288493435991523,"37":-0.18331336276672996,"38":-0.12219903093806549,"39":-0.19116741224396977,"40":0.05428650691179263,"41":0.18357542220868292,"42":0.048401596365795684,"43":-0.13256841573008354,"44":0.049725582541846246,"45":-0.16641255984075318,"46":0.02986433936979612,"47":-0.036686035609635105,"48":-0.03509284811910641,"49":-0.07725426797453303,"50":-0.1795699947224079,"51":-0.08438633946029475,"52":-0.12506165731667573,"53":0.0009643800417708504,"54":0.18549714805203202,"55":-0.1255903057859654,"56":-0.0676642703923031,"57":0.1685527945306152,"58":0.17412596194884142,"59":0.060487941318241596,"60":-0.07052457991717279,"61":0.1974404155149454,"62":0.06545054399415096,"63":-0.049918598404826243,"64":0.01699880315678606,"65":-0.021991173323619627,"66":0.013767939585743601,"67":0.15356918706162823,"68":0.10809648270412446,"69":-0.1266426007842739,"70":0.030670397272647244,"71":0.017000637584487697,"72":-0.15937192617919288,"73":-0.10767707244054191,"74":0.06967344357138879,"75":0.04777812668880287,"76":-0.12867076719213588,"77":-0.012789648949596217,"78":-0.1665206793047267,"79":-0.15744558524307253,"80":0.11249024919547933,"81":0.1869125459561253,"82":0.011140270631458062,"83":0.1767489633588284,"84":-0.17403438349429365,"85":0.18394222352867085,"86":0.15862599288283533,"87":0.14035462691411954,"88":0.19461197513365666,"89":0.10166561703090576,"90":-0.07854303364532353,"91":0.15062247760496272,"92":-0.01802260567816955,"93":-0.10129789688803431,"94":0.008006503773100013,"95":0.058430761840355915,"96":-0.10674308856297567,"97":0.1026776818391777,"98":0.1678431642107178,"99":-0.060479060358523094,"100":-0.13686465615658994,"101":-0.15598757440220737,"102":-0.16661516376104119,"103":0.06085028005040408,"104":-0.10264826343066602,"105":0.08546172907123721,"106":-0.13771513104768424,"107":0.044282749728957876,"108":0.11253054932945755,"109":0.07336584252013606,"110":-0.08372555752960464,"111":-0.1783516328543129,"112":0.07489169655011514,"113":-0.15375737216822177,"114":0.1068639765401925,"115":0.0858856132569212,"116":-0.03824037928503712,"117":0.11453930911518861,"118":-0.16851514694140146,"119":-0.10390249526707257,"120":0.11061450985812275,"121":0.07934253064485426,"122":0.12516769421479368,"123":-0.16002150018788552,"124":0.018455127205675725,"125":-0.11120036208304346,"126":0.17469168549212347,"127":0.15164076678690216,"128":-0.08030270181886275,"129":-0.14094089480635316,"130":0.11187018987429816,"131":0.15131777632985996,"132":-0.06674060298172599,"133":0.03369993376767224,"134":0.027287147932101987,"135":-0.11365737166514667,"136":0.1060983104559017,"137":-0.15069839715986832,"138":-0.005472272820326993,"139":-0.06745107940650077,"140":0.15771780417497638,"141":-0.15343333282247254,"142":-0.10792705774034932,"143":-0.06552094846525083,"144":-0.14318749581670004,"145":-0.14273850928495418,"146":0.16805738015330915,"147":-0.0016957011427827268,"148":0.05012270834848658,"149":-0.004360946242226649,"150":-0.10137833518925887,"151":0.040154176451257434,"152":-0.1922712809819005,"153":-0.03376815083974603,"154":-0.02653761833413856,"155":0.016452658281972066,"156":0.03315552752753935,"157":-0.07570342844602075,"158":0.14540779413422555,"159":0.1480372506425314,"160":-0.09727934198914688,"161":-0.1575059372868193,"162":-0.13141889633209597,"163":-0.06880541080395346,"164":0.020914517308173723,"165":0.057312586230782406,"166":-0.03498761389740197,"167":0.19388309104035645,"168":-0.17755838203625787,"169":0.09347083266271557,"170":-0.040039795941601675,"171":-0.19168952834781167,"172":0.19642057064260973,"173":0.06716373853846366,"174":0.07178656910605014,"175":0.07863281261397087,"176":-0.05595179478655314,"177":0.14099756840336936,"178":0.15641831155151156,"179":-0.006131282882701797,"180":-0.1660878453224402,"181":0.1666000300981643,"182":-0.14727628847476376,"183":-0.12962619470205444,"184":0.1216393174165359,"185":0.09042075802737545,"186":0.19251776681767846,"187":-0.09880741968279529,"188":0.06760745237955097,"189":0.016664350207345257,"190":0.09302004992644598,"191":-0.09926541315137154,"192":0.0753246285140545,"193":0.14493992473794104,"194":0.04042912008443592,"195":0.11526139996804341,"196":0.006606137998637929,"197":-0.16071425341356751,"198":0.14864005417637616,"199":0.06365876626193516,"200":0.07789424781694167,"201":-0.050361534768558675,"202":-0.045512108690309666,"203":0.07401043523815269,"204":0.15810947566301703,"205":-0.1691531424465571,"206":0.10648756281261586,"207":0.1363582490341315,"208":-0.028124441326298957,"209":-0.10895614243555446,"210":0.12402418713020096,"211":0.07620966775115282,"212":-0.07266930788926909,"213":-0.023353940579179736,"214":0.12635627634875113,"215":0.02076711516148936,"216":0.0508618826778601,"217":0.025221941343494925,"218":-0.136860321607597,"219":0.01972138897885289,"220":-0.10770263054123627,"221":0.11169646933992788,"222":0.049884166372356105,"223":-0.056545929871943755,"224":0.0199906504856183,"225":-0.12819911992678643,"226":0.094247944180475,"227":0.021054239152995917,"228":0.1593157645816604,"229":-0.09741853034868468,"230":0.03162126273735428,"231":0.0873703717600109,"232":0.06754962203969199,"233":-0.01720489284582751,"234":-0.1815100057690164,"235":0.17427890263038145,"236":0.11906857614068532,"237":-0.16571197636315507,"238":-0.07497968258815546,"239":-0.13217185319721508,"240":0.02834010237429609,"241":0.10422455659504594,"242":0.10336007508516144,"243":0.1137476379131938,"244":0.1176096239247923,"245":-0.006443228138077585,"246":0.17432355573698308,"247":-0.06498518942385134,"248":0.19925536194410015,"249":0.004157415241389,"250":0.1800557858322723,"251":0.1739127020874155,"252":0.031580485335914926,"253":-0.0031697396429117867,"254":0.0025139099006361433,"255":-0.14905044558019467}},"7":{"bias":0.016953348201463856,"weights":{"0":0.11154129103084684,"1":0.13840144688339726,"2":-0.026513617529035936,"3":-0.036440868510656164,"4":0.0852615791315517,"5":-0.019621588876188572,"6":-0.17778665926200443,"7":-0.14048693055620448,"8":0.04570890925853305,"9":-0.058579282762820976,"10":-0.09474646413343432,"11":-0.012907588665215314,"12":0.013800202375204693,"13":0.09888130254269896,"14":0.09126297959074249,"15":0.18473416235039083,"16":0.08598202700418948,"17":-0.1985973080160156,"18":0.03393540512399911,"19":0.0059007606329053545,"20":0.04146727581667829,"21":-0.08362263033654921,"22":0.05413591861578556,"23":0.14264341868083538,"24":0.09492498127891932,"25":0.1339100371824619,"26":0.02870354948097697,"27":0.14697089421971776,"28":0.1003298826115628,"29":-0.07670621862501482,"30":0.11134010214864291,"31":0.06597936597336546,"32":0.0679655540800218,"33":0.11121454176877874,"34":0.028996039999950016,"35":0.03155865495476075,"36":-0.08784885500474379,"37":-0.041530884668880386,"38":-0.05999437007304641,"39":-0.195430861607689,"40":0.06499272950264202,"41":0.017401887986113414,"42":0.023117000069362778,"43":0.06452240827220218,"44":-0.03246155163086162,"45":-0.10851068610076221,"46":-0.1324220111613287,"47":0.190112835178359,"48":-0.12975416545325255,"49":0.0769094954413939,"50":-0.10550334220754808,"51":-0.15000020949039863,"52":-0.11575190666013417,"53":-0.11775505257557178,"54":-0.10796127960159703,"55":-0.12799764220949417,"56":-0.14580608099056988,"57":-0.06859618484390657,"58":0.0417344314926062,"59":-0.07220196337983013,"60":0.016003597774610877,"61":-0.11704701111325626,"62":-0.0919005847544492,"63":0.0608957059679796,"64":-0.03629406209603532,"65":-0.1163835414171202,"66":0.08742973280946222,"67":0.1979218844207135,"68":0.02584467836208017,"69":-0.13876588865497982,"70":-0.15302645595780207,"71":-0.14447357705843103,"72":0.06798223538820063,"73":0.12260899915247395,"74":0.11996482888931909,"75":-0.141979209655217,"76":0.0331798882151464,"77":0.15804308868148362,"78":-0.053072748102107915,"79":0.14875906415642695,"80":-0.05496263942527632,"81":-0.13211497454083018,"82":0.062081694599022685,"83":-0.03624215661852442,"84":0.02398167638912897,"85":0.1834134275536435,"86":-0.0291210156731436,"87":-0.13070745505676135,"88":-0.14927529573780754,"89":0.03283362953717341,"90":0.007756412136134373,"91":0.03086119347642795,"92":0.08518022220757042,"93":0.09177645420258607,"94":0.09638097421430715,"95":-0.05048693463140434,"96":0.07838546672306825,"97":0.14309255366036047,"98":0.15203910526994072,"99":-0.1651574917000768,"100":-0.1644629404963165,"101":0.045458420814412426,"102":-0.017925862997878073,"103":0.03183986211715462,"104":-0.17536571321250663,"105":0.028900830032552952,"106":0.1245120469215505,"107":-0.1556725028615325,"108":-0.11262607769582261,"109":0.022021816969581755,"110":0.0336910166366989,"111":0.05684214761461883,"112":-0.19629267084573793,"113":0.11964794806608126,"114":-0.06712964136066983,"115":0.19828762849591658,"116":-0.012562818509870637,"117":0.1699284353245688,"118":0.09411516294971557,"119":-0.036561974554390746,"120":0.1656467997483242,"121":0.08484224638626327,"122":0.08611857449959628,"123":0.11972484469076672,"124":0.19228521295021964,"125":0.14363649264372666,"126":0.01239107894901962,"127":0.09554603053051065,"128":0.1595038940089153,"129":-0.11975785132869039,"130":-0.04366343632016931,"131":0.08719306614196914,"132":-0.06791713891510447,"133":0.16242905202920652,"134":0.0695534655930159,"135":0.05099201541115816,"136":-0.02739897331477634,"137":0.11711138065253429,"138":-0.030142392610117447,"139":-0.06703762995211676,"140":0.08491822325277859,"141":0.15852538477774245,"142":-0.17514962038993004,"143":-0.17589037045788275,"144":-0.04813516919903013,"145":0.12506949112751028,"146":-0.06367156898080308,"147":0.18598352908712967,"148":-0.1988154445958475,"149":0.19715583003572065,"150":-0.0744366748800446,"151":-0.09229396020260888,"152":-0.11548122388859272,"153":-0.08300367449890424,"154":-0.18955532397354283,"155":0.14836680200297553,"156":-0.1150433651449255,"157":0.1497703086341198,"158":-0.15322801577928935,"159":-0.11280498693950984,"160":0.09591903282842386,"161":0.005436288762570905,"162":0.0867813395350242,"163":-0.043144346732921314,"164":0.19582438081647818,"165":-0.016139575140879058,"166":-0.006480565785277373,"167":-0.14093771946744704,"168":-0.045517227887533644,"169":-0.15438104957521942,"170":-0.1452082750575961,"171":-0.152490350108023,"172":-0.040473765549893695,"173":0.1471191132554221,"174":0.011563561695654978,"175":0.07351034845875032,"176":0.17054182312498667,"177":0.019217355743598848,"178":-0.0916504222382011,"179":-0.09328937580699898,"180":-0.16357020990643925,"181":0.06352581234292756,"182":-0.19455519472139063,"183":-0.059449339625546056,"184":-0.12811757153562822,"185":-0.13087191729252803,"186":-0.14431058639718058,"187":-0.12581974632151752,"188":0.10290548489378709,"189":0.027982159573210732,"190":0.10641082261509609,"191":-0.1998203137792554,"192":-0.12697868027882903,"193":-0.04554199299204964,"194":-0.1300360474348049,"195":-0.07592378078604184,"196":0.0037161268341843402,"197":-0.002271066355663149,"198":-0.020238490600511905,"199":-0.005062227795158728,"200":-0.10670601781873143,"201":-0.03189261034653784,"202":0.19655576191951737,"203":0.18616509049643964,"204":-0.15389614237663493,"205":0.16824580932116742,"206":0.15352057928464488,"207":0.025853080057643793,"208":-0.07272567996470056,"209":-0.16618503986179647,"210":0.19699952403135199,"211":-0.1408569926191674,"212":-0.005961500672832741,"213":-0.11589974328171039,"214":0.029774308891866698,"215":0.032800779840854,"216":0.1225853272747145,"217":0.02920180302300575,"218":-0.1714671217348624,"219":0.030531309375184112,"220":0.022272014393779703,"221":0.0688121217475897,"222":0.0589350937404654,"223":-0.07776311756092424,"224":-0.018463458739483164,"225":0.09597119338794766,"226":-0.1968474539485524,"227":-0.04291922131211739,"228":-0.12260837348001094,"229":0.1374127553125492,"230":0.07396437139054624,"231":-0.11405364668439877,"232":0.17440319057158934,"233":0.04886213809754757,"234":0.1615081868080332,"235":0.12299534738292481,"236":-0.04232029073666972,"237":0.1578645065076945,"238":0.019496703430327545,"239":-0.1990529676925244,"240":0.08390899623337561,"241":-0.12623138290627373,"242":-0.08025588906419326,"243":-0.15120011483317158,"244":0.0011573064785247319,"245":-0.023889182017277903,"246":0.010026118320298517,"247":-0.03378366452207469,"248":-0.028150870743030146,"249":0.1257590189536635,"250":0.09595292069236312,"251":0.18773152827381662,"252":0.19113070712409427,"253":0.03404326060018969,"254":-0.05210119492569129,"255":0.14859262651999053}},"8":{"bias":0.1253599287631769,"weights":{"0":-0.1029944694183355,"1":0.06999971492003322,"2":-0.0443710919715577,"3":-0.1669260889670693,"4":0.13301188382326656,"5":-0.06432859644506853,"6":-0.05065925206260953,"7":-0.19443656963810815,"8":-0.11788460259562247,"9":-0.1458950666683904,"10":0.17675114702525996,"11":0.1891787108375733,"12":0.13967359345171987,"13":-0.13223930327319589,"14":0.04766425925056074,"15":0.07829421008738675,"16":-0.06641139427082646,"17":0.18116640444902074,"18":0.14250926007072948,"19":0.0036609533999547085,"20":0.15997092593842274,"21":-0.055573687294285704,"22":0.005514833370205079,"23":0.14452802363314363,"24":0.05065329691851147,"25":0.05202775948369517,"26":-0.004194332051552901,"27":0.1673052406066559,"28":0.16654774146113024,"29":-0.05821012852573308,"30":0.11824796082383476,"31":0.163714331752614,"32":0.09931644199802601,"33":-0.11888193614056211,"34":-0.00727655475394167,"35":-0.07719606283858223,"36":-0.1965990307909639,"37":-0.09134066919309365,"38":0.15351478654407102,"39":-0.005914659720371716,"40":-0.18107294232536175,"41":-0.03937454931473836,"42":-0.03315468619104353,"43":-0.028853257099194812,"44":0.07870845530876637,"45":-0.113185111285875,"46":0.06504544757385934,"47":-0.018161364378229142,"48":-0.007791674376315582,"49":0.167827601469631,"50":-0.1402720355588217,"51":0.09485075368825757,"52":0.14846990971041907,"53":0.15793297459266745,"54":0.014908943663743672,"55":0.14216916466222407,"56":0.09634901828016125,"57":-0.04096587168504688,"58":-0.02975666736398545,"59":0.17975567981789695,"60":0.10948914722394305,"61":0.15393180284891553,"62":-0.1778919620678198,"63":0.025456765805276397,"64":0.16310998221505962,"65":-0.07159983117878324,"66":-0.09842263234782303,"67":0.14605365758253278,"68":0.12780339323735354,"69":0.13858553481219998,"70":0.04521813900867636,"71":-0.0381202519772835,"72":-0.15635297358123074,"73":0.013134360515074923,"74":-0.06550735059393313,"75":0.20117838677885533,"76":-0.1547776190524397,"77":0.17216437205523244,"78":-0.19335532178189022,"79":-0.0625072827720977,"80":0.15145248192832517,"81":-0.18261297340655722,"82":0.10427385740954172,"83":0.04475133401469413,"84":-0.09513394293359095,"85":0.1381282300292627,"86":0.06731072486693379,"87":-0.12217843177595665,"88":-0.11544816348132254,"89":-0.0630161088902163,"90":-0.0009497139963684811,"91":0.0525198245016316,"92":-0.16828588251876525,"93":-0.10792053526142276,"94":0.1245470948211738,"95":-0.19669756626159995,"96":0.20075730085479968,"97":-0.05887128995505957,"98":-0.15658876502179558,"99":-0.07976795380509766,"100":0.18618473274560154,"101":0.1538480972468702,"102":0.12066862337428676,"103":-0.10483504291756236,"104":-0.16763745639029545,"105":-0.14629736790367057,"106":0.012992591777646377,"107":-0.15653363097797085,"108":0.12655537836184416,"109":0.18337311757091884,"110":0.1032854830203481,"111":-0.1327294867198245,"112":-0.12640469423966963,"113":-0.013348526180231576,"114":0.19322120931762019,"115":-0.16773661779312665,"116":0.151002553359253,"117":-0.02356915937657543,"118":-0.099750541688722,"119":0.15307691071961724,"120":-0.05428300856967434,"121":0.183384947020612,"122":0.1257686660537749,"123":0.06804342842291405,"124":0.11197852928425926,"125":-0.14589227614293324,"126":-0.13751906741921463,"127":-0.1429235267930279,"128":-0.13588352107988763,"129":0.01427679192118822,"130":0.09411898358428028,"131":-0.05366802347532668,"132":-0.01163301657041919,"133":0.048924801286488406,"134":-0.068162119185718,"135":-0.12913833262466703,"136":-0.028877904589778527,"137":-0.06629752725984758,"138":0.19432714555213387,"139":0.16910225656891353,"140":-0.12127971921181818,"141":-0.17525914053612202,"142":0.08099601231588571,"143":0.16875000222228914,"144":-0.17718750078007672,"145":-0.1260844526049004,"146":-0.006744135200148702,"147":0.1841309216134463,"148":-0.0400954294270278,"149":-0.015090661929725578,"150":0.20017824734669476,"151":-0.041302942234047776,"152":-0.1229225191264702,"153":-0.13790711624569962,"154":-0.1285847829018128,"155":-0.007672144160381493,"156":-0.11881413313615033,"157":0.05922175361964575,"158":-0.12113815124377307,"159":-0.05645883363663169,"160":0.19350600486349914,"161":-0.1365076036026505,"162":0.1059741984223165,"163":-0.14656456383598687,"164":-0.07124834123962044,"165":-0.17135464629251448,"166":0.14497401367648227,"167":0.042380893019369384,"168":0.05998840710371523,"169":-0.09868186298733565,"170":0.18007371627971652,"171":-0.1107607114736625,"172":-0.07897015584964896,"173":-0.07352635270529051,"174":0.13349621883967974,"175":0.03833597350185639,"176":0.1461441779828737,"177":-0.016739504041444395,"178":0.20007243044608142,"179":-0.04457172484262645,"180":0.05840487053963987,"181":-0.13871161704254376,"182":-0.024612666897519196,"183":-0.1568015329034642,"184":-0.10059309564710298,"185":0.018008069679484394,"186":0.05544264944562668,"187":-0.08378965641222147,"188":0.12881956478817597,"189":-0.17317665014138173,"190":-0.08678384954796767,"191":0.1753931395126835,"192":-0.19129195665319282,"193":0.1680218013074044,"194":-0.11692710956694105,"195":-0.10713002058131935,"196":0.12964759018719915,"197":-0.17613411584176766,"198":-0.17339273192896626,"199":-0.12684782274851922,"200":0.08299252304670557,"201":0.145931879178122,"202":-0.1460930637157429,"203":0.07625600151125833,"204":-0.10413464847737991,"205":-0.1639200683356268,"206":-0.08888682369402078,"207":0.08427130203287565,"208":0.07163314689167455,"209":0.0845816568013052,"210":0.1294334826178148,"211":-0.11645547616164925,"212":-0.17281361035298373,"213":-0.17504268433226694,"214":-0.018807669068002634,"215":0.025259153776287634,"216":-0.030897069342089842,"217":-0.1963078468080438,"218":0.0955283288166252,"219":-0.11076058429938986,"220":0.1536455669214964,"221":0.15139687172916527,"222":-0.020017628070612914,"223":-0.0990594818606678,"224":0.0380534868366158,"225":0.011134741084940827,"226":-0.13006866683132914,"227":0.10915062029834499,"228":0.1739336172110079,"229":0.041045298257906766,"230":0.1539040757309998,"231":-0.015395876444242252,"232":0.081896361853928,"233":-0.17466300456631637,"234":0.05655581260507691,"235":0.02284221675331622,"236":0.019035072907534294,"237":0.0022618267478584668,"238":-0.07868109403573229,"239":0.0029375769860965975,"240":0.13781769917712347,"241":0.09672800805746828,"242":0.13585915036147858,"243":-0.11985343135384831,"244":0.002022000423234045,"245":0.11981909110818421,"246":0.03956856936209183,"247":-0.04757044341241579,"248":-0.011215132863298373,"249":0.02306513248214908,"250":0.1490738064560931,"251":0.1855513764572626,"252":-0.058127856897546314,"253":0.14969296784617564,"254":0.04520402943186978,"255":0.09235093698992057}},"9":{"bias":-0.07949503851536809,"weights":{"0":0.05481449299527931,"1":0.06527622874647548,"2":0.07975995603138764,"3":-0.03398600399882368,"4":0.03148870000890936,"5":0.1079985647357482,"6":-0.05220524161172344,"7":-0.19681740798198918,"8":0.18078807509360198,"9":-0.08459814153078654,"10":-0.038394930382029825,"11":0.10958828858701489,"12":0.15884462401641014,"13":-0.1350036481320507,"14":-0.04104547465925588,"15":0.1927552738618561,"16":-0.04130832558734323,"17":-0.005323843182487699,"18":0.006344693783896248,"19":0.1962900823320773,"20":-0.07685625737943032,"21":-0.020881547302121595,"22":0.11908026711687607,"23":-0.027060124100167254,"24":-0.049621891759587866,"25":-0.028206110233986708,"26":-0.12739044542415962,"27":-0.10235800780051262,"28":-0.00466661153681093,"29":0.1174697729255975,"30":-0.17936219746135823,"31":-0.007711580776507821,"32":0.18150497583912362,"33":0.15075643491924415,"34":0.07673722907259821,"35":-0.12911197705906405,"36":0.03536260848182028,"37":0.03657006461038949,"38":-0.15193270968953163,"39":-0.011834800258153274,"40":-0.06444370538886901,"41":-0.047021444109445296,"42":0.14566206144941712,"43":-0.02052201220379882,"44":0.11432097349120872,"45":-0.18378076869978052,"46":0.051979239480742886,"47":0.1564669289751281,"48":0.01721714607279559,"49":0.18706178322664355,"50":-0.13111632095198034,"51":-0.0452521307390525,"52":0.19790383487772886,"53":-0.046701439677368374,"54":0.188362581162086,"55":-0.0877621432219478,"56":0.11075837527899729,"57":-0.03153186243373613,"58":-0.14896190999432882,"59":-0.00015969534397229705,"60":0.04866972412494813,"61":0.04515397434419495,"62":-0.10157053903035414,"63":0.17695904436348373,"64":-0.13596239985073927,"65":-0.023296928651963377,"66":-0.11832500065028517,"67":-0.09816011747190838,"68":-0.16697520462924947,"69":0.0700400809845156,"70":0.18471616397518242,"71":0.1412768563745177,"72":0.0259914567732277,"73":0.06205905963257153,"74":0.15133047269978067,"75":-0.046116986691608075,"76":-0.006839648972275975,"77":0.20186743468466084,"78":-0.0369255720987923,"79":-0.0393392797818794,"80":-0.03912498593774816,"81":0.19196879585399199,"82":0.09576520804316326,"83":0.14857705770168414,"84":-0.1142587356005233,"85":-0.18606245423480455,"86":0.17086541654739798,"87":0.14135994038769362,"88":0.12682920401196712,"89":-0.06774219570502561,"90":-0.09550395274743242,"91":-0.14467107972666837,"92":0.045367744902729226,"93":0.10235573864414856,"94":0.00824486038996089,"95":-0.034574886138884264,"96":-0.060006935864144705,"97":0.059211397839799146,"98":0.15747899437382562,"99":0.025342388392412783,"100":-0.16914061134026542,"101":-0.1501884692810717,"102":-0.07678741566501172,"103":0.06728867904742702,"104":0.015754921008316037,"105":0.12064026591422872,"106":0.024045450665711867,"107":-0.04942752221117486,"108":0.19606701134855722,"109":0.01907517367776471,"110":-0.09054294019735075,"111":0.14397971700187534,"112":-0.05551669153197185,"113":-0.18838361067813475,"114":-0.07167785239660758,"115":0.020557417394414502,"116":-0.14634247786023014,"117":-0.10737148421012196,"118":-0.09178484300024933,"119":-0.05198924433701859,"120":-0.049178476885950645,"121":0.18110839211470808,"122":-0.014027798852796565,"123":0.06360226437524248,"124":-0.1578937615717444,"125":0.17567415955680366,"126":0.0071005857811125995,"127":-0.056931111612091564,"128":0.02911771084503121,"129":0.03396314168512738,"130":0.12141486040570111,"131":0.16732947092701342,"132":-0.09061780930429385,"133":0.13848695550394738,"134":-0.024976348679943607,"135":-0.17321834992940932,"136":0.06911646497519229,"137":0.11706618811898836,"138":0.08230562369093804,"139":0.1010870270889485,"140":0.15487385429998018,"141":-0.1559436627080711,"142":0.04101116089498124,"143":0.10503136768164995,"144":0.11546042386104557,"145":0.03506733240884536,"146":-0.19422444614830547,"147":-0.1335368484850342,"148":-0.008380374015639885,"149":0.06122508572701638,"150":-0.0931270112267801,"151":0.07386786074543233,"152":-0.042287875648067436,"153":-0.1951545483251981,"154":0.12182466469615759,"155":-0.17670669421951235,"156":-0.07950033788652901,"157":-0.052012129455893424,"158":-0.053278840393399626,"159":-0.15736237416051851,"160":-0.14867698327207723,"161":0.15004125265230925,"162":-0.10647088571763275,"163":-0.15938708361927728,"164":0.181200501475388,"165":-0.1817985482754661,"166":-0.18859654480497065,"167":-0.041785261315258754,"168":0.02464176285020405,"169":-0.07647287447122428,"170":-0.05400862717928939,"171":0.13529811677417206,"172":0.016623948209162732,"173":0.19517946640664405,"174":-0.08664807101589485,"175":-0.1781672319446939,"176":0.18516283200719813,"177":0.09480033135874158,"178":0.04091618079988557,"179":-0.03373418813842272,"180":0.09351884611137161,"181":-0.19538375104037822,"182":-0.17781352699948844,"183":-0.08145671320846891,"184":0.12346090188708245,"185":0.12589741426835738,"186":0.040039619989095256,"187":-0.007079187093581026,"188":0.0985806626940346,"189":-0.056604496704494835,"190":-0.08072487796960656,"191":0.1545682872472459,"192":0.048552610699189466,"193":-0.057026777923695524,"194":-0.09193180428288505,"195":-0.10457456540305632,"196":0.10117767448523464,"197":-0.103896570326294,"198":0.18523755854502888,"199":-0.1248656460259749,"200":0.015728212686230494,"201":0.05567019801233302,"202":-0.052845814751077184,"203":-0.019686665948743725,"204":-0.035538271607488674,"205":-0.19136445414578857,"206":0.15961256339652735,"207":0.10730027671242849,"208":0.03184910804400732,"209":-0.1380674359391926,"210":0.20061032527763814,"211":-0.05038047419468521,"212":-0.053182330381103336,"213":0.1722852152801848,"214":0.006347622630212628,"215":0.1493791437235717,"216":-0.18960424098717535,"217":-0.10609148044089614,"218":-0.1459305894094801,"219":-0.06595804655258163,"220":0.040574451060876246,"221":0.18366302931889608,"222":-0.03727740097748344,"223":0.15980413021880194,"224":0.04780760080013098,"225":0.19600059366459885,"226":-0.13337925422382124,"227":-0.03736877600002701,"228":0.20099974804565615,"229":0.06749875643281829,"230":-0.1412438514274305,"231":0.20221633147660245,"232":-0.17467429575820836,"233":0.09906987117366234,"234":-0.10120133090110812,"235":-0.06825709526482032,"236":-0.045095890796514757,"237":0.08272368971807612,"238":0.05718505221892951,"239":-0.12686259142833878,"240":-0.034773212021181714,"241":0.0017016829642143357,"242":-0.12794567380672867,"243":-0.11075755111913717,"244":-0.011127551428318066,"245":-0.01975957575145724,"246":-0.1946904766791705,"247":-0.07533093767652546,"248":0.1694771486267077,"249":0.1272611928858448,"250":0.16528139142374898,"251":-0.1705390690355992,"252":0.08216410568653083,"253":-0.1838914552660696,"254":0.18349214675627223,"255":-0.17803747334965964}},"10":{"bias":0.057956926194788386,"weights":{"0":0.07241601564610997,"1":0.18931701546543422,"2":0.05599105315814873,"3":-0.06797678621706561,"4":0.18106438683481363,"5":0.13812787090414488,"6":0.10921648170970351,"7":0.09843366791146263,"8":0.009593723224954224,"9":-0.15882313527417194,"10":0.022380295128496,"11":0.033100253061228255,"12":-0.017220169298890864,"13":0.1181781555009301,"14":0.16248127573613125,"15":0.11962022271318062,"16":0.16635435089024186,"17":0.04161018883593904,"18":-0.007453619955734792,"19":-0.1105432147141598,"20":-0.19315994134379263,"21":-0.1289865686584233,"22":-0.1920784316555742,"23":-0.1924225256102323,"24":0.0880487142322618,"25":-0.07246310109983652,"26":0.06451772530074162,"27":0.11461892524154706,"28":-0.11580076623562988,"29":-0.06946705404701926,"30":0.07658819677225531,"31":0.17269109019480344,"32":0.1036262273715763,"33":-0.06371438230576808,"34":0.17987119193622758,"35":-0.16060742018416777,"36":-0.07540578826994153,"37":-0.103086522634724,"38":0.05086832222804178,"39":-0.07190581096101775,"40":-0.1513292665405064,"41":0.042525640056295895,"42":0.1147798082720826,"43":-0.0011878814206765305,"44":0.18904418495614236,"45":-0.15897896721304142,"46":0.18247985853639484,"47":0.11638970753768406,"48":-0.1455876907560739,"49":0.11966748654257656,"50":-0.0051850963209387185,"51":0.14049424522323106,"52":-0.12492795413563876,"53":0.1080299234278274,"54":-0.059338874626189406,"55":-0.035365041288892035,"56":0.04634255533347237,"57":0.0243037466533996,"58":0.10678433532935412,"59":0.10218596192404401,"60":-0.12090366891443202,"61":-0.012350872107939,"62":0.029866821739104123,"63":-0.1740844057463273,"64":-0.11008894833578947,"65":0.06394264287391423,"66":-0.02022468031360393,"67":0.019738092064939285,"68":0.09064854140465262,"69":0.03464440777284725,"70":-0.05047130136337036,"71":-0.07144326991518464,"72":0.013796633031664072,"73":0.14121975951455343,"74":-0.13139393979489117,"75":-0.10182161138257274,"76":-0.023435124826725367,"77":-0.001679268454746348,"78":-0.11348731738944542,"79":-0.14176214460660302,"80":-0.04494672890413285,"81":-0.17676498167103363,"82":-0.008270889336152708,"83":-0.06775853789325856,"84":-0.021886799691276052,"85":0.09007521381478842,"86":-0.07232043981830374,"87":-0.1376720017255962,"88":0.12889434117168097,"89":-0.03743765669589146,"90":-0.17866580336126991,"91":0.06350053405557622,"92":-0.13588473420100594,"93":0.04051554596576249,"94":0.14043850067062594,"95":-0.14462686469855876,"96":0.16113780750670273,"97":-0.15441310203739067,"98":0.08970143093830597,"99":-0.1803344104903301,"100":-0.13912971907646046,"101":0.16132845468184065,"102":-0.08195040276110596,"103":0.11482847199564263,"104":-0.13778418397307518,"105":-0.1406187719184381,"106":-0.17948221129635242,"107":0.12329408428105641,"108":0.10877134882479009,"109":0.14975943986610493,"110":0.15642299367028178,"111":-0.14844455478058177,"112":0.058215296777785155,"113":-0.14578767076695578,"114":0.18854673127818528,"115":0.04791247805428346,"116":-0.0650180127994746,"117":0.14538280183822933,"118":-0.18201710128783424,"119":-0.10358102126748768,"120":0.14919009704555192,"121":0.10551352366938815,"122":-0.04888030221646542,"123":0.1639364948125886,"124":0.1928705462209924,"125":-0.13966834192994634,"126":0.045064886015320986,"127":0.1925003898407476,"128":0.14403421337114708,"129":-0.13700818024266628,"130":-0.0442695393398536,"131":0.1550408480531808,"132":0.16469433884117007,"133":-0.09824398474285105,"134":0.1432026382415391,"135":-0.17356596516145428,"136":0.05235501621060961,"137":-0.04641240988991175,"138":-0.14644453432429333,"139":0.19591200253438096,"140":0.1327313724505708,"141":0.015683537411234887,"142":-0.1638313859857277,"143":0.11080103828040312,"144":0.07103953804733264,"145":0.021643193875813697,"146":-0.09894971389612786,"147":-0.15825471639248312,"148":-0.1413560579146493,"149":0.14403601475102687,"150":0.08558720368328196,"151":0.1690006323969387,"152":0.14873224343857622,"153":0.024635056402160786,"154":0.16896133906580713,"155":-0.08077471832901505,"156":-0.14302960952674978,"157":-0.009464528169784844,"158":0.12106561353149731,"159":0.0322204389212376,"160":0.20007790300497755,"161":0.003048803911113108,"162":0.17588618029170294,"163":0.01829468980569438,"164":0.11821589436864458,"165":0.007892122355787587,"166":-0.04377561014338556,"167":0.05450217869201566,"168":0.07237828541639975,"169":0.08272663949367681,"170":0.09356147781906606,"171":-0.1542519119070398,"172":-0.01509774973543185,"173":-0.0402110715363123,"174":0.046957166288515644,"175":-0.17657374852021673,"176":-0.0976181294555091,"177":-0.09770399602922931,"178":0.1262283905505064,"179":-0.16713945204163091,"180":0.029873694528962137,"181":0.017686234569048623,"182":-0.13307482114844094,"183":-0.10116371113759766,"184":0.032086111989741255,"185":-0.09685965615487316,"186":-0.05431621784827516,"187":-0.18917661550026627,"188":0.025236946543665973,"189":-0.11628889548866733,"190":0.05136679034715532,"191":-0.10786560088081444,"192":-0.06466459959499678,"193":-0.004936556935805126,"194":-0.07015901864527219,"195":0.1535872007939574,"196":0.09894890807328965,"197":-0.03651775640926403,"198":0.04361038016856397,"199":-0.05520326652070161,"200":0.042636350448853604,"201":0.1795154342352453,"202":-0.11708749498231538,"203":-0.0840438881580622,"204":-0.17203902875501992,"205":-0.13696269390090243,"206":-0.012551880934927172,"207":-0.05505381239845433,"208":-0.1752667754368614,"209":-0.06051526277945874,"210":0.04666639106651238,"211":-0.06262973163086373,"212":-0.11493960813006518,"213":0.16857586591097423,"214":-0.08990678464585923,"215":-0.1816272183588805,"216":0.005803299262086587,"217":-0.18016428941408583,"218":-0.1324916338858864,"219":0.1888164006166551,"220":0.16505891422892144,"221":0.14035253825056368,"222":-0.0834748586903164,"223":-0.1557539523585764,"224":0.11979204682526287,"225":-0.11833936367968263,"226":-0.03842244610769112,"227":-0.08664054213881203,"228":-0.1602680146116032,"229":-0.05377872564834268,"230":-0.008009642387613477,"231":-0.13311415782532784,"232":-0.1583374724064053,"233":-0.11816399206563614,"234":-0.003785567517854496,"235":-0.08700119818727912,"236":0.19019161769764448,"237":0.003805242924060104,"238":0.13594636123632273,"239":0.1192964961557673,"240":-0.16587117919829072,"241":0.06950867529982303,"242":-0.0023996225274329984,"243":-0.06548314803587653,"244":-0.0684632776242272,"245":0.18599624960598127,"246":0.17227159623624336,"247":-0.14561107623614916,"248":0.019887241308162808,"249":-0.15030118609869791,"250":-0.13862738096960797,"251":-0.14355408361821145,"252":0.03213402234784504,"253":0.08324111688330213,"254":0.00609465014157942,"255":0.11776655336659701}},"11":{"bias":0.16962382313970362,"weights":{"0":0.03683410547907707,"1":-0.022065762994031655,"2":-0.004706089600615703,"3":0.10680753560613557,"4":-0.12021493122089127,"5":0.12569482129455017,"6":0.1676164590938264,"7":-0.1248255124300737,"8":-0.13162907433936147,"9":0.037017579112154614,"10":0.004479017328603738,"11":-0.14687248325546967,"12":-0.0874771772082624,"13":0.04573683382817803,"14":0.04486474424415024,"15":-0.09170487658617497,"16":-0.023060608444633108,"17":-0.06502931689494508,"18":-0.044228062577350014,"19":-0.06991095671344014,"20":0.05139130321923579,"21":-0.15241261122820668,"22":0.04791428574436634,"23":0.11652343489988937,"24":0.02586142667076587,"25":0.049156840870169666,"26":-0.1704199379253107,"27":-0.00974416926711425,"28":-0.18053824783051134,"29":0.06782176535058014,"30":-0.004625520127370008,"31":0.1921782804462691,"32":-0.15990500622795786,"33":-0.13714743734748294,"34":0.08710447462824468,"35":-0.08789297931861069,"36":-0.18394684164033234,"37":-0.185445979465374,"38":0.10160433244747934,"39":-0.16398289750660522,"40":-0.042192610989107884,"41":0.07965692814043013,"42":-0.15361707611775516,"43":-0.06438818257198697,"44":0.008913351589329288,"45":-0.1280884408185487,"46":-0.014237244562329703,"47":-0.15492125806049614,"48":-0.1894536193227129,"49":-0.023294344814403088,"50":-0.20045094739093752,"51":-0.08266856823333041,"52":-0.06490266091846252,"53":0.06479058086766534,"54":0.11431634389655274,"55":-0.016353647128170667,"56":0.06952492828209396,"57":-0.1275295833790684,